svm_type c_svc
kernel_type rbf
gamma 4.7619e-05
nr_class 2
total_sv 259
rho 1.69178
label 1 -1
probA -4.91621
probB 0.573984
nr_sv 95 164
SV
1785.111648225862 1:0.026031767 8:0.046855302 10:0.013978167 15:0.0071519487 19:0.0098016202 33:0.021242384 40:0.057229963 42:0.051026603 43:0.0036308165 46:0.00127042 50:0.013977646 55:0.067848475 59:0.041052375 64:0.034143321 66:0.051347075 70:0.023060685 79:0.086350459 82:0.0032270081 84:0.045009223 87:0.0027598236 89:0.035574095 91:0.019975616 94:0.010895282 103:0.032765047 105:0.041577789 114:0.034304864 117:0.017807552 122:0.0054155373 127:0.0097319889 129:0.049709448 131:0.01808602 136:0.018257947 138:0.03394994 144:0.001624306 146:0.077556514 148:0.030432364 150:0.044741397 155:0.0044593773 158:0.012118472 163:0.0065738372 168:0.033029223 170:0.037627616 171:0.0026049033 176:0.016800457 179:0.021001369 189:0.034554402 194:0.014369278 203:0.037947422 206:0.020127863 207:0.017865011 212:0.091479879 218:0.01009863 225:0.044687121 238:0.022503566 239:0.021084027 250:0.01947113 253:0.025643487 257:0.078978765 258:0.026148073 265:0.013840765 266:0.047993865 278:0.023213301 284:0.012401128 287:0.0099990997 292:0.025173159 295:5.5762171e-05 298:0.0090126589 302:0.019830002 306:0.025232439 308:0.094235335 310:0.07732926 312:0.022750443 314:0.016127896 320:0.008770898 325:0.014250402 326:0.016807855 334:0.020123568 337:0.023165474 346:0.031298077 349:0.011296356 362:0.024903503 363:0.0076019673 366:0.0020330797 368:0.0012480612 375:0.018837879 377:0.018148562 385:0.057829786 388:0.026474199 393:0.0087975958 399:0.012077834 406:0.079728334 408:0.027805443 414:0.0065125429 415:0.10057095 417:0.0063707855 422:0.028115431 425:0.028713618 428:0.015909957 431:0.015536692 432:0.022028326 433:0.028217701 437:0.024008316 438:0.011855487 441:0.0077051404 443:0.018311319 448:0.024626324 452:0.0060895872 456:0.028619922 461:0.040841368 465:0.028733407 467:0.026804326 477:0.032251169 483:0.028191538 484:0.015366861 485:0.053446398 488:0.030088294 493:0.011865587 496:0.061575988 499:0.030242996 514:0.0077188304 515:0.010369048 519:0.0085668518 531:0.018864937 533:0.021053999 534:0.028333972 535:0.048843884 537:0.012654696 540:0.051208331 546:0.033335896 552:0.024565388 559:0.01004211 560:0.0063206942 562:0.0049971665 563:0.01984304 567:0.06095071 568:0.0022985469 569:0.046094063 573:0.046363104 578:0.031846866 585:0.062961727 591:0.026815022 592:0.033767201 595:0.013285989 596:0.010737322 598:0.0039110841 602:0.0080091201 603:0.03631618 606:0.0012793423 611:0.057507539 620:0.021141561 630:0.029271995 631:0.041598904 634:0.009799511 638:0.08369168 639:0.0049679407 640:0.029439818 646:0.020520476 650:0.012832197 660:0.015413437 664:0.037116441 666:0.073475747 667:0.03251862 670:0.010739752 671:0.0075499227 674:0.02106263 677:0.010547505 680:0.010780848 682:0.050827707 688:0.0034025532 691:0.023522204 693:0.03897047 695:0.0066699607 700:0.041061844 702:0.022186775 704:0.071210153 708:0.017784688 711:0.047656477 713:0.015667029 722:0.029678313 723:0.034172818 725:0.018740791 726:0.015105534 728:0.051627081 729:0.0074638979 732:0.034788666 733:0.037676817 739:0.037308639 740:0.026181318 742:0.0019194961 743:0.032759924 745:0.0089435478 754:0.0094090659 756:0.12136737 758:0.036477837 759:0.025617171 761:0.043855406 762:0.030425599 768:0.01569094 772:0.035529063 773:0.04620112 780:0.068624114 784:0.0020790485 787:0.0074864961 793:0.016612335 795:0.011487145 799:0.018764665 808:0.0070754305 812:0.023616966 813:0.023446987 819:0.021405963 824:0.071794111 826:0.029618193 830:0.015824558 831:0.025113547 832:0.029604403 840:0.036290477 843:0.075015157 850:0.016300653 852:0.026346088 855:0.023188699 860:0.064082667 872:0.067769697 875:0.0098082906 876:0.028312054 878:0.08627665 891:0.051821407 892:0.010467832 898:0.033529317 899:0.010412226 902:0.013196268 903:0.019595948 909:0.015130836 914:0.0043987247 915:0.059546631 916:0.047249172 917:0.01572851 920:0.042107022 923:0.015161878 925:0.065970377 926:0.038464934 928:0.025837886 937:0.0063843468 939:0.01358754 940:0.0040123369 942:0.028942693 946:0.021632464 949:0.05888475 950:0.021399519 951:0.017517688 955:0.0061747817 963:0.0060033142 966:0.0030914252 970:0.0021139508 972:0.009530794 973:0.01915589 975:0.0070816875 983:0.041998241 991:0.016321177 1001:0.026031767 1008:0.046855302 1040:0.0039995741 1055:0.067848475 1059:0.041052375 1079:0.086350459 1082:0.0032270081 1094:0.010895282 1127:0.0097319889 1138:0.03394994 1144:0.001624306 1150:0.044741397 1158:0.012118472 1212:0.091479879 1225:0.044687121 1278:0.0053439533 1302:0.019830002 1337:0.023165474 1368:0.0012480612 1385:0.057829786 1408:0.023046402 1414:0.0065125429 1417:0.0063707855 1448:0.024626324 1467:0.026804326 1519:0.0085668518 1535:0.048843884 1537:0.0019180533 1620:0.021141561 1631:0.0083073827 1638:0.08369168 1646:0.020520476 1664:0.0043131605 1666:0.073475747 1670:0.010739752 1671:0.0075499227 1682:0.023811656 1688:0.0034025532 1725:0.018740791 1743:0.032759924 1772:0.035529063 1813:0.013236355 1819:0.0070822487 1831:0.025113547 1843:0.075015157 1916:0.047249172 1917:0.01572851 1949:0.05888475 1955:0.0061747817 1975:0.0070816875 2001:0.023132546 2015:0.0071519487 2033:0.0042746764 2042:0.051026603 2046:0.00127042 2050:0.013977646 2070:0.012510533 2089:0.035574095 2103:0.032765047 2136:0.011880279 2138:0.0078966836 2146:0.077556514 2148:0.030432364 2155:0.0044593773 2163:0.0065738372 2168:0.033029223 2170:0.037627616 2176:0.016800457 2189:0.034554402 2207:0.017865011 2238:0.022503566 2239:0.021084027 2258:0.025910372 2266:0.047993865 2284:0.012401128 2287:0.0099990997 2295:5.5762171e-05 2308:0.094235335 2310:0.037388429 2312:0.022750443 2325:0.014250402 2346:0.025350473 2375:0.018837879 2377:0.012720589 2393:0.0087975958 2399:0.012077834 2415:0.10057095 2432:0.018797779 2433:0.028217701 2443:0.018311319 2452:0.0060895872 2456:0.028619922 2465:0.014293734 2477:0.032251169 2484:0.015366861 2485:0.053446398 2488:0.030088294 2493:0.011865587 2496:0.05088978 2499:0.030242996 2514:0.0077188304 2531:0.0025762846 2533:0.021053999 2534:0.028333972 2537:0.012654696 2540:0.051208331 2552:0.024565388 2559:0.01004211 2560:0.0063206942 2562:0.0049971665 2563:0.01984304 2567:0.0091710485 2568:0.0022985469 2569:0.014648118 2573:0.0076537894 2578:0.031846866 2585:0.062961727 2592:0.028149461 2595:0.013285989 2596:0.010737322 2603:0.03631618 2631:0.041598904 2634:0.009799511 2639:0.0049679407 2650:0.012832197 2660:0.010711637 2667:0.03251862 2674:0.02106263 2677:0.010547505 2680:0.010780848 2682:0.050827707 2691:0.023522204 2693:0.03897047 2702:0.022186775 2708:0.017784688 2713:0.015667029 2726:0.015105534 2728:0.051627081 2732:0.031878469 2743:0.016929038 2745:0.0089435478 2756:0.015066526 2758:0.036477837 2761:0.043855406 2762:0.030425599 2773:0.04620112 2780:0.068624114 2784:0.0020790485 2787:0.0074864961 2793:0.016612335 2795:0.011487145 2813:0.023446987 2819:0.021405963 2826:0.029618193 2830:0.015824558 2832:0.029604403 2855:0.023188699 2860:0.064082667 2875:0.0098082906 2878:0.08627665 2891:0.051821407 2892:0.010467832 2899:0.010412226 2909:0.015130836 2915:0.059546631 2917:0.0027750971 2923:0.015161878 2925:0.065970377 2926:0.038464934 2940:0.0040123369 2942:0.028942693 2946:0.021632464 2950:0.021399519 2972:0.009530794 2973:0.01915589 2983:0.041998241 2991:0.016321177 3033:0.021242384 3043:0.0036308165 3066:0.0050308748 3070:0.023060685 3087:0.0027598236 3114:0.034304864 3122:0.0054155373 3310:0.07732926 3326:0.016807855 3362:0.024903503 3428:0.015909957 3432:0.022028326 3483:0.028191538 3602:0.0080091201 3700:0.041061844 3759:0.025617171 3840:0.036290477 3852:0.026346088 3891:0.011160993 3903:0.019595948 4010:0.013978167 4019:0.0098016202 4040:0.057229963 4064:0.034143321 4066:0.051347075 4084:0.045009223 4091:0.019975616 4105:0.041577789 4117:0.017807552 4129:0.049709448 4131:0.01808602 4136:0.018257947 4138:0.028794688 4170:0.02087859 4171:0.0026049033 4176:0.0061343525 4179:0.021001369 4194:0.014369278 4203:0.037947422 4206:0.020127863 4218:0.01009863 4239:0.0029138217 4250:0.01947113 4253:0.025643487 4257:0.078978765 4258:0.026148073 4265:0.013840765 4278:0.023213301 4292:0.025173159 4298:0.0090126589 4306:0.025232439 4314:0.016127896 4320:0.008770898 4334:0.020123568 4346:0.031298077 4349:0.011296356 4362:0.020361464 4363:0.0076019673 4366:0.0020330797 4377:0.018148562 4388:0.026474199 4406:0.079728334 4408:0.027805443 4415:0.09458912 4422:0.028115431 4425:0.028713618 4431:0.015536692 4437:0.024008316 4438:0.011855487 4441:0.0077051404 4461:0.040841368 4465:0.028733407 4485:0.025610241 4496:0.061575988 4515:0.010369048 4531:0.018864937 4546:0.033335896 4562:0.000413111 4563:0.00059578672 4567:0.06095071 4569:0.046094063 4573:0.046363104 4585:0.021715645 4591:0.026815022 4592:0.033767201 4598:0.0039110841 4606:0.0012793423 4611:0.057507539 4620:0.0023502151 4630:0.029271995 4639:0.0024535729 4640:0.029439818 4660:0.015413437 4664:0.037116441 4682:0.0069329455 4695:0.0066699607 4704:0.071210153 4711:0.047656477 4722:0.029678313 4723:0.034172818 4729:0.0074638979 4732:0.034788666 4733:0.037676817 4739:0.037308639 4740:0.026181318 4742:0.0019194961 4754:0.0094090659 4756:0.12136737 4758:0.014551515 4768:0.01569094 4773:0.0094224393 4780:0.037586473 4799:0.018764665 4808:0.0070754305 4812:0.023616966 4824:0.071794111 4843:0.016210089 4850:0.016300653 4872:0.067769697 4876:0.028312054 4898:0.033529317 4902:0.013196268 4914:0.0043987247 4916:0.036338223 4920:0.042107022 4928:0.025837886 4937:0.0063843468 4939:0.01358754 4942:0.0036777375 4951:0.017517688 4963:0.0060033142 4966:0.0030914252 4970:0.0021139508 4983:0.007169133 5001:0.026031767 5059:0.041052375 5079:0.036353132 5082:0.0032270081 5138:0.03394994 5158:0.012118472 5278:0.0053439533 5302:0.019830002 5368:0.0012480612 5408:0.023046402 5414:0.0065125429 5448:0.024626324 5535:0.048843884 5537:0.0019180533 5631:0.0083073827 5646:0.020520476 5664:0.0043131605 5671:0.0075499227 5682:0.023811656 5688:0.0034025532 5916:0.047249172 5955:0.0061747817 5975:0.0070816875 6055:-0.032896711 6094:0.010895282 6150:0.039538034 6670:0.010739752 6743:0.032759924 7001:0.016095583 7046:0.00127042 7050:0.013977646 7148:0.030432364 7163:0.0065738372 7207:0.0053659252 7284:0.012401128 7287:0.0099990997 7433:0.028217701 7484:0.015366861 7499:0.030242996 7537:0.012654696 7540:0.051208331 7578:0.0015091547 7631:0.041598904 7650:0.012832197 7682:0.050827707 7693:0.037814044 7702:0.022186775 7732:0.031878469 7743:0.016929038 7745:0.0089435478 7784:0.0020790485 7795:0.011487145 7826:0.029618193 7830:0.015824558 7899:0.010412226 7909:0.015130836 7917:0.0027750971 7925:0.065970377 7946:0.021632464 7950:0.010690463 8001:0.023132546 8015:0.0071519487 8089:0.035574095 8103:0.032765047 8136:0.011880279 8176:0.016800457 8189:0.0046865223 8207:0.017865011 8238:0.022503566 8266:0.047993865 8295:5.5762171e-05 8308:0.094235335 8312:0.022750443 8393:0.0087975958 8443:0.018311319 8484:0.0048930752 8488:0.030088294 8514:0.0077188304 8533:0.021053999 8534:0.028333972 8552:0.024565388 8559:0.01004211 8567:0.0091710485 8569:0.011597078 8578:0.031846866 8595:0.013285989 8674:0.02106263 8677:0.010547505 8693:0.03897047 8726:0.015105534 8761:0.021289342 8762:0.030425599 8787:0.0074864961 8793:0.016612335 8819:0.021405963 8832:0.029604403 8855:0.023188699 8892:0.010467832 8923:0.015161878 8940:0.0040123369 8950:0.021399519 8972:0.009530794 8973:0.01915589 9008:0.046855302 9040:0.0039995741 9055:0.067848475 9079:0.086350459 9127:0.0097319889 9144:0.001624306 9150:0.044741397 9212:0.091479879 9225:0.044687121 9337:0.023165474 9385:0.057829786 9417:0.0063707855 9467:0.026804326 9519:0.0085668518 9620:0.021141561 9638:0.08369168 9666:0.073475747 9725:0.018740791 9772:0.035529063 9813:0.013236355 9819:0.0070822487 9831:0.025113547 9843:0.075015157 9917:0.01572851 9949:0.05888475 11070:0.012510533 11138:0.0078966836 11146:0.077556514 11155:0.0044593773 11168:0.033029223 11239:0.021084027 11310:0.037388429 11346:0.025350473 11415:0.10057095 11456:0.012312085 11465:0.014293734 11496:0.05088978 11531:0.0025762846 11562:0.0013160992 11563:0.01984304 11592:0.028149461 11596:0.010737322 11603:0.03631618 11639:0.0049679407 11660:0.010711637 11682:0.018857357 11708:0.017784688 11713:0.015667029 11773:0.04620112 11813:0.023446987 11875:0.0098082906 11878:0.08627665 11926:0.038464934 11983:0.041998241 11991:0.016321177 12033:0.0042746764 12042:0.051026603 12170:0.037627616 12189:0.034554402 12258:0.025910372 12325:0.014250402 12375:0.018837879 12377:0.012720589 12399:0.012077834 12415:0.078205069 12432:0.018797779 12452:0.0060895872 12456:0.028619922 12477:0.032251169 12485:0.053446398 12493:0.011865587 12560:0.0063206942 12562:0.0049971665 12568:0.0022985469 12569:0.014648118 12573:0.0076537894 12585:0.062961727 12634:0.009799511 12667:0.03251862 12680:0.010780848 12691:0.023522204 12728:0.051627081 12756:0.015066526 12758:0.036477837 12761:0.043855406 12780:0.068624114 12860:0.064082667 12891:0.051821407 12915:0.059546631 12942:0.028942693 13043:0.0036308165 13066:0.0050308748 13070:0.023060685 13122:0.0054155373 13362:0.024903503 13428:0.015909957 13432:0.022028326 13483:0.028191538 13759:0.025617171 13852:0.026346088 13891:0.011160993 13903:0.019595948 15019:0.0098016202 15040:0.057229963 15091:0.019975616 15117:0.017807552 15129:0.049709448 15138:0.028794688 15170:0.02087859 15171:0.0026049033 15206:0.020127863 15258:0.026148073 15298:0.0090126589 15314:0.016127896 15363:0.0076019673 15388:0.026474199 15406:0.079728334 15408:0.027805443 15415:0.09458912 15465:0.028733407 15496:0.061575988 15531:0.0091914561 15562:0.000413111 15563:0.00059578672 15611:0.057507539 15639:0.0024535729 15640:0.029439818 15664:0.037116441 15682:0.0069329455 15704:0.008103984 15723:0.034172818 15733:0.037676817 15739:0.037308639 15740:0.026181318 15742:0.0019194961 15876:0.028312054 15916:0.036338223 15920:0.042107022 15939:0.01358754 16010:0.013978167 16064:0.034143321 16131:0.01808602 16136:0.018257947 16170:0.011097754 16179:0.021001369 16203:0.037947422 16239:0.0029138217 16250:0.01947113 16253:0.025643487 16257:0.01910037 16265:0.013840765 16292:0.025173159 16306:0.025232439 16346:0.031298077 16415:0.077971281 16422:0.028115431 16437:0.024008316 16461:0.040841368 16515:0.010369048 16531:0.018864937 16573:0.046363104 16585:0.021715645 16591:0.026815022 16592:0.033767201 16606:0.0012793423 16704:0.071210153 16729:0.0074638979 16756:0.12136737 16758:0.014551515 16768:0.01569094 16799:0.018764665 16824:0.0036505461 16898:0.033529317 16902:0.013196268 16951:0.017517688 16970:0.0021139508 16983:0.007169133 17033:0.021242384 17087:0.0027598236 17326:0.016807855 17353:-0.016064245 17840:0.036290477 18114:0.034304864 18310:0.07732926 18602:0.0080091201 18700:0.041061844 19066:0.051347075 19176:0.0061343525 19194:0.014369278 19257:0.078978765 19278:0.023213301 19320:0.008770898 19334:0.020123568 19349:0.011296356 19362:0.020361464 19366:0.0020330797 19377:0.018148562 19425:0.028713618 19431:0.015536692 19438:0.011855487 19485:0.025610241 19546:0.033335896 19567:0.06095071 19569:0.046094063 19598:0.0039110841 19630:0.029271995 19660:0.015413437 19695:0.0066699607 19722:0.029678313 19732:0.034788666 19754:0.0094090659 19773:0.0094224393 19780:0.037586473 19808:0.0070754305 19812:0.023616966 19824:0.071794111 19850:0.016300653 19872:0.067769697 19914:0.0043987247 19928:0.025837886 19937:0.0063843468 19942:0.0036777375 19963:0.0060033142 19966:0.0030914252 20084:0.045009223 20105:0.041577789 20218:0.01009863 20441:0.0077051404 20620:0.0023502151 20711:0.047656477 20843:0.016210089 
10337.87372477052 1:0.027312568 8:0.049160653 10:0.02540781 15:0.0075038352 19:0.010283875 33:0.022287541 35:0.005130405 40:0.060045763 42:0.053537188 43:0.0038094581 46:0.0013329266 50:0.014665367 55:0.071186721 59:0.043072213 64:0.035823223 66:0.053873427 70:0.024195305 79:0.09059903 82:0.0033857817 84:0.047223744 87:0.039235576 89:0.037324394 91:0.020958446 94:0.011431347 103:0.034377136 105:0.043623478 114:0.035992715 117:0.01868371 122:0.0056819898 127:0.010210817 129:0.052155227 131:0.01897588 136:0.019156265 138:0.035620328 144:0.0017042243 146:0.08137241 148:0.031929682 150:0.046942741 155:0.0046787853 158:0.012714719 163:0.029972042 168:0.03465431 170:0.039478951 171:0.0027330685 176:0.0064361718 179:0.022034668 189:0.03625453 191:1.9273825e-05 194:0.015076267 203:0.039814492 206:0.021118184 207:0.0056299368 209:0.023517259 212:0.095980825 218:0.010595498 225:0.046885794 239:0.022121393 253:0.026734376 257:0.082864638 258:0.027434597 265:0.014521751 266:0.050355235 278:0.02435543 284:0.013011282 287:0.01049107 292:0.026411716 295:5.8505753e-05 298:0.0094560951 302:0.020805667 310:0.081133975 312:0.023869799 314:0.016921413 320:0.0092024392 325:0.014951543 326:0.017634826 334:0.021113678 337:0.024305249 340:0.052885088 346:0.032837989 349:0.011852154 362:0.026128792 363:0.0079759954 366:0.0021331103 368:0.0013094676 375:0.019764731 377:0.019041498 385:0.060675098 388:0.027776769 399:0.012672081 406:0.083651086 408:0.029173513 414:0.0068329697 415:0.10551919 417:0.0066842376 422:0.029498752 425:0.030126371 428:0.016692751 431:0.01630112 432:0.023112152 433:0.029606054 437:0.025189561 438:0.012438794 443:0.019212263 448:0.025837976 452:0.006389204 456:0.014131674 461:0.042850824 465:0.030147134 467:0.028123139 470:0.016098437 477:0.033837975 483:0.029578604 484:0.016122933 485:0.056076041 493:0.012449391 496:0.064605618 499:0.031730997 515:0.010879221 519:0.0089883536 531:0.01979312 535:0.051247076 537:0.013277326 540:0.053727857 546:0.034976072 559:0.010536196 560:0.0066316817 562:0.0052430345 563:0.020819348 567:0.063949575 569:0.04836196 573:0.023512778 578:0.0015834073 585:0.022161556 591:0.028134361 592:0.040142849 594:0.022241198 596:0.011265614 598:0.0041035153 602:0.014163775 603:0.03810299 611:0.060336995 620:0.022181757 630:0.03071222 631:0.043645632 638:0.087809435 639:0.0052123708 640:0.030888301 646:0.021530114 660:0.016171801 664:0.038942625 666:0.077090863 667:0.034118584 670:0.011268164 671:0.0079213902 674:0.022098943 677:0.011066458 680:0.011311281 682:0.053328506 688:0.0035699639 691:0.0025217941 693:0.039674551 695:0.0069981327 700:0.043082148 702:0.023278398 704:0.074713799 708:0.018659721 711:0.0087909275 713:0.01643787 722:0.031138531 723:0.035854171 725:0.019662865 726:0.015848749 728:0.05416721 729:0.0078311328 732:0.036500321 733:0.039530572 739:0.03914428 740:0.027469477 742:0.0020139381 743:0.034371761 745:0.0093835837 754:0.0098720059 756:0.12733882 758:0.038272601 759:0.026877574 761:0.046013157 762:0.031922584 768:0.016462957 772:0.037277146 773:0.048474284 780:0.072000522 784:0.0021813408 793:0.017429687 795:0.01205233 808:0.0074235523 812:0.024778956 813:0.024600614 819:0.0074307059 824:0.075326488 826:0.031075452 830:0.01660315 831:0.026349171 833:0.034882623 840:0.038076023 843:0.078706015 850:0.017102669 852:0.027642355 855:0.024329617 860:0.0030561242 872:0.071104067 875:0.010290873 876:0.029705049 878:0.09052159 891:0.037915341 898:0.035179009 899:0.010924523 902:0.013845544 903:0.020560098 914:0.0046151485 915:0.062476414 916:0.049573902 917:0.016502376 920:0.044178751 925:0.069216218 926:0.040357466 928:0.027109149 937:0.0066984661 939:0.014256067 940:0.0042097498 942:0.030366717 946:0.022696814 949:0.061781968 950:0.022452407 951:0.00097860342 955:0.0064785901 963:0.0062986862 966:0.0032435279 970:0.0022179603 972:0.0099997233 973:0.020098388 975:0.0074301171 983:0.044064617 991:0.017124203 1001:0.027312568 1008:0.049160653 1040:0.0041963591 1043:0.0038094581 1055:0.071186721 1059:0.043072213 1066:0.0052784013 1070:0.024195305 1079:0.09059903 1082:0.0033857817 1122:0.0056819898 1127:0.010210817 1138:0.035620328 1144:0.0017042243 1150:0.046942741 1158:0.012714719 1212:0.095980825 1225:0.046885794 1278:0.0056068837 1302:0.020805667 1337:0.024305249 1362:0.026128792 1368:0.0013094676 1385:0.060675098 1408:0.024180319 1414:0.0068329697 1417:0.0066842376 1428:0.016692751 1432:0.023112152 1448:0.025837976 1467:0.028123139 1483:0.029578604 1519:0.0089883536 1535:0.051247076 1537:0.0020124244 1620:0.022181757 1631:0.0087161183 1638:0.087809435 1646:0.021530114 1664:0.0045253745 1666:0.077090863 1671:0.0079213902 1682:0.024983225 1688:0.0035699639 1725:0.019662865 1759:0.026877574 1772:0.037277146 1813:0.013887604 1819:0.0074307059 1831:0.026349171 1843:0.078706015 1852:0.027642355 1891:0.01171013 1903:0.020560098 1916:0.049573902 1917:0.016502376 1949:0.061781968 1955:0.0064785901 1975:0.0074301171 2001:0.01688751 2015:0.0075038352 2019:0.010283875 2040:0.060045763 2042:0.053537188 2046:0.0013329266 2050:0.014665367 2064:0.035823223 2070:0.01312607 2089:0.037324394 2091:0.020958446 2094:0.011431347 2103:0.034377136 2138:0.03021143 2146:0.08137241 2148:0.031929682 2150:0.041483364 2155:0.0046787853 2163:0.0068972797 2168:0.03465431 2170:0.039478951 2171:0.0027330685 2189:0.03625453 2206:0.021118184 2207:0.0056299368 2239:0.022121393 2258:0.027185201 2266:0.050355235 2284:0.013011282 2287:0.01049107 2292:0.026411716 2295:5.8505753e-05 2310:0.039227995 2312:0.023869799 2314:0.016921413 2325:0.014951543 2346:0.032837989 2375:0.019764731 2377:0.013346461 2388:0.015127212 2399:0.012672081 2415:0.10551919 2422:0.029498752 2432:0.019722657 2433:0.029606054 2437:0.025189561 2443:0.019212263 2452:0.006389204 2456:0.014131674 2461:0.042850824 2465:0.030147134 2477:0.033837975 2484:0.016122933 2485:0.056076041 2493:0.012449391 2496:0.064605618 2499:0.031730997 2515:0.010879221 2531:0.0027030417 2537:0.013277326 2540:0.053727857 2559:0.010536196 2560:0.0066316817 2562:0.0052430345 2563:0.020819348 2569:0.015368828 2573:0.023512778 2578:0.0015834073 2585:0.022161556 2592:0.029534456 2596:0.011265614 2603:0.03810299 2611:0.060336995 2631:0.043645632 2639:0.0052123708 2640:0.030888301 2660:0.011238665 2664:0.038942625 2667:0.034118584 2670:0.011268164 2674:0.022098943 2677:0.011066458 2680:0.011311281 2682:0.053328506 2691:0.0025217941 2693:0.039674551 2702:0.023278398 2704:0.074713799 2708:0.018659721 2713:0.01643787 2726:0.015848749 2728:0.05416721 2733:0.039530572 2740:0.020874855 2742:0.0020139381 2743:0.034371761 2745:0.0093835837 2756:0.12733882 2758:0.038272601 2761:0.046013157 2762:0.031922584 2768:0.00094157493 2773:0.048474284 2780:0.072000522 2784:0.0021813408 2793:0.017429687 2795:0.01205233 2813:0.024600614 2826:0.031075452 2830:0.01660315 2855:0.024329617 2860:0.0030561242 2875:0.010290873 2878:0.09052159 2891:0.037915341 2899:0.010924523 2915:0.062476414 2925:0.069216218 2926:0.040357466 2939:0.014256067 2940:0.0042097498 2942:0.030366717 2946:0.022696814 2950:0.022452407 2970:0.0022179603 2972:0.0099997233 2973:0.020098388 2983:0.044064617 2991:0.017124203 3010:0.02540781 3033:0.022287541 3087:0.039235576 3163:0.029972042 3191:1.9273825e-05 3209:0.023517259 3253:0.026734376 3310:0.081133975 3326:0.017634826 3470:0.016098437 3592:0.040142849 3594:0.022241198 3602:0.014163775 3833:0.034882623 3840:0.038076023 3855:0.0049549012 4035:0.005130405 4066:0.053873427 4084:0.047223744 4105:0.043623478 4114:0.035992715 4117:0.01868371 4129:0.052155227 4131:0.01897588 4136:0.019156265 4170:0.015609874 4176:0.0064361718 4179:0.022034668 4194:0.015076267 4203:0.039814492 4218:0.010595498 4257:0.082864638 4258:0.027434597 4265:0.014521751 4278:0.02435543 4298:0.0094560951 4320:0.0092024392 4334:0.021113678 4340:0.052885088 4349:0.011852154 4362:0.021363278 4363:0.0079759954 4366:0.0021331103 4377:0.019041498 4388:0.027776769 4406:0.083651086 4408:0.029173513 4415:0.099243046 4425:0.030126371 4431:0.01630112 4438:0.012438794 4485:0.026870303 4531:0.01979312 4546:0.034976072 4562:0.00043343668 4567:0.063949575 4569:0.04836196 4591:0.028134361 4592:0.035428598 4598:0.0041035153 4630:0.03071222 4639:0.0025742923 4660:0.016171801 4695:0.0069981327 4700:0.043082148 4711:0.0087909275 4722:0.031138531 4723:0.035854171 4729:0.0078311328 4732:0.036500321 4739:0.03914428 4740:0.027469477 4754:0.0098720059 4768:0.016462957 4773:0.0098860374 4780:0.039435784 4808:0.0074235523 4812:0.024778956 4824:0.075326488 4850:0.017102669 4872:0.071104067 4876:0.029705049 4898:0.035179009 4902:0.013845544 4914:0.0046151485 4916:0.038126118 4920:0.044178751 4928:0.027109149 4937:0.0066984661 4942:0.005231289 4951:0.00097860342 4963:0.0062986862 4966:0.0032435279 5059:0.043072213 5079:0.09059903 5082:0.0033857817 5138:0.035620328 5158:0.012714719 5414:0.0068329697 5448:0.025837976 5664:0.0045253745 5671:0.0079213902 5682:0.024983225 5949:0.0095700043 6001:0.027312568 6059:0.027102784 6278:0.0056068837 6302:0.020805667 6368:0.0013094676 6408:0.024180319 6535:0.051247076 6537:0.0020124244 6631:0.0087161183 6646:0.021530114 6688:0.0035699639 6916:0.049573902 6955:0.0064785901 6975:0.0074301171 7001:0.01688751 7094:0.011431347 7150:0.041483364 7163:0.0068972797 7287:0.01049107 7537:0.013277326 7578:0.0015834073 7670:0.011268164 7682:0.053328506 7702:0.023278398 7743:0.034371761 7899:0.010924523 8015:0.0075038352 8046:0.0013329266 8050:0.014665367 8089:0.037324394 8103:0.034377136 8146:0.08137241 8148:0.031929682 8155:0.0046787853 8189:0.03625453 8207:0.0056299368 8266:0.050355235 8284:0.013011282 8295:5.8505753e-05 8312:0.023869799 8399:0.012672081 8415:0.10551919 8433:0.029606054 8443:0.019212263 8456:0.014131674 8484:0.016122933 8493:0.012449391 8499:0.031730997 8531:0.0027030417 8540:0.053727857 8559:0.010536196 8562:0.0013808533 8569:0.015368828 8596:0.011265614 8603:0.03810299 8631:0.043645632 8639:0.0052123708 8660:0.011238665 8674:0.022098943 8677:0.011066458 8693:0.039674551 8726:0.015848749 8745:0.0093835837 8761:0.046013157 8762:0.031922584 8773:0.048474284 8784:0.0021813408 8793:0.017429687 8795:0.01205233 8813:0.024600614 8826:0.031075452 8830:0.01660315 8855:0.024329617 8925:0.069216218 8940:0.0042097498 8946:0.022696814 8950:0.022452407 8972:0.0099997233 8973:0.020098388 9066:0.0052784013 9127:0.010210817 9362:0.026128792 9432:0.023112152 9638:0.087809435 9725:0.019662865 9813:0.013887604 9819:0.0074307059 9891:0.01171013 9949:0.061781968 10008:0.049160653 10040:0.0041963591 10043:0.0038094581 10055:0.071186721 10070:0.024195305 10122:0.0056819898 10144:0.0017042243 10150:0.046942741 10212:0.095980825 10225:0.046885794 10337:0.024305249 10385:0.060675098 10417:0.0066842376 10428:0.016692751 10467:0.028123139 10483:0.029578604 10519:0.0089883536 10620:0.022181757 10666:0.077090863 10759:0.026877574 10772:0.037277146 10831:0.026349171 10843:0.078706015 10852:0.027642355 10903:0.020560098 10917:0.016502376 12019:0.010283875 12040:0.060045763 12042:0.053537188 12064:0.035823223 12070:0.01312607 12091:0.020958446 12138:0.03021143 12168:0.03465431 12170:0.039478951 12171:0.0027330685 12206:0.021118184 12239:0.022121393 12258:0.027185201 12292:0.026411716 12310:0.039227995 12314:0.016921413 12325:0.014951543 12346:0.032837989 12375:0.019764731 12377:0.013346461 12388:0.015127212 12415:0.082052875 12422:0.029498752 12432:0.019722657 12437:0.025189561 12452:0.006389204 12456:0.012917858 12461:0.042850824 12465:0.030147134 12477:0.033837975 12485:0.056076041 12496:0.064605618 12515:0.010879221 12560:0.0066316817 12562:0.0052430345 12563:0.020819348 12573:0.023512778 12585:0.022161556 12592:0.029534456 12611:0.060336995 12640:0.030888301 12664:0.038942625 12667:0.034118584 12680:0.011311281 12682:0.019785167 12691:0.0025217941 12704:0.074713799 12708:0.018659721 12713:0.01643787 12728:0.05416721 12733:0.039530572 12740:0.020874855 12742:0.0020139381 12756:0.12733882 12758:0.038272601 12768:0.00094157493 12780:0.072000522 12860:0.0030561242 12875:0.010290873 12878:0.09052159 12891:0.037915341 12915:0.062476414 12926:0.040357466 12939:0.014256067 12942:0.030366717 12970:0.0022179603 12983:0.044064617 12991:0.017124203 13191:1.9273825e-05 13209:0.023517259 13401:-0.010478224 13470:0.016098437 13833:0.034882623 16084:0.047223744 16105:0.043623478 16117:0.01868371 16129:0.052155227 16131:0.01897588 16136:0.019156265 16170:0.015609874 16179:0.022034668 16203:0.039814492 16218:0.010595498 16257:0.020040136 16258:0.027434597 16265:0.014521751 16278:0.02435543 16298:0.0094560951 16334:0.021113678 16363:0.0079759954 16388:0.027776769 16406:0.083651086 16408:0.029173513 16415:0.099243046 16531:0.01979312 16562:0.00043343668 16591:0.028134361 16592:0.035428598 16598:0.0041035153 16630:0.03071222 16639:0.0025742923 16711:0.0087909275 16723:0.035854171 16729:0.0078311328 16732:0.036500321 16739:0.03914428 16740:0.027469477 16768:0.016462957 16824:0.0038301584 16850:0.017102669 16876:0.029705049 16898:0.035179009 16902:0.013845544 16914:0.0046151485 16916:0.038126118 16920:0.044178751 16951:0.00097860342 17010:0.017603555 17253:0.026734376 17592:0.040142849 17799:-0.0036501411 17855:-0.0074627958 18010:0.02540781 18033:0.022287541 18087:0.039235576 18163:0.029972042 18310:0.081133975 18326:0.017634826 18594:0.022241198 18602:0.014163775 18840:0.038076023 18855:0.0049549012 19035:0.005130405 19066:0.053873427 19114:0.035992715 19194:0.015076267 19257:0.082864638 19320:0.0092024392 19340:0.052885088 19349:0.011852154 19362:0.021363278 19366:0.0021331103 19377:0.019041498 19425:0.030126371 19431:0.01630112 19485:0.026870303 19546:0.034976072 19569:0.04836196 19660:0.016171801 19700:0.043082148 19722:0.031138531 19773:0.0098860374 19780:0.039435784 19808:0.0074235523 19812:0.024778956 19928:0.027109149 19937:0.0066984661 19942:0.005231289 20176:0.0064361718 20438:0.012438794 20567:0.063949575 20695:0.0069981327 20754:0.0098720059 20824:0.075326488 20872:0.071104067 20963:0.0062986862 20966:0.0032435279 
5361.822904426443 1:0.029685716 8:0.053432147 15:0.008155832 19:0.011177425 40:0.065263047 42:0.058188952 43:0.0041404561 46:0.0014487425 50:0.015939619 55:0.077372026 59:0.046814691 64:0.038935848 66:0.0057370336 70:0.026297598 79:0.098471041 82:0.0036799672 84:0.051326943 89:0.040567453 91:0.022779494 94:0.012424599 103:0.037364113 105:0.047413855 117:0.020307109 122:0.0061756892 127:0.01109802 129:0.056686915 131:0.020624665 136:0.020820724 138:0.038715324 144:0.0018523017 146:0.088442735 148:0.034704003 150:0.051021524 155:0.0050853178 158:0.013819481 163:0.0074965738 168:0.037665371 170:0.042909216 171:0.0029705406 176:0.0069954009 179:0.023949226 189:0.03940463 191:2.0948498e-05 203:0.043273912 206:0.022953111 207:0.0061191134 209:0.025560638 212:0.10432045 218:0.011516125 225:0.050959629 239:0.024043487 257:0.021781393 258:0.029818348 265:0.015783524 266:0.054730525 278:0.026471636 284:0.014141812 287:0.011402623 292:0.028706589 295:6.3589229e-05 298:0.010277721 302:0.02261344 310:0.042636456 312:0.02594381 314:0.018391689 325:0.016250659 334:0.022948213 337:0.026417095 346:0.035691232 362:0.028399083 363:0.0086690174 368:0.0014232453 375:0.021482058 377:0.014506115 385:0.065947064 388:0.03019025 399:0.013773139 406:0.090919402 408:0.031708355 414:0.007426676 415:0.11468759 417:0.0072650208 422:0.032061853 428:0.018143159 432:0.025120332 433:0.032178479 437:0.027378244 443:0.020881588 448:0.028082998 452:0.0069443522 456:0.015359554 461:0.046574067 465:0.032766572 467:0.030566715 470:0.017497206 477:0.036778105 483:0.032148644 484:0.01752383 485:0.060948403 493:0.0135311 496:0.070219102 499:0.034488055 515:0.0118245 519:0.009769338 531:0.021512914 535:0.055699856 537:0.014430973 540:0.058396188 559:0.01145167 560:0.0072078984 562:0.0056985938 563:0.022628309 567:0.069506056 569:0.016704202 573:0.025555767 578:0.0017209872 585:0.024087139 591:0.030578912 592:0.038506935 596:0.012244466 598:0.0044600635 603:0.041413701 611:0.065579585 620:0.024109096 630:0.033380758 631:0.047437934 638:0.095439063 639:0.0056652657 640:0.033572138 646:0.023400832 660:0.012215176 664:0.042326291 666:0.083789171 667:0.037083096 670:0.012247238 671:0.0086096677 674:0.024019086 677:0.012028006 680:0.012294101 682:0.057962139 688:0.0038801526 691:0.002740909 693:0.043121812 695:0.0076061898 702:0.025301022 704:0.081205567 708:0.020281036 711:0.0095547578 713:0.017866131 723:0.038969486 725:0.021371342 726:0.017225823 728:0.058873716 729:0.008511568 732:0.039671778 733:0.042965323 739:0.042545467 740:0.029856258 742:0.0021889261 743:0.037358271 745:0.010198909 756:0.1384031 758:0.041598049 759:0.029212926 761:0.05001117 762:0.034696288 768:0.017893399 772:0.040516101 773:0.05268614 780:0.078256538 784:0.0023708742 793:0.018944126 795:0.013099539 813:0.026738124 819:0.0080763486 824:0.004162955 826:0.033775551 830:0.018045772 831:0.028638611 833:0.037913521 843:0.08554466 850:0.018588694 852:0.030044157 855:0.026443581 860:0.0033216662 875:0.011185031 876:0.032286076 878:0.098386872 891:0.041209747 898:0.038235659 899:0.011873738 902:0.015048562 903:0.022346533 914:0.0050161517 915:0.067904894 916:0.053881302 917:0.017936242 920:0.048017375 925:0.075230309 926:0.043864065 939:0.015494755 940:0.0045755285 942:0.033005234 946:0.024668905 949:0.067150109 950:0.024403262 951:0.0010636328 955:0.0070415049 966:0.0035253531 970:0.0024106755 972:0.010868584 973:0.021844706 975:0.0080757086 983:0.047893325 991:0.018612099 1001:0.029685716 1008:0.053432147 1040:0.0045609744 1055:0.077372026 1059:0.046814691 1079:0.098471041 1082:0.0036799672 1127:0.01109802 1138:0.038715324 1144:0.0018523017 1150:0.051021524 1158:0.013819481 1212:0.10432045 1225:0.050959629 1278:0.0060940573 1302:0.02261344 1337:0.026417095 1368:0.0014232453 1385:0.065947064 1408:0.026281311 1414:0.007426676 1417:0.0072650208 1448:0.028082998 1467:0.030566715 1519:0.009769338 1535:0.055699856 1537:0.0021872809 1620:0.024109096 1631:0.0094734485 1638:0.095439063 1646:0.023400832 1664:0.0049185774 1666:0.083789171 1671:0.0086096677 1682:0.027153979 1688:0.0038801526 1725:0.021371342 1772:0.040516101 1813:0.015094276 1819:0.0080763486 1831:0.028638611 1843:0.08554466 1916:0.053881302 1917:0.017936242 1949:0.067150109 1955:0.0070415049 1975:0.0080757086 2001:0.01835484 2015:0.008155832 2042:0.058188952 2046:0.0014487425 2050:0.015939619 2070:0.014266574 2089:0.040567453 2094:0.012424599 2103:0.037364113 2146:0.088442735 2148:0.034704003 2150:0.045087791 2155:0.0050853178 2163:0.0074965738 2168:0.0301834 2189:0.03940463 2207:0.0061191134 2258:0.029547282 2266:0.054730525 2284:0.014141812 2287:0.011402623 2295:6.3589229e-05 2310:0.042636456 2312:0.02594381 2325:0.016250659 2375:0.021482058 2377:0.014506115 2399:0.013773139 2415:0.11468759 2433:0.032178479 2443:0.020881588 2452:0.0069443522 2456:0.015359554 2477:0.036778105 2484:0.01752383 2485:0.060948403 2493:0.0135311 2499:0.034488055 2531:0.0029379048 2537:0.014430973 2540:0.058396188 2559:0.01145167 2562:0.0056985938 2569:0.016704202 2578:0.0017209872 2596:0.012244466 2603:0.041413701 2631:0.047437934 2639:0.0056652657 2660:0.012215176 2667:0.037083096 2670:0.012247238 2674:0.024019086 2677:0.012028006 2680:0.012294101 2682:0.057962139 2691:0.002740909 2693:0.043121812 2702:0.025301022 2708:0.020281036 2726:0.017225823 2728:0.058873716 2743:0.037358271 2745:0.010198909 2758:0.017658603 2761:0.05001117 2762:0.034696288 2773:0.05268614 2780:0.078256538 2784:0.0023708742 2793:0.018944126 2795:0.013099539 2813:0.026738124 2826:0.033775551 2830:0.018045772 2855:0.026443581 2860:0.0033216662 2875:0.011185031 2878:0.098386872 2899:0.011873738 2915:0.067904894 2925:0.075230309 2926:0.043864065 2940:0.0045755285 2942:0.033005234 2946:0.024668905 2950:0.024403262 2972:0.010868584 2973:0.021844706 2983:0.026884129 2991:0.018612099 3043:0.0041404561 3066:0.0057370336 3070:0.026297598 3122:0.0061756892 3191:2.0948498e-05 3209:0.025560638 3362:0.028399083 3428:0.018143159 3432:0.025120332 3470:0.017497206 3483:0.032148644 3759:0.029212926 3833:0.037913521 3852:0.030044157 3891:0.012727605 3903:0.022346533 4019:0.011177425 4040:0.065263047 4064:0.038935848 4084:0.051326943 4091:0.022779494 4105:0.047413855 4117:0.020307109 4129:0.056686915 4131:0.020624665 4136:0.020820724 4138:0.032836455 4168:0.037665371 4170:0.042909216 4171:0.0029705406 4176:0.0069954009 4179:0.023949226 4203:0.043273912 4206:0.022953111 4218:0.011516125 4239:0.024043487 4257:0.021781393 4258:0.029818348 4265:0.015783524 4278:0.026471636 4292:0.028706589 4298:0.010277721 4314:0.018391689 4334:0.022948213 4346:0.035691232 4363:0.0086690174 4388:0.03019025 4406:0.090919402 4408:0.031708355 4415:0.10786612 4422:0.032061853 4432:0.021436329 4437:0.027378244 4461:0.046574067 4465:0.032766572 4485:0.060065683 4496:0.070219102 4515:0.0118245 4531:0.021512914 4560:0.0072078984 4562:0.00047109733 4563:0.022628309 4567:0.069506056 4573:0.025555767 4585:0.024087139 4591:0.030578912 4592:0.038506935 4598:0.0044600635 4611:0.065579585 4630:0.033380758 4639:0.0027979686 4640:0.033572138 4664:0.042326291 4682:0.02150427 4695:0.0076061898 4704:0.081205567 4711:0.0095547578 4713:0.017866131 4723:0.038969486 4729:0.008511568 4732:0.039671778 4733:0.042965323 4739:0.042545467 4740:0.029856258 4742:0.0021889261 4756:0.1384031 4758:0.041598049 4768:0.017893399 4824:0.004162955 4850:0.018588694 4876:0.032286076 4891:0.041209747 4898:0.038235659 4902:0.015048562 4914:0.0050161517 4916:0.041438838 4920:0.048017375 4939:0.015494755 4951:0.0010636328 4966:0.0035253531 4970:0.0024106755 4983:0.047893325 5001:0.029685716 5059:0.046814691 5079:0.041455839 5082:0.0036799672 5138:0.038715324 5158:0.013819481 5302:0.02261344 5414:0.007426676 5448:0.028082998 5535:0.010085552 5537:0.0021872809 5631:0.0070599412 5646:0.023400832 5664:0.0049185774 5671:0.0086096677 5682:0.027153979 5955:0.0070415049 5975:0.0080757086 6059:0.0064721222 6278:0.0060940573 6368:0.0014232453 6408:0.026281311 6535:0.055699856 6631:0.0094734485 6646:0.01965501 6688:0.0038801526 6916:0.053881302 7001:0.01835484 7094:0.012424599 7150:0.045087791 7163:0.0074965738 7287:0.011402623 7537:0.014430973 7578:0.0017209872 7670:0.012247238 7682:0.057962139 7702:0.025301022 7743:0.037358271 7899:0.011873738 8015:0.008155832 8046:0.0014487425 8050:0.015939619 8089:0.040567453 8103:0.037364113 8148:0.034704003 8189:0.0053443461 8207:0.0061191134 8266:0.054730525 8284:0.014141812 8295:6.3589229e-05 8312:0.02594381 8433:0.032178479 8443:0.020881588 8484:0.01752383 8499:0.034488055 8540:0.058396188 8559:0.01145167 8569:0.013224902 8631:0.047437934 8674:0.024019086 8677:0.012028006 8693:0.043121812 8726:0.017225823 8745:0.010198909 8761:0.024277621 8762:0.034696288 8784:0.0023708742 8793:0.018944126 8795:0.013099539 8826:0.033775551 8830:0.018045772 8855:0.026443581 8925:0.075230309 8940:0.0045755285 8946:0.024668905 8950:0.024403262 8972:0.010868584 8973:0.021844706 9079:0.098471041 9127:0.01109802 9225:0.050959629 9385:0.035563792 9620:0.024109096 9638:0.095439063 9725:0.021371342 9813:0.015094276 9819:0.0080763486 9949:0.067150109 10008:0.053432147 10040:0.0045609744 10055:0.077372026 10144:0.0018523017 10150:0.051021524 10212:0.10432045 10337:0.026417095 10385:0.065947064 10417:0.0072650208 10467:0.030566715 10519:0.009769338 10666:0.083789171 10772:0.040516101 10831:0.028638611 10843:0.08554466 10917:0.017936242 12042:0.058188952 12070:0.014266574 12146:0.088442735 12155:0.0050853178 12168:0.0301834 12189:0.03940463 12258:0.029547282 12310:0.042636456 12325:0.016250659 12375:0.021482058 12377:0.014506115 12399:0.013773139 12415:0.11468759 12452:0.0069443522 12456:0.015359554 12477:0.036778105 12485:0.060948403 12493:0.0135311 12531:0.0029379048 12562:0.0056985938 12569:0.016704202 12596:0.012244466 12603:0.041413701 12639:0.0056652657 12660:0.012215176 12667:0.037083096 12680:0.012294101 12691:0.002740909 12708:0.020281036 12728:0.058873716 12758:0.017658603 12761:0.05001117 12773:0.05268614 12780:0.078256538 12813:0.026738124 12860:0.0033216662 12875:0.011185031 12878:0.098386872 12915:0.067904894 12926:0.043864065 12942:0.033005234 12983:0.026884129 12991:0.018612099 13066:0.0057370336 13362:0.028399083 13432:0.025120332 13485:-0.002380404 13891:0.012727605 14043:0.0041404561 14070:0.026297598 14122:0.0061756892 14428:0.018143159 14483:0.032148644 14759:0.029212926 14852:0.030044157 14903:0.022346533 16019:0.011177425 16040:0.065263047 16064:0.038935848 16091:0.022779494 16138:0.032836455 16168:0.037665371 16170:0.042909216 16171:0.0029705406 16206:0.022953111 16239:0.024043487 16265:0.015783524 16292:0.028706589 16298:0.010277721 16314:0.018391689 16346:0.035691232 16388:0.03019025 16422:0.032061853 16432:0.021436329 16437:0.027378244 16461:0.046574067 16465:0.032766572 16485:0.060065683 16496:0.070219102 16515:0.0118245 16560:0.0072078984 16563:0.022628309 16573:0.025555767 16585:0.024087139 16591:0.030578912 16592:0.038506935 16611:0.065579585 16640:0.033572138 16664:0.042326291 16682:0.02150427 16704:0.081205567 16713:0.017866131 16733:0.042965323 16739:0.042545467 16740:0.029856258 16742:0.0021889261 16756:0.1384031 16758:0.041598049 16768:0.017893399 16824:0.004162955 16891:0.041209747 16898:0.038235659 16902:0.015048562 16939:0.015494755 16951:0.0010636328 16970:0.0024106755 16983:0.047893325 17191:2.0948498e-05 17209:0.025560638 17401:-0.011388661 17470:0.017497206 17833:0.037913521 20084:0.051326943 20105:0.047413855 20117:0.020307109 20129:0.056686915 20131:0.020624665 20136:0.020820724 20179:0.023949226 20203:0.043273912 20218:0.011516125 20257:0.021781393 20258:0.029818348 20278:0.026471636 20334:0.022948213 20363:0.0086690174 20406:0.090919402 20408:0.031708355 20415:0.10786612 20531:0.021512914 20562:0.00047109733 20591:0.016844072 20598:0.0044600635 20630:0.033380758 20639:0.0027979686 20711:0.0095547578 20723:0.038969486 20729:0.008511568 20732:0.039671778 20850:0.018588694 20876:0.032286076 20914:0.0050161517 20916:0.041438838 20920:0.048017375 
14625.70654571545 1:0.029503389 8:0.053103971 10:0.015842309 15:0.0081057395 19:0.011108774 33:0.0048447514 40:0.064862207 42:0.05783156 43:0.0041150258 50:0.015841719 55:0.076896814 64:0.038696707 66:0.0057017972 70:0.026136081 79:0.09786624 82:0.0036573651 84:0.051011697 89:0.040318291 91:0.022639584 103:0.037134625 105:0.047122643 117:0.020182384 122:0.0061377586 127:0.011029856 129:0.056338749 131:0.02049799 136:0.020692845 138:0.038477537 144:0.001840925 146:0.087899527 150:0.050708154 155:0.0050540842 158:0.013734603 168:0.037434033 170:0.042645672 171:0.0029522958 176:0.019040982 179:0.023802132 189:0.03916261 203:0.043008127 206:0.022812135 207:0.020247506 212:0.10367972 218:0.011445394 225:0.05064664 239:0.023895814 250:0.022067819 253:0.029063328 257:0.021647614 258:0.029635206 265:0.015686583 266:0.054394374 278:0.02630905 292:0.028530276 295:6.3198669e-05 298:0.010214596 302:0.02247455 306:0.028597461 310:0.042374586 312:0.025784465 314:0.018278728 325:0.016150849 334:0.022807267 337:0.026254844 346:0.035472019 362:0.028224658 363:0.0086157731 368:0.0014145038 375:0.021350117 377:0.01441702 385:0.065542023 388:0.030004824 393:0.0099708517 399:0.013688546 406:0.090360982 408:0.031513605 414:0.007381062 415:0.11398319 417:0.0072203997 422:0.031864932 428:0.018031725 432:0.024966045 433:0.031980842 437:0.027210089 441:0.0087327055 443:0.020753335 448:0.027910514 452:0.0069017006 456:0.032436703 461:0.046288013 465:0.032565323 467:0.030378977 477:0.036552216 483:0.03195119 484:0.0174162 485:0.060574062 493:0.013447993 496:0.069787822 515:0.011751875 519:0.0097093355 531:0.021380783 537:0.0021738468 559:0.011381335 560:0.0071636281 562:0.0056635935 563:0.022489328 568:0.0026050833 569:0.016601606 573:0.052546133 585:0.071358365 591:0.030391099 592:0.038270428 596:0.012169262 598:0.0044326701 603:0.041159341 606:0.0014499567 611:0.0651768 620:0.02396102 630:0.033175736 634:0.011106383 638:0.094852884 639:0.0056304701 640:0.033365941 660:0.012140151 664:0.042066326 666:0.083274544 667:0.036855335 674:0.023871563 677:0.011954131 680:0.012218592 682:0.026987202 688:0.003856321 691:0.026659148 693:0.04416761 704:0.080706809 708:0.020156472 711:0.054011991 713:0.017756399 723:0.038730138 725:0.021240081 728:0.058512118 729:0.0084592907 732:0.039428117 733:0.042701434 739:0.042284156 740:0.029672884 742:0.0021754819 745:0.010136268 756:0.13755304 758:0.041342557 759:0.029033502 761:0.049704005 762:0.034483187 768:0.017783499 772:0.040267254 773:0.052362546 780:0.077775892 784:0.0018887602 793:0.018827772 799:0.021267139 813:0.026573901 819:0.0080267443 824:0.0041373865 826:0.02483484 830:0.015371827 831:0.028462715 843:0.085019252 850:0.018474524 852:0.029859629 860:0.072628795 875:0.011116334 876:0.032087777 878:0.097782588 891:0.05873236 898:0.038000819 902:0.014956135 903:0.022209283 914:0.0049853429 915:0.067487828 916:0.053550368 917:0.017826079 920:0.047722456 925:0.074768251 926:0.043594655 939:0.015399587 940:0.004547426 942:0.032802519 949:0.066737678 950:0.024253379 951:0.019853864 955:0.0069982566 970:0.0023958693 975:0.0080261083 983:0.047599168 991:0.018497785 1001:0.029503389 1008:0.053103971 1040:0.0045329612 1055:0.076896814 1066:0.0057017972 1079:0.09786624 1082:0.0036573651 1127:0.011029856 1138:0.038477537 1144:0.001840925 1150:0.050708154 1158:0.013734603 1212:0.10367972 1225:0.05064664 1302:0.02247455 1337:0.026254844 1362:0.028224658 1368:0.0014145038 1385:0.065542023 1408:0.026119893 1414:0.007381062 1417:0.0072203997 1432:0.024966045 1448:0.027910514 1467:0.030378977 1519:0.0097093355 1537:0.0021738468 1620:0.02396102 1638:0.094852884 1664:0.0048883679 1666:0.083274544 1682:0.026987202 1688:0.003856321 1725:0.021240081 1772:0.040267254 1813:0.015001569 1819:0.0080267443 1831:0.028462715 1843:0.085019252 1891:0.012649433 1916:0.053550368 1917:0.017826079 1949:0.066737678 1955:0.0069982566 1975:0.0080261083 2015:0.0081057395 2019:0.011108774 2033:0.0048447514 2042:0.05783156 2050:0.015841719 2064:0.023279368 2070:0.01417895 2089:0.040318291 2103:0.037134625 2136:0.013464645 2138:0.032634776 2146:0.087899527 2155:0.0050540842 2168:0.037434033 2170:0.042645672 2176:0.019040982 2189:0.03916261 2207:0.020247506 2239:0.023895814 2258:0.029365805 2266:0.054394374 2295:6.3198669e-05 2310:0.042374586 2312:0.025784465 2325:0.016150849 2346:0.028731237 2375:0.021350117 2377:0.01441702 2393:0.0099708517 2399:0.013688546 2415:0.11398319 2432:0.021304669 2433:0.031980842 2443:0.020753335 2452:0.0069017006 2456:0.032436703 2465:0.016199961 2477:0.036552216 2484:0.0174162 2485:0.060574062 2493:0.013447993 2496:0.05767649 2531:0.0029198605 2559:0.011381335 2560:0.0071636281 2562:0.0056635935 2563:0.022489328 2568:0.0026050833 2569:0.016601606 2573:0.0086745063 2585:0.071358365 2592:0.0319035 2596:0.012169262 2603:0.041159341 2634:0.011106383 2639:0.0056304701 2660:0.012140151 2667:0.036855335 2674:0.023871563 2677:0.011954131 2680:0.012218592 2682:0.021372193 2691:0.026659148 2693:0.04416761 2704:0.022275636 2708:0.020156472 2713:0.017756399 2728:0.058512118 2742:0.0021754819 2745:0.010136268 2756:0.079868921 2758:0.041342557 2761:0.049704005 2762:0.034483187 2773:0.052362546 2780:0.077775892 2784:0.0018887602 2793:0.018827772 2813:0.026573901 2826:0.02483484 2830:0.015371827 2860:0.072628795 2875:0.011116334 2878:0.097782588 2891:0.05873236 2915:0.067487828 2925:0.074768251 2926:0.043594655 2939:0.015399587 2940:0.004547426 2942:0.032802519 2950:0.024253379 2983:0.047599168 2991:0.018497785 3043:0.0041150258 3070:0.026136081 3122:0.0061377586 3428:0.018031725 3483:0.03195119 3759:0.029033502 3852:0.029859629 3903:0.022209283 4010:0.015842309 4040:0.064862207 4064:0.038696707 4084:0.051011697 4091:0.022639584 4105:0.047122643 4117:0.020182384 4129:0.056338749 4131:0.02049799 4136:0.020692845 4170:0.02366298 4171:0.0029522958 4179:0.023802132 4203:0.043008127 4206:0.022812135 4218:0.011445394 4239:0.0033024118 4250:0.022067819 4253:0.029063328 4257:0.021647614 4258:0.029635206 4265:0.015686583 4278:0.02630905 4292:0.028530276 4298:0.010214596 4306:0.028597461 4314:0.018278728 4334:0.022807267 4346:0.035472019 4363:0.0086157731 4388:0.030004824 4406:0.090360982 4408:0.031513605 4415:0.10720362 4422:0.031864932 4437:0.027210089 4441:0.0087327055 4461:0.046288013 4465:0.032565323 4496:0.069787822 4515:0.011751875 4531:0.021380783 4562:0.00046820389 4563:0.00067524142 4573:0.052546133 4585:0.024611664 4591:0.030391099 4592:0.038270428 4598:0.0044326701 4606:0.0014499567 4611:0.0651768 4620:0.002663642 4630:0.033175736 4639:0.0027807838 4640:0.033365941 4664:0.042066326 4704:0.080706809 4711:0.054011991 4723:0.038730138 4729:0.0084592907 4732:0.039428117 4733:0.042701434 4739:0.042284156 4740:0.029672884 4756:0.13755304 4768:0.017783499 4799:0.021267139 4824:0.0041373865 4843:0.018371882 4850:0.018474524 4876:0.032087777 4898:0.038000819 4902:0.014956135 4914:0.0049853429 4916:0.041184324 4920:0.047722456 4951:0.019853864 4970:0.0023958693 4983:0.0081252155 5001:0.029503389 5079:0.09786624 5082:0.0036573651 5138:0.038477537 5158:0.013734603 5302:0.02247455 5337:0.026254844 5368:0.0014145038 5408:0.026119893 5414:0.007381062 5448:0.027910514 5537:0.0021738468 5664:0.0048883679 5666:0.083274544 5682:0.026987202 5688:0.003856321 5916:0.053550368 5917:0.0096741964 5949:0.010337642 5955:0.0069982566 5975:0.0080261083 7050:0.015841719 7070:0.01417895 7146:0.087899527 7155:0.0050540842 7207:0.0060815303 7415:0.11398319 7433:0.031980842 7484:0.0174162 7531:0.0029198605 7562:0.0014916155 7596:0.012169262 7603:0.041159341 7639:0.0056304701 7660:0.012140151 7693:0.042856962 7708:0.020156472 7745:0.010136268 7773:0.052362546 7784:0.0018887602 7813:0.026573901 7826:0.02483484 7830:0.015371827 7875:0.011116334 7925:0.074768251 7926:0.043594655 7950:0.011239002 8015:0.0081057395 8089:0.040318291 8103:0.037134625 8136:0.013464645 8176:0.019040982 8189:0.03916261 8207:0.020247506 8258:0.029365805 8266:0.054394374 8295:6.3198669e-05 8312:0.025784465 8375:0.021350117 8393:0.0099708517 8399:0.013688546 8415:0.088634573 8443:0.020753335 8452:0.0069017006 8456:0.032436703 8477:0.036552216 8484:0.0055456204 8493:0.013447993 8559:0.011381335 8562:0.0056635935 8568:0.0026050833 8569:0.016601606 8634:0.011106383 8674:0.023871563 8677:0.011954131 8693:0.04416761 8761:0.049704005 8762:0.034483187 8793:0.018827772 8860:0.072628795 8915:0.028753237 8940:0.004547426 8950:0.024253379 9008:0.053103971 9040:0.0045329612 9055:0.076896814 9066:0.0057017972 9127:0.011029856 9144:0.001840925 9150:0.050708154 9212:0.10367972 9225:0.05064664 9362:0.028224658 9385:0.065542023 9417:0.0072203997 9432:0.024966045 9467:0.030378977 9519:0.0097093355 9620:0.02396102 9638:0.094852884 9725:0.021240081 9772:0.040267254 9813:0.015001569 9819:0.0080267443 9831:0.028462715 9843:0.085019252 9891:0.012649433 9917:0.017826079 9949:0.066737678 11019:0.011108774 11138:0.032634776 11168:0.037434033 11239:0.023895814 11310:0.042374586 11346:0.028731237 11415:0.012025808 11456:0.013954037 11465:0.016199961 11496:0.05767649 11563:0.022489328 11592:0.0319035 11682:0.021372193 11713:0.017756399 11742:0.0021754819 11878:0.097782588 11939:0.015399587 11983:0.047599168 11991:0.018497785 12033:0.0048447514 12042:0.05783156 12064:0.023279368 12170:0.042645672 12325:0.016150849 12377:0.01441702 12432:0.021304669 12485:0.060574062 12560:0.0071636281 12573:0.0086745063 12585:0.071358365 12667:0.036855335 12680:0.012218592 12691:0.026659148 12704:0.022275636 12728:0.058512118 12756:0.079868921 12758:0.041342557 12780:0.077775892 12860:0.0033012648 12891:0.05873236 12915:0.067487828 12942:0.032802519 13043:0.0041150258 13070:0.026136081 13122:0.0061377586 13428:0.018031725 13483:0.03195119 13759:0.029033502 13852:0.029859629 13903:0.022209283 15040:0.064862207 15091:0.022639584 15170:0.02366298 15171:0.0029522958 15206:0.022812135 15258:0.029635206 15298:0.010214596 15314:0.018278728 15388:0.030004824 15415:0.026427648 15465:0.032565323 15496:0.069787822 15563:0.00067524142 15611:0.0651768 15640:0.033365941 15664:0.042066326 15704:0.0091847393 15733:0.042701434 15739:0.042284156 15740:0.029672884 15920:0.03682954 16010:0.015842309 16064:0.038696707 16136:0.020692845 16203:0.043008127 16239:0.0033024118 16250:0.022067819 16253:0.029063328 16265:0.015686583 16292:0.028530276 16306:0.028597461 16346:0.035472019 16422:0.031864932 16437:0.027210089 16461:0.046288013 16515:0.011751875 16573:0.052546133 16585:0.024611664 16591:0.030391099 16592:0.038270428 16606:0.0014499567 16704:0.080706809 16756:0.13755304 16768:0.017783499 16799:0.021267139 16824:0.0041373865 16898:0.038000819 16902:0.014956135 16951:0.019853864 16970:0.0023958693 16983:0.0081252155 19117:0.020182384 19129:0.056338749 19258:0.016212282 19278:0.02630905 19334:0.022807267 19363:0.0086157731 19406:0.090360982 19408:0.031513605 19415:0.10720362 19531:0.010417238 19562:0.00046820389 19598:0.0044326701 19630:0.033175736 19639:0.0027807838 19723:0.038730138 19732:0.039428117 19850:0.018474524 19876:0.032087777 19914:0.0049853429 19916:0.041184324 19920:0.047722456 20084:0.051011697 20105:0.047122643 20131:0.02049799 20179:0.023802132 20218:0.011445394 20257:0.021647614 20415:0.088369607 20441:0.0087327055 20531:0.021380783 20620:0.002663642 20711:0.054011991 20729:0.0084592907 20843:0.018371882 
9808.942391476219 1:0.018698911 2:0.016439644 3:0.0059989333 4:0.0033025415 5:7.6817427e-05 7:0.033503918 9:0.022599943 11:0.029489826 12:0.026597943 13:0.0083276669 15:0.0043869922 18:0.011349908 20:0.015393337 22:0.01987576 23:0.015848102 24:0.013911287 25:0.015005968 26:0.009474506 27:0.012261325 28:0.016581893 31:0.023289466 32:0.026650509 33:0.021857275 35:0.030428146 36:0.01232654 37:0.018609098 41:0.060246452 43:0.036914747 46:0.0084802406 47:0.045596711 49:0.009685916 50:0.047312364 51:0.003125512 52:0.015570891 53:0.024805222 58:0.0006583567 62:0.0028911722 66:0.016334836 70:0.038541718 71:0.026691914 74:0.013557891 75:0.024159143 77:0.0076963426 79:0.015844128 80:0.0015631247 81:0.0080819299 82:0.015146787 83:0.027266513 85:0.0080200674 89:0.017498981 90:0.015411019 92:0.032156212 93:0.014426321 95:0.0074562006 97:0.00444508 100:0.0076696513 101:0.023714604 102:0.039144848 103:0.014979633 105:0.014449683 106:0.0052365361 107:0.0039481354 108:0.022377614 109:0.0065434045 111:0.024011359 112:0.019949216 113:0.0051659043 114:0.027434667 115:0.0076497012 116:0.016521552 117:0.012433734 118:0.018515737 119:0.0085882142 122:0.014584542 124:0.0048410991 125:0.019217553 126:0.034404715 127:0.044645749 129:0.029504395 130:0.0016388688 131:0.012117609 132:0.050696281 134:0.052303943 135:0.011440915 137:0.029634965 140:0.0033635895 141:0.015920896 142:0.010118366 143:0.0097254786 146:0.0026334923 147:0.012868999 148:0.024687796 149:0.012210644 153:0.015669124 154:0.0062588572 155:0.012986026 156:0.0051762486 157:0.0070482318 160:0.026287224 164:0.013567792 167:0.021874164 168:0.0094696398 169:0.022343289 170:0.021117631 173:0.019471015 174:0.0083187465 176:0.031545198 180:0.070461453 181:0.0052718115 183:0.011172267 184:0.0059394338 186:0.031970962 187:0.039922872 189:0.032445223 190:0.00097216519 191:0.023552415 192:0.024808976 193:0.036674131 194:0.02096685 195:0.059497633 196:0.035553816 197:0.0088839997 198:0.0071606006 199:0.010980005 203:0.024737686 205:0.051003427 207:0.03245873 208:0.01123003 209:0.0014810892 210:0.0014924262 211:0.031921753 213:0.0032372403 214:0.0074620251 220:0.0049464683 221:0.024163695 224:0.0071042582 226:0.017158804 227:0.0074512463 229:0.0020461262 232:0.011457311 236:0.014869489 237:0.0096106301 238:0.010094838 239:0.012225173 240:0.00924884 242:0.01962165 245:0.011448794 246:0.013995082 248:0.041224763 249:0.0060403155 250:0.017047344 252:0.00129191 254:0.01785232 255:0.0018217084 257:0.023747179 258:0.024874955 259:0.02122092 261:0.0043544447 262:0.0060140266 263:0.015090129 264:0.014778997 267:0.027855237 268:0.021810841 270:0.015992513 271:0.017796189 272:0.021517803 276:0.013459589 277:0.00201146 278:0.0010518814 279:0.013188851 280:0.0058804404 281:0.03262047 282:0.011363174 283:8.7329612e-05 284:0.014502998 285:0.040323105 286:0.0059943427 289:0.021246083 291:0.01975266 292:0.010510452 295:0.032458613 296:0.014663598 298:0.0014973319 299:0.011945831 302:0.0018093864 303:0.019809244 305:0.012221566 306:0.017182446 307:0.0042715207 309:0.0051707768 310:0.022666477 312:0.0040605068 313:0.0093552387 316:0.0063463469 318:0.017645755 319:0.021360299 320:0.027397423 321:0.0048543717 323:0.037283083 324:0.018181372 326:0.033069344 328:0.028265384 329:0.020314237 332:0.013533729 334:0.023170411 335:0.033976369 336:0.020474021 337:0.0034873623 339:0.00072753777 340:0.04092911 341:0.01427404 342:0.039679209 344:0.016296402 345:0.00048695604 346:0.0079190767 347:0.0085536325 348:0.026960134 349:0.0053100748 350:0.0025395499 351:0.032101275 352:0.010989111 353:0.0037418371 355:0.024511598 356:0.011566633 357:0.010169137 359:0.036071261 362:0.01370221 363:0.0020318842 364:0.036688227 366:0.020426964 367:0.0014687098 368:0.033440257 369:0.005023381 370:0.0054804462 372:0.034716431 373:0.0079075467 374:0.016712333 376:0.008476701 377:0.01898519 379:0.013264137 380:2.7809766e-05 381:0.0135598 384:0.0088864014 386:0.019857946 388:0.016561916 390:0.0081859908 391:0.013518961 392:0.0027721003 393:0.0030261816 395:0.03235694 396:0.013340396 397:0.025576404 399:0.025487327 401:0.022929768 402:0.0023596043 403:0.027429485 404:0.022949376 405:0.022483841 406:0.049064989 408:0.044655574 412:0.038208292 413:0.041020805 414:0.0025708298 415:0.0058636674 416:0.0024607322 421:0.015971247 423:0.024726852 425:0.017000303 430:0.038978093 431:0.019300733 432:0.0040608992 433:0.007670423 436:0.020396778 439:0.00060498506 440:0.0049848327 441:0.0069000674 442:0.0038479583 443:0.010048048 444:0.0056456927 445:0.023113224 450:0.017052391 451:0.0083992968 452:0.017584938 455:0.01164388 456:0.030602659 457:0.018832309 459:0.028995574 460:0.0093181165 461:0.052981487 462:0.036329996 463:0.021445852 464:0.0097000033 466:0.018411541 467:0.028098231 469:0.03407021 470:0.028256228 472:0.010226825 473:0.0022162532 474:0.018221521 477:0.016503259 478:0.018070639 479:0.028463943 480:0.03352823 481:0.014468143 484:0.015080088 485:0.0054994967 486:0.010509075 487:0.04440562 488:0.012266787 491:0.0064858236 492:0.012819402 493:0.014035396 494:0.0084902319 495:0.0013165446 497:0.012010419 499:0.0016348858 500:0.0060551641 501:0.02270811 502:0.0084404559 503:0.0059473335 504:0.020626397 506:0.010619176 509:0.0021431891 510:0.0056898155 511:0.022382307 513:0.0088331779 514:0.016239777 515:0.0019210642 516:0.012498544 517:0.0034183396 518:0.012995473 520:0.021586693 521:0.019961572 522:0.018484293 523:0.014722854 524:0.0092680188 525:0.011179445 527:0.015817038 528:0.0069761979 530:0.0076199926 531:0.020960928 532:0.044971865 533:0.0089272822 535:0.014572287 538:0.013481917 542:0.01858833 543:0.0041241003 545:0.022605337 546:0.016145244 547:0.0037694461 548:0.036459955 549:0.0056501722 550:0.046490824 552:0.020089781 553:0.017590636 554:0.01047047 555:0.014705548 558:0.015337051 559:0.0096185508 560:0.023259022 563:0.0064072065 564:0.0022955578 566:0.030848342 567:0.035061174 568:0.042612652 569:0.019556599 570:0.023081688 571:0.019880768 572:0.01438527 574:0.010982353 575:0.011274236 576:0.014991354 577:0.01746974 579:0.018201421 580:0.027684441 581:0.023161662 582:0.0055393784 584:0.012705549 586:0.010987787 587:0.012342539 588:0.03167773 589:0.019860964 590:0.0048512502 591:0.015266785 592:0.0018031923 594:0.011350799 595:0.0092013997 596:0.011659841 598:0.004537656 600:0.0276817 601:0.018747722 603:0.032146148 608:0.0036288275 610:0.023780329 611:0.0049556663 612:0.017692053 613:0.017446805 615:0.023895743 619:0.0051094765 621:0.0078348998 622:0.00656815 623:0.0039972078 626:0.0075428923 628:0.014797231 629:0.01660573 632:0.0040884496 633:0.0039365697 634:0.010821846 635:0.011226018 636:0.014889076 638:0.052462671 639:0.031720444 642:0.0085398931 643:0.010420366 644:0.014843451 645:0.01317769 646:0.014464409 647:0.033781054 649:0.017550673 652:0.016785491 654:0.023955699 655:0.0077954446 657:0.011390197 659:0.019312153 660:0.0095317773 662:0.025172974 663:0.014944017 664:0.030871883 665:0.0074410047 667:0.017162713 668:0.012792276 669:0.031078812 671:0.022382422 672:0.016494342 673:0.011895119 674:0.020076568 675:0.031106069 676:0.034611267 677:0.020855738 679:0.046275734 680:0.017757066 681:0.016337936 682:0.013097748 684:0.0018210746 686:0.015042886 687:0.0061041746 688:0.017092283 689:0.015399591 690:0.016639873 693:0.0054435085 695:0.013156962 697:0.0083243489 698:0.024735846 700:0.0063736366 701:0.033971477 704:0.0223116 706:0.013306595 708:0.0030797453 711:0.010737652 712:0.031912538 714:0.032757365 715:0.0059909623 716:0.0072507502 717:0.022815804 719:0.011473009 720:0.032601101 722:0.027065675 723:0.024530711 724:0.019491121 725:0.013371911 728:0.022373002 731:0.022439913 733:0.009300038 736:0.035233007 737:0.033438604 740:0.004488319 741:0.012934008 745:0.013727234 747:0.026345214 748:0.030400011 749:0.012242594 750:0.027811478 751:0.007144996 754:0.046433209 756:0.011760451 757:0.016498513 758:0.0099626468 760:0.0054631242 761:0.010924697 762:0.0037515559 763:0.015988689 764:0.030846919 768:0.018477509 769:0.005931434 770:0.042792497 772:0.012564913 773:0.024752662 777:0.03548426 778:0.0035460728 780:0.011996394 782:0.011647073 785:0.0087471426 786:0.0083877537 787:0.018829635 790:0.016865088 791:0.033870263 792:0.028997449 793:0.021261497 796:0.053653678 801:0.031313558 802:0.062314492 803:0.017196663 804:0.005410596 808:0.0083808882 810:0.0037682735 812:0.042871614 813:0.030372469 814:0.017105204 816:0.025588628 817:0.0098606156 819:0.015465421 821:0.015179703 823:0.0025645833 824:0.043305218 827:0.0034789279 828:0.016002325 829:0.010346204 831:0.014651268 832:0.020318765 833:0.048243097 834:0.024304445 836:0.039903952 837:0.0017326459 838:0.0040367405 842:0.016101494 843:0.0062656514 845:0.017934054 849:0.013749325 850:0.011157555 851:0.011116763 852:0.018519081 855:0.0046871459 857:0.019066497 858:0.037775794 859:0.028079217 860:0.0041225259 861:0.02954216 862:0.029377226 863:0.012237223 867:0.011679994 868:0.01566104 872:0.033770104 874:0.031198607 875:0.026665049 876:0.012241501 877:0.0071971192 878:0.012291716 880:0.021003066 881:0.039424217 882:0.031346069 883:0.0088562222 884:0.014362233 885:0.0048712809 889:0.017065991 890:0.0037605223 891:0.022431903 892:0.018246588 893:0.026816442 894:0.027101818 898:0.00043447357 900:0.012974074 901:0.02178248 902:0.0084221253 903:0.027213431 904:0.0016096952 905:0.016024634 907:0.018770689 912:0.038722296 913:0.023592638 914:0.013752874 915:0.023736843 916:0.0016253496 917:0.016672299 918:0.0086289541 919:0.015047054 920:0.0013932419 921:0.018883616 922:0.013737163 924:0.019898915 925:0.022353918 926:0.0076405394 928:0.033798454 931:0.022718853 933:0.0069695446 937:0.010164928 939:0.011942313 940:0.018098703 942:0.016825507 943:0.0041568961 944:0.011560164 948:0.03197101 950:0.016515536 953:0.027732617 954:0.0035539139 955:0.016934969 958:0.020915671 961:0.066994684 963:9.0178896e-05 964:0.0049025859 965:0.02366884 966:0.018329498 968:0.016171514 970:0.016504007 971:0.0022591655 972:0.016765428 974:0.020636798 976:0.020736279 981:0.0098562607 983:0.015969058 985:0.0031841973 989:0.036996722 991:0.034389791 993:0.010299914 994:0.022848499 995:0.014172113 999:0.015509486 1000:0.017929186 1007:0.033503918 1009:0.015832015 1012:0.010456038 1015:0.0021467806 1022:0.0016473855 1024:0.011321991 1025:0.015005968 1035:0.0066360627 1037:0.018609098 1041:0.060246452 1043:0.00012972717 1049:0.0084770903 1050:0.0093190889 1058:0.0006583567 1066:0.016334836 1075:0.0026147214 1077:0.0018532291 1082:0.015146787 1085:0.0080200674 1089:0.017498981 1092:0.032156212 1103:0.014178814 1107:0.0039481354 1109:0.0065434045 1111:0.014296246 1112:0.019949216 1114:0.027434667 1116:0.0033824605 1122:0.014584542 1130:0.0016388688 1132:0.0067712191 1137:0.0024625788 1143:0.0097254786 1146:0.0026334923 1154:0.0062588572 1155:0.010406852 1156:0.0020872098 1164:0.006847809 1167:0.021874164 1180:0.048136724 1184:0.0059394338 1186:0.0017170578 1187:0.017499227 1189:0.032445223 1191:0.023552415 1192:0.017754729 1193:0.020231203 1195:0.059497633 1196:0.010375935 1203:0.01169444 1207:0.03245873 1211:0.022640987 1237:0.0080233996 1239:0.012225173 1245:0.011448794 1246:0.013995082 1249:0.0060403155 1250:0.017047344 1254:0.01785232 1259:0.02122092 1262:0.0060140266 1264:0.00081777061 1267:0.027855237 1270:0.00039622702 1276:0.013459589 1280:0.0033404718 1281:0.03262047 1285:0.040323105 1286:0.0058009322 1291:0.01975266 1292:0.00053076874 1295:0.032458613 1296:0.014663598 1305:0.012221566 1316:0.0063463469 1319:0.021360299 1323:0.037283083 1328:0.015639836 1329:0.020314237 1336:0.0015727193 1337:0.0034873623 1340:0.04092911 1342:0.039679209 1346:0.0079190767 1366:0.010188707 1369:0.005023381 1372:0.029941202 1374:0.016712333 1379:0.0050733519 1380:2.7809766e-05 1381:0.0098408133 1386:0.019857946 1391:0.013518961 1393:0.0030261816 1395:0.03235694 1397:0.019459089 1401:0.022929768 1404:0.0087174707 1405:0.017965096 1413:0.041020805 1415:0.0055265432 1421:0.015971247 1425:0.017000303 1430:0.025503218 1431:0.0033561081 1433:0.007670423 1440:0.0049848327 1443:0.0089417058 1445:0.001735751 1451:0.0083992968 1452:0.017584938 1455:0.01164388 1456:0.005815788 1459:0.00077543892 1464:0.0097000033 1467:0.0026521464 1469:0.03407021 1472:0.010226825 1480:0.013202702 1484:0.015080088 1492:0.012819402 1493:0.014035396 1495:0.0013165446 1497:0.0052716354 1506:0.010619176 1522:0.018484293 1523:0.0070736914 1527:0.015817038 1531:0.020960928 1535:0.0067082459 1542:0.01858833 1545:0.0069003026 1546:0.0019863311 1552:0.020089781 1553:0.017590636 1558:0.015337051 1560:0.0036623985 1563:0.0058727397 1566:0.0069189339 1567:0.0077066545 1568:0.036241394 1569:0.019556599 1570:0.023081688 1571:0.0046569091 1576:0.014991354 1577:0.00793507 1584:0.0085316853 1590:0.0048512502 1591:0.015266785 1594:0.011350799 1596:0.011659841 1598:0.004537656 1603:0.013941777 1608:0.0023868528 1610:0.022807966 1632:0.0040884496 1634:0.010821846 1638:0.041979722 1639:0.0089800603 1643:0.010420366 1645:0.0093865631 1646:0.014464409 1647:0.013874028 1652:0.00044185416 1655:0.0077954446 1657:0.011390197 1659:0.019312153 1665:0.0019165768 1669:0.027086756 1671:0.022382422 1673:0.011895119 1674:0.020076568 1675:0.017688524 1676:0.031678929 1677:0.020855738 1679:0.017738919 1680:0.0016089034 1688:0.017092283 1695:0.013156962 1697:0.0018796122 1698:0.019127773 1700:0.0028648245 1708:0.0030797453 1712:0.022247949 1717:0.0062204053 1720:0.0067535335 1723:0.024530711 1725:0.013371911 1728:0.022373002 1736:0.017049597 1747:0.026345214 1761:0.0088147515 1763:0.015988689 1773:0.024752662 1782:0.0099732343 1785:0.0087471426 1790:0.0036396065 1791:0.010107717 1793:0.002214575 1802:0.062314492 1812:0.042871614 1813:0.030372469 1814:0.017105204 1819:0.015465421 1821:0.015179703 1828:0.010689176 1829:0.010346204 1834:0.024304445 1836:0.0080615743 1837:0.0017326459 1842:0.0058767629 1845:0.017934054 1852:0.018519081 1855:0.0046871459 1857:0.01006476 1860:0.0041225259 1867:0.011679994 1874:0.017734416 1875:0.026665049 1877:0.0071971192 1878:0.012291716 1882:0.024303711 1883:0.0088562222 1885:0.0048712809 1889:0.017065991 1890:0.0037605223 1892:0.018246588 1903:0.0091186489 1905:0.0047851507 1915:0.023736843 1916:0.00034304667 1918:0.00044087639 1924:0.0049478724 1925:0.01499371 1926:0.0076405394 1937:0.010164928 1950:0.0076292566 1954:0.0035539139 1958:0.020915671 1961:0.0056909965 1964:0.0049025859 1966:0.018329498 1968:0.012166043 1974:0.010983636 1981:0.0098562607 1983:0.010133619 1989:0.0075109623 2003:0.0059989333 2005:7.6817427e-05 2007:0.011363736 2009:0.022599943 2011:0.029489826 2012:0.0098247079 2013:0.0083276669 2015:0.0030389138 2020:0.014358094 2023:0.010381802 2025:0.0055716862 2028:0.016581893 2031:0.023289466 2032:0.026650509 2033:0.021857275 2035:0.012553485 2037:0.0048808771 2041:0.018049712 2043:0.036914747 2047:0.045596711 2049:0.009685916 2051:0.003125512 2052:0.0013168501 2053:0.021207277 2062:0.0028911722 2070:0.011593566 2074:0.013557891 2077:0.0076963426 2079:0.015844128 2080:0.0015631247 2081:0.0035323664 2083:0.027266513 2090:0.015411019 2092:0.021596654 2097:0.00444508 2100:0.0076696513 2101:0.01522136 2102:0.039144848 2103:0.014979633 2106:0.0052365361 2108:0.022377614 2109:6.187628e-05 2111:0.017270031 2112:0.0049345689 2113:0.0051659043 2118:0.018515737 2124:0.0048410991 2125:0.019217553 2126:0.034404715 2127:0.044645749 2129:0.029504395 2131:0.0094392721 2132:0.0052883738 2134:0.052303943 2135:0.010485314 2140:0.0033635895 2141:0.015920896 2142:0.0092018775 2147:0.012868999 2149:0.012210644 2155:0.012986026 2156:0.0051762486 2160:0.026287224 2164:0.013567792 2168:0.0017241906 2170:0.021117631 2173:0.019471015 2180:0.070461453 2186:0.031970962 2192:0.024808976 2195:0.012236953 2196:0.035553816 2197:0.0088839997 2198:0.0071606006 2205:0.021311672 2207:0.0071659017 2208:0.0017484263 2210:0.0014924262 2211:0.031921753 2226:0.015986663 2232:0.011457311 2237:0.0096106301 2239:0.0097310741 2242:0.0020619091 2246:0.007960111 2248:0.025803769 2258:0.024874955 2263:0.015090129 2264:0.014778997 2268:0.012777116 2270:0.013522297 2271:0.017796189 2272:0.021517803 2277:0.00201146 2279:0.013188851 2281:0.015481121 2282:0.011363174 2284:0.014502998 2289:0.021246083 2292:0.010510452 2295:0.0096359053 2298:0.0014973319 2299:0.011945831 2303:0.019809244 2307:0.0042715207 2309:0.0051707768 2310:0.022666477 2312:0.0040605068 2321:0.0048543717 2334:0.023170411 2336:0.020474021 2341:0.01427404 2347:0.0085536325 2349:0.0035970287 2350:0.0025395499 2351:0.030625263 2352:0.0092112034 2356:0.011566633 2357:0.010169137 2359:0.036071261 2362:0.01370221 2364:0.036688227 2366:0.018027772 2367:0.00098784063 2368:0.033440257 2370:0.0054804462 2377:0.01898519 2379:0.013264137 2381:0.0054244696 2388:0.016561916 2390:0.0081859908 2391:0.0069427903 2392:0.0027721003 2393:0.00066299193 2399:0.025487327 2402:0.0023596043 2406:0.049064989 2408:0.012403583 2412:0.038208292 2414:0.00099054919 2415:0.0058636674 2430:0.038978093 2431:0.019300733 2432:0.0015257444 2436:0.020396778 2443:0.0016590781 2444:0.0056456927 2445:0.023113224 2450:0.017052391 2455:0.0066630202 2456:0.030602659 2460:0.0093181165 2466:0.018411541 2469:0.029235835 2470:0.028256228 2473:0.0022162532 2474:0.012382547 2478:0.018070639 2480:0.03352823 2481:0.014468143 2484:0.0060818586 2485:0.0049763409 2487:0.04440562 2493:0.0121927 2494:0.0032507646 2499:0.0016348858 2501:0.02270811 2503:0.0059473335 2509:0.0021431891 2511:0.022382307 2515:0.0019210642 2517:0.0034183396 2518:0.012995473 2520:0.016940275 2523:0.0032181694 2524:0.0092680188 2525:0.011179445 2532:0.044971865 2538:0.013481917 2545:0.006053991 2546:0.016145244 2547:0.0037694461 2548:0.036459955 2555:0.014705548 2558:0.011564197 2560:0.010445824 2566:0.030848342 2567:0.0025510228 2568:0.042612652 2576:0.010661803 2577:0.01746974 2580:0.027684441 2581:0.023161662 2582:0.0048982792 2586:0.010987787 2587:0.012342539 2588:0.03167773 2589:0.019860964 2596:0.0036962907 2600:0.0069703608 2601:0.018747722 2603:0.0075360064 2608:0.0036288275 2611:0.0049556663 2612:0.013115529 2615:0.023895743 2621:0.0078348998 2622:0.00656815 2628:0.014797231 2633:0.0039365697 2634:0.010665882 2635:0.011226018 2636:0.014889076 2638:0.052462671 2639:0.031720444 2642:0.0085398931 2643:0.0015960597 2644:0.014843451 2645:0.0043202009 2647:0.033781054 2649:0.017550673 2660:0.0095317773 2662:0.025172974 2663:0.014944017 2664:0.030871883 2665:0.0074410047 2667:0.017162713 2668:0.012792276 2669:0.031078812 2674:0.0066283144 2675:0.031106069 2676:0.034611267 2680:0.017757066 2681:0.010234481 2682:0.013097748 2686:0.015042886 2687:0.0061041746 2689:0.015399591 2690:0.016639873 2693:0.0054435085 2698:0.010397453 2700:0.0063736366 2701:0.033971477 2704:0.010911683 2706:0.013306595 2712:0.0062329088 2714:0.032757365 2720:0.018192173 2722:0.025034362 2724:0.019491121 2728:0.0074676515 2736:0.0070006154 2737:0.033438604 2740:0.004488319 2741:0.012934008 2745:0.013727234 2748:0.030400011 2751:0.007144996 2754:0.046433209 2756:0.011760451 2757:0.0092830691 2760:0.0054631242 2761:0.0029565968 2768:0.0045281928 2770:0.042792497 2773:0.0056666476 2777:0.03548426 2780:0.011996394 2782:0.0096972223 2785:0.0077839612 2790:0.016865088 2791:0.033870263 2792:0.028997449 2796:0.051678963 2801:0.031313558 2802:0.028974414 2804:0.005410596 2808:0.0029908133 2810:0.0037682735 2812:0.016227626 2813:0.012403626 2816:0.0052188008 2817:0.0098606156 2823:0.0025645833 2824:0.043305218 2829:0.0093628293 2833:0.048243097 2836:0.039903952 2842:0.016101494 2851:0.011116763 2852:0.006687005 2857:0.019066497 2858:0.0018058019 2859:0.026480912 2862:0.029377226 2868:0.01566104 2872:0.033770104 2874:0.025130833 2876:0.012241501 2878:0.0097557154 2880:0.021003066 2881:0.039424217 2882:0.0072453606 2883:0.0034095705 2889:0.010817187 2893:0.026816442 2894:0.027101818 2903:0.027213431 2907:0.018770689 2912:0.038722296 2913:0.023592638 2915:0.019859487 2916:0.0016253496 2918:0.0086289541 2920:0.0013932419 2921:0.018883616 2922:0.013737163 2925:0.00033695975 2931:0.019367006 2940:0.009946643 2942:0.016825507 2943:0.0026026446 2948:0.03197101 2950:0.0025260256 2953:0.027732617 2961:0.00010766872 2963:9.0178896e-05 2965:0.02366884 2974:0.020636798 2985:0.0031841973 2989:0.036996722 2991:0.034389791 2993:0.010299914 2994:0.019464456 3009:0.013719367 3015:0.0043869922 3020:0.015393337 3022:0.01987576 3023:0.015848102 3024:0.013911287 3025:0.014928349 3027:0.0046805628 3035:0.0090933485 3036:0.01232654 3046:0.0084802406 3052:0.015570891 3053:0.011520544 3071:0.026691914 3075:0.024159143 3081:0.0080819299 3092:0.0046443795 3095:0.0074562006 3101:0.023714604 3103:0.010088828 3105:0.0057216995 3106:0.00075852826 3111:0.0026315598 3114:0.011761299 3115:0.0025937769 3119:0.0085882142 3125:0.011423123 3127:0.039352607 3131:0.012117609 3137:0.0025260424 3148:0.024687796 3169:0.022343289 3174:0.0083187465 3183:0.011172267 3187:0.016846031 3190:0.00097216519 3192:0.0038606494 3193:0.036674131 3195:0.0063334159 3199:0.0059563183 3203:0.024737686 3205:0.051003427 3211:0.0049705405 3214:0.0074620251 3221:0.024163695 3226:0.0097844202 3236:0.014869489 3240:0.00924884 3242:0.015091522 3245:0.011421266 3248:0.041224763 3252:0.00129191 3257:0.023747179 3259:0.0091414428 3268:0.021810841 3270:0.0086295325 3271:0.0088014197 3278:0.0010518814 3280:0.0058804404 3283:8.7329612e-05 3286:0.0059943427 3303:0.0093809445 3305:0.01011893 3306:0.017182446 3318:0.017645755 3320:0.027397423 3324:0.018181372 3328:0.028265384 3332:0.013533729 3335:0.033976369 3339:0.00072753777 3344:0.016296402 3345:0.00048695604 3348:0.026960134 3349:0.0053100748 3352:0.0048483272 3353:0.0037418371 3355:0.024511598 3357:0.0031950525 3362:0.01116895 3366:0.0042322578 3368:8.5915735e-05 3374:0.010358975 3376:0.0026757691 3377:0.0057139004 3379:0.0043320235 3384:0.0088864014 3386:0.016710493 3397:0.013239424 3404:0.022949376 3405:0.022483841 3408:0.044655574 3412:0.010283661 3421:0.01136847 3430:0.024158689 3431:0.0033614375 3443:0.010048048 3444:8.6491741e-05 3450:0.007510803 3459:0.028995574 3461:0.052981487 3463:0.0027161435 3477:0.016503259 3478:0.0053261304 3479:0.0089288843 3487:0.029168555 3492:0.0064322475 3497:0.0059225037 3500:0.0060551641 3501:0.018628967 3502:0.0084404559 3520:0.0067810662 3521:0.019791703 3523:0.014722854 3525:0.0090619172 3528:0.0069761979 3532:0.037345778 3533:0.0034860108 3535:0.014572287 3543:0.0041241003 3545:0.022605337 3547:0.0023984004 3549:0.0056501722 3553:0.0096935433 3558:0.0031170985 3559:0.0096185508 3560:0.023259022 3563:0.0064072065 3564:0.0022955578 3566:0.0051368107 3572:0.01438527 3575:0.011274236 3576:0.009128856 3579:0.018201421 3584:0.012705549 3586:0.0003108063 3588:0.026808982 3595:0.0092013997 3600:0.0276817 3613:0.017446805 3623:0.0039972078 3626:0.0075428923 3628:0.0074899382 3629:0.01660573 3634:0.0064512639 3636:0.0084977738 3644:0.0057747673 3645:0.01317769 3646:0.0095417549 3647:0.021292486 3652:0.016785491 3654:0.023955699 3659:0.00019674901 3668:0.0059587378 3672:0.016494342 3674:0.0098833215 3681:0.0083277654 3698:0.018110504 3704:0.0223116 3712:0.031912538 3719:0.011473009 3720:0.032601101 3724:0.009414372 3731:0.022439913 3733:0.009300038 3736:0.035233007 3748:0.0041574122 3749:0.012242594 3757:0.016498513 3758:0.0099626468 3761:0.010924697 3764:0.030846919 3768:0.018477509 3777:0.003045352 3780:0.0016624002 3782:0.011647073 3785:0.005400401 3786:0.00076348164 3793:0.021261497 3796:0.0134993 3801:0.023411255 3802:0.0044871035 3816:0.025588628 3832:0.020318765 3857:0.0046630081 3858:0.037775794 3863:0.012237223 3882:0.031346069 3884:0.0087294015 3893:0.0022532354 3902:0.0084221253 3905:0.0032305361 3918:0.0065790115 3924:0.019898915 3925:0.022353918 3931:0.022718853 3939:0.011942313 3940:0.018098703 3944:0.011560164 3950:0.016515536 3953:0.00077710061 3968:0.016171514 3970:0.016504007 3972:0.016765428 3983:0.015969058 3994:0.011060818 3999:0.015509486 4000:0.017929186 4001:0.018698911 4002:0.016439644 4004:0.0033025415 4007:0.0095292551 4012:0.026597943 4018:0.011349908 4020:0.01190062 4023:0.01325133 4025:0.012409186 4026:0.009474506 4027:0.012261325 4028:0.007157468 4035:0.030428146 4041:0.038096747 4043:0.028648381 4049:0.0075923907 4050:0.047312364 4053:0.024805222 4070:0.038541718 4074:0.01053086 4081:0.0051561624 4083:0.021098301 4093:0.014426321 4097:0.0016859512 4105:0.014449683 4111:0.024011359 4112:0.0081471501 4115:0.0076497012 4116:0.016521552 4117:0.012433734 4122:0.011294361 4127:0.022544598 4131:0.0010609726 4132:0.050696281 4135:0.011440915 4137:0.029634965 4142:0.010118366 4143:0.0022166304 4147:0.0072825331 4153:0.015669124 4160:0.012444757 4176:0.031545198 4180:0.015911946 4181:0.0052718115 4187:0.039922872 4192:0.0095927276 4193:0.026530057 4194:0.02096685 4199:0.010980005 4205:0.020290882 4207:0.017876177 4208:0.01123003 4209:0.0014810892 4213:0.0032372403 4220:0.0049464683 4224:0.0071042582 4226:0.017158804 4227:0.0074512463 4229:0.0020461262 4232:0.0085427071 4238:0.010094838 4242:0.01962165 4255:0.0018217084 4257:0.023057962 4261:0.0043544447 4268:0.0015149653 4270:0.015992513 4302:0.0018093864 4303:0.012013175 4313:0.0093552387 4320:0.013353387 4326:0.033069344 4329:0.016621586 4340:0.0046770514 4348:0.024770889 4351:0.028300696 4352:0.010989111 4355:0.0053519468 4359:0.033010519 4363:0.0020318842 4364:0.0036364244 4366:0.020426964 4367:0.0014687098 4372:0.034716431 4373:0.0079075467 4376:0.008476701 4377:0.010435144 4381:0.0135598 4396:0.013340396 4397:0.025576404 4399:0.011928187 4403:0.027429485 4414:0.0025708298 4416:0.0024607322 4423:0.024726852 4425:0.0065852603 4432:0.0040608992 4433:0.0031635534 4436:0.009496099 4439:0.00060498506 4441:0.0069000674 4442:0.0038479583 4450:0.0081955702 4457:0.018832309 4462:0.036329996 4463:0.021445852 4466:0.0081992309 4467:0.028098231 4469:0.0059080324 4470:0.019103515 4474:0.018221521 4479:0.028463943 4480:0.021115913 4485:0.0054994967 4486:0.010509075 4488:0.012266787 4491:0.0064858236 4493:0.0013042183 4494:0.0084902319 4497:0.012010419 4504:0.020626397 4510:0.0056898155 4511:0.011050497 4513:0.0088331779 4514:0.016239777 4516:0.012498544 4520:0.021586693 4521:0.019961572 4523:0.0015236749 4525:0.0039373635 4530:0.0076199926 4532:0.0071475847 4533:0.0089272822 4546:0.00085562471 4548:0.01701701 4550:0.046490824 4552:0.0090395572 4554:0.01047047 4555:0.014158581 4567:0.035061174 4571:0.019880768 4574:0.010982353 4580:0.012851483 4581:0.01344199 4582:0.0055393784 4589:0.0048142286 4594:0.0073702727 4600:0.015378718 4610:0.023780329 4611:0.0045990636 4612:0.017692053 4619:0.0051094765 4634:0.0019830585 4638:0.030377887 4646:0.011842989 4664:0.006942104 4665:0.00058410868 4668:0.01212556 4672:0.014506183 4679:0.046275734 4681:0.016337936 4684:0.0018210746 4690:0.01032915 4697:0.0083243489 4698:0.024735846 4701:0.0072080174 4704:0.012722134 4711:0.010737652 4715:0.0059909623 4716:0.0072507502 4717:0.022815804 4722:0.027065675 4731:0.013960681 4736:0.028386425 4750:0.027811478 4754:0.045299398 4762:0.0037515559 4768:0.0066313929 4769:0.005931434 4772:0.012564913 4778:0.0035460728 4786:0.0083877537 4787:0.018829635 4791:0.01053951 4793:0.020595257 4796:0.053653678 4802:0.014494805 4803:0.017196663 4808:0.0083808882 4816:0.0034867139 4821:0.0032236347 4827:0.0034789279 4828:0.016002325 4831:0.014651268 4833:0.011677776 4834:0.0045618236 4838:0.0040367405 4843:0.0062656514 4850:0.011157555 4858:0.037391535 4859:0.028079217 4861:0.02954216 4874:0.031198607 4881:0.018496391 4884:0.014362233 4891:0.022431903 4892:0.014903571 4894:0.0018911601 4898:0.00043447357 4900:0.012974074 4901:0.02178248 4902:0.0020937548 4903:0.0060268187 4904:0.0016096952 4905:0.016024634 4914:0.013752874 4917:0.016672299 4919:0.015047054 4926:0.0037797014 4928:0.033798454 4931:0.0063889362 4933:0.0069695446 4943:0.0041568961 4944:0.0094651697 4948:0.00085895982 4953:0.015878648 4955:0.016934969 4961:0.066994684 4968:0.0032517245 4971:0.0022591655 4976:0.020736279 4994:0.022848499 4995:0.014172113 5009:0.011043403 5041:0.060246452 5077:0.0018532291 5092:0.020445048 5103:0.014178814 5111:0.014296246 5137:0.0024625788 5167:0.021874164 5180:0.0082754923 5189:0.032445223 5192:0.017754729 5193:0.020231203 5207:0.03245873 5262:0.0060140266 5292:0.00053076874 5316:0.0063463469 5337:0.0034873623 5346:0.0079190767 5379:0.0041660358 5380:2.7809766e-05 5393:0.0030261816 5397:0.013158234 5430:0.020504227 5433:0.0030484159 5455:0.0080537909 5456:0.0052976457 5484:0.015080088 5493:0.014035396 5497:0.0052716354 5527:0.015817038 5558:0.015337051 5567:0.0077066545 5569:0.013750035 5591:0.015266785 5634:0.0032369859 5643:0.010279222 5669:0.027086756 5674:0.0040117472 5679:0.017738919 5695:0.013156962 5697:0.0018796122 5720:0.0067535335 5761:0.0088147515 5791:0.010107717 5813:0.030372469 5836:0.0080615743 5885:0.0048712809 5961:0.0056909965 5966:0.018329498 6007:0.00047131377 6022:0.0016473855 6025:0.015005968 6037:0.011284013 6050:0.0093190889 6089:0.017498981 6107:0.0039481354 6109:0.0065434045 6130:0.0016388688 6146:0.0026334923 6155:0.010406852 6156:0.0020872098 6164:0.0028340741 6186:0.0017170578 6187:0.017499227 6189:0.023034249 6191:0.023552415 6196:0.0072821705 6211:0.022640987 6246:0.013995082 6254:0.01635619 6259:0.02122092 6276:0.013459589 6305:0.012221566 6391:0.0055630477 6401:0.022929768 6404:0.0087174707 6405:0.017965096 6431:0.0033561081 6433:0.007670423 6440:0.0049848327 6443:0.0089417058 6445:0.001735751 6452:0.017584938 6464:0.0097000033 6467:0.0026521464 6469:0.03407021 6497:0.0015290137 6522:0.018484293 6542:0.01858833 6545:0.0069003026 6546:0.0019863311 6552:0.020089781 6553:0.017590636 6558:0.0068367165 6568:0.036241394 6569:0.0070184571 6571:0.0046569091 6584:0.0060577371 6632:0.0040884496 6643:0.010420366 6645:0.0038314526 6646:0.0019848786 6659:0.019312153 6665:0.0019165768 6674:0.020076568 6676:0.031678929 6677:0.020855738 6728:0.017097859 6761:0.0064705192 6773:0.024752662 6785:0.0087471426 6793:0.002214575 6812:0.03058298 6834:0.024304445 6837:0.0017326459 6845:0.017934054 6860:0.0041225259 6867:0.011679994 6882:0.024303711 6889:0.017065991 6892:0.018246588 6918:0.00044087639 6924:0.0049478724 6925:0.01499371 6937:0.010164928 6950:0.0076292566 6968:0.012166043 6989:0.0075109623 7023:0.008451616 7043:0.036914747 7047:0.045596711 7049:0.009685916 7070:0.0028936577 7081:0.0035323664 7090:0.015411019 7103:0.014979633 7108:0.0024949718 7186:0.0073674425 7192:0.024808976 7237:0.001448655 7272:0.01377013 7310:0.022666477 7321:0.0048543717 7356:0.011566633 7532:0.021420171 7538:0.013481917 7548:0.017814721 7586:0.010987787 7589:0.0073156949 7635:0.011226018 7674:0.0024184651 7700:0.0063736366 7701:0.010625949 7706:0.0095213638 7804:0.005410596 7842:0.011671675 7862:0.028151382 8005:7.6817427e-05 8007:0.011363736 8011:0.016509294 8031:0.023289466 8037:0.0048808771 8043:0.0037121159 8047:0.043857175 8077:0.0076963426 8083:0.025552993 8090:0.0082459907 8100:0.0076696513 8102:0.039144848 8108:0.019616404 8111:0.017270031 8113:0.0051659043 8118:0.010952736 8125:0.019217553 8127:0.044645749 8135:9.0508715e-05 8140:0.0033635895 8142:0.0092018775 8156:0.0006252882 8160:0.026287224 8180:0.070461453 8192:0.012489631 8196:0.035553816 8198:0.0023398596 8207:0.0071659017 8211:0.007597205 8226:0.015986663 8268:0.012777116 8272:0.0074679926 8279:0.013188851 8281:0.015481121 8282:0.011160314 8289:0.0071407396 8307:0.0038814853 8309:0.0051707768 8312:0.0040605068 8334:0.023170411 8341:0.01427404 8349:0.0035970287 8351:0.024759 8352:0.0080091792 8359:0.036071261 8377:0.011252227 8391:0.0069427903 8399:0.00043515159 8431:0.019300733 8436:0.020396778 8445:0.0052969594 8469:0.029235835 8470:0.028256228 8474:0.012382547 8480:0.0053538691 8501:0.02270811 8511:0.010320658 8515:0.0019210642 8532:0.028474428 8538:0.0048102054 8546:0.016145244 8555:0.0036164165 8558:0.011564197 8560:0.010445824 8567:0.0025510228 8568:0.042612652 8577:0.01746974 8582:0.0048982792 8586:0.0064934184 8589:0.019860964 8601:0.0017829036 8603:0.0075360064 8608:0.0036288275 8622:0.00656815 8638:0.052462671 8642:0.0085398931 8643:0.0015960597 8660:0.0095317773 8665:0.0074410047 8669:0.031078812 8675:0.021036186 8681:0.010234481 8687:0.0061041746 8690:0.016639873 8693:0.0054435085 8701:0.031978785 8706:0.013306595 8714:0.032757365 8722:0.025034362 8724:0.019491121 8745:0.013727234 8756:0.011760451 8773:0.0056666476 8785:0.0070507398 8790:0.016865088 8791:0.033870263 8808:0.0029908133 8810:0.0037682735 8812:0.016227626 8813:0.012403626 8836:0.039903952 8852:0.006687005 8859:0.026480912 8862:0.02499196 8874:0.025130833 8903:0.027213431 8915:0.019859487 8953:0.027732617 8961:0.00010766872 8994:0.00032999331 9009:0.015832015 9015:0.0021467806 9024:0.011321991 9049:0.0084770903 9075:0.0026147214 9092:0.021657182 9114:0.027434667 9116:0.0033824605 9122:0.014584542 9132:0.0067712191 9184:0.0059394338 9192:0.004416886 9195:0.059497633 9196:0.010375935 9203:0.01169444 9237:0.0064496827 9245:0.011448794 9249:0.0060403155 9250:0.017047344 9254:0.0067029443 9267:0.027855237 9276:0.011540636 9280:0.0033404718 9281:0.03262047 9286:0.0058009322 9291:0.01975266 9323:0.037283083 9329:0.020314237 9342:0.039679209 9366:0.010188707 9369:0.005023381 9372:0.029941202 9379:0.0050733519 9395:0.03235694 9397:0.019459089 9413:0.041020805 9421:0.015971247 9425:0.017000303 9430:0.025503218 9433:0.004844655 9451:0.0083992968 9455:0.01164388 9456:0.005815788 9472:0.01016262 9480:0.013202702 9484:0.0049978375 9497:0.005130258 9506:0.010619176 9523:0.0070736914 9542:0.0046502322 9560:0.0036623985 9569:0.019556599 9571:0.0026825275 9577:0.00793507 9590:0.0048512502 9594:0.011350799 9596:0.011659841 9598:0.004537656 9603:0.013941777 9608:0.0023868528 9610:0.022807966 9634:0.010821846 9638:0.041979722 9646:0.01214702 9647:0.013874028 9655:0.0077954446 9669:0.023144791 9673:0.0017210392 9688:0.017092283 9698:0.019127773 9700:0.0028648245 9708:0.0030797453 9712:0.0036935116 9717:0.0062204053 9736:0.017049597 9790:0.0036396065 9802:0.062314492 9812:0.042871614 9828:0.0038739406 9852:0.018519081 9855:0.0046871459 9857:0.01006476 9874:0.017734416 9877:0.0071971192 9878:0.0079428571 9903:0.0091186489 9905:0.0047851507 9916:0.00034304667 9958:0.020915671 9974:0.010983636 9983:0.010133619 10007:0.033503918 10012:0.010456038 10024:0.0056900419 10035:0.0066360627 10037:0.018609098 10043:0.00012972717 10058:0.0006583567 10066:0.016334836 10082:0.015146787 10085:0.0080200674 10092:0.032156212 10112:0.019949216 10114:0.020384252 10143:0.0097254786 10154:0.0062588572 10164:0.006847809 10180:0.048136724 10187:0.0075383609 10211:0.012857899 10237:0.0080233996 10239:0.012225173 10254:0.01785232 10264:0.00081777061 10270:0.00039622702 10285:0.040323105 10286:0.0043695937 10295:0.032458613 10296:0.014663598 10319:0.021360299 10328:0.015639836 10336:0.0015727193 10340:0.04092911 10366:0.0060918331 10374:0.016712333 10381:0.0098408133 10386:0.019857946 10391:0.013518961 10415:0.0055265432 10421:0.010828908 10456:0.00061547128 10459:0.00077543892 10472:0.010226825 10492:0.012819402 10495:0.0013165446 10497:0.0022032913 10531:0.020960928 10535:0.0067082459 10560:0.002979956 10563:0.0058727397 10566:0.0069189339 10570:0.023081688 10576:0.014991354 10584:0.0085316853 10639:0.0089800603 10645:0.0093865631 10646:0.014464409 10652:0.00044185416 10657:0.011390197 10659:0.018971671 10671:0.022382422 10673:0.011895119 10675:0.017688524 10680:0.0016089034 10708:0.0021766871 10712:0.022247949 10723:0.024530711 10725:0.013371911 10728:0.022373002 10747:0.026345214 10763:0.015988689 10782:0.0099732343 10791:0.0012653357 10813:0.0082280185 10814:0.017105204 10819:0.015465421 10821:0.015179703 10828:0.010689176 10829:0.010346204 10842:0.0058767629 10874:0.0098772701 10875:0.026665049 10878:0.012291716 10883:0.0088562222 10890:0.0037605223 10915:0.023736843 10925:0.0047352097 10926:0.0076405394 10954:0.0035539139 10964:0.0049025859 10974:0.0049195768 10981:0.0098562607 11009:0.022599943 11011:0.029489826 11015:0.0030389138 11020:0.014358094 11041:0.018049712 11070:0.011593566 11079:0.015844128 11083:0.027266513 11092:0.021596654 11101:0.01522136 11109:6.187628e-05 11125:0.0015929199 11135:0.004512988 11141:0.015920896 11155:0.012986026 11170:0.021117631 11186:0.031970962 11195:0.012236953 11198:0.0071606006 11205:0.020584574 11208:0.0017484263 11210:0.0014924262 11211:0.031921753 11232:0.0039187919 11237:0.0096106301 11242:0.0020619091 11258:0.024874955 11263:0.015090129 11264:0.014778997 11270:0.013522297 11271:0.017796189 11277:0.00201146 11289:0.021246083 11298:0.0014973319 11299:0.011945831 11310:0.0091412782 11336:0.020474021 11347:0.0085536325 11350:0.0025395499 11364:0.036688227 11366:0.018027772 11379:0.013264137 11388:0.016561916 11393:0.00066299193 11415:0.0058636674 11445:0.023113224 11455:0.0066630202 11456:0.030602659 11460:0.0081524177 11499:0.0016348858 11503:0.0059473335 11580:0.027684441 11596:0.0036962907 11611:0.0049556663 11634:0.010665882 11636:0.014889076 11639:0.031720444 11645:0.0043202009 11647:0.033005852 11663:0.014944017 11676:0.034611267 11680:0.017757066 11698:0.010397453 11704:0.010911683 11706:0.0094522497 11720:0.018192173 11728:0.0074676515 11740:0.004488319 11754:0.046433209 11770:0.042792497 11782:0.0096972223 11801:0.031313558 11824:0.043305218 11857:0.019066497 11858:0.0018058019 11859:0.0044966997 11872:0.033770104 11878:0.0097557154 11881:0.039424217 11882:0.0072453606 11894:0.027101818 11907:0.018770689 11912:0.00082252169 11918:0.0086289541 11920:0.0013932419 11931:0.019367006 11950:0.0025260256 11963:9.0178896e-05 11965:0.02366884 11974:0.020636798 11989:0.036996722 11991:0.034389791 11993:0.010299914 12003:0.0059989333 12011:0.0098441434 12012:0.0098247079 12013:0.0083276669 12020:0.0051227873 12023:0.010381802 12025:0.0055716862 12028:0.016581893 12032:0.026650509 12033:0.021857275 12035:0.012553485 12047:0.033947226 12051:0.003125512 12052:0.0013168501 12053:0.021207277 12062:0.0028911722 12074:0.013557891 12080:0.0015631247 12090:0.012120303 12097:0.00444508 12102:0.022534578 12103:0.011923808 12106:0.0052365361 12108:0.022377614 12111:0.011415733 12112:0.0049345689 12118:0.018515737 12124:0.0048410991 12126:0.034404715 12127:0.0018240325 12129:0.029504395 12131:0.0094392721 12132:0.0052883738 12134:0.052303943 12135:0.010485314 12142:0.0007948912 12147:0.012868999 12149:0.012210644 12156:0.0051762486 12164:0.013567792 12168:0.0017241906 12173:0.019471015 12192:0.0015412626 12197:0.0088839997 12205:0.021311672 12232:0.011457311 12239:0.0097310741 12246:0.007960111 12248:0.025803769 12272:0.021517803 12282:0.011363174 12284:0.014502998 12289:0.0035242773 12292:0.010510452 12295:0.0096359053 12303:0.019809244 12307:0.0042715207 12336:0.0014980826 12351:0.030625263 12352:0.0092112034 12357:0.010169137 12362:0.01370221 12367:0.00098784063 12368:0.033440257 12370:0.0054804462 12377:0.01898519 12381:0.0054244696 12390:0.0081859908 12392:0.0027721003 12399:0.025487327 12402:0.0023596043 12406:0.049064989 12408:0.012403583 12412:0.038208292 12414:0.00099054919 12430:0.038978093 12432:0.0015257444 12436:0.0038066772 12443:0.0016590781 12444:0.0056456927 12450:0.017052391 12460:0.0093181165 12466:0.018411541 12473:0.0022162532 12478:0.018070639 12480:0.03352823 12481:0.014468143 12484:0.0060818586 12485:0.0049763409 12487:0.04440562 12493:0.0121927 12494:0.0032507646 12509:0.0021431891 12511:0.022382307 12517:0.0034183396 12518:0.012995473 12520:0.016940275 12523:0.0032181694 12524:0.0092680188 12525:0.011179445 12532:0.044971865 12545:0.006053991 12547:0.0037694461 12548:0.036459955 12555:0.014705548 12566:0.030848342 12576:0.010661803 12581:0.023161662 12587:0.012342539 12588:0.03167773 12589:0.0075846989 12600:0.0069703608 12601:0.018747722 12612:0.013115529 12615:0.023895743 12621:0.0078348998 12628:0.014797231 12633:0.0039365697 12638:0.041590228 12644:0.014843451 12647:0.033781054 12649:0.017550673 12662:0.025172974 12664:0.030871883 12667:0.017162713 12668:0.012792276 12674:0.0066283144 12675:0.031106069 12681:0.00068345512 12682:0.013097748 12686:0.015042886 12689:0.015399591 12690:0.011737541 12701:0.033971477 12704:0.0013693591 12706:0.0028531952 12712:0.0062329088 12736:0.0070006154 12737:0.033438604 12741:0.012934008 12745:0.008950338 12748:0.030400011 12751:0.007144996 12757:0.0092830691 12760:0.0054631242 12761:0.0029565968 12768:0.0045281928 12777:0.03548426 12780:0.011996394 12785:0.0077839612 12791:0.0016576171 12792:0.028997449 12796:0.051678963 12802:0.028974414 12816:0.0052188008 12817:0.0098606156 12823:0.0025645833 12829:0.0093628293 12833:0.048243097 12842:0.016101494 12851:0.011116763 12852:0.0050078083 12859:0.011523301 12862:0.029377226 12868:0.01566104 12876:0.012241501 12880:0.021003066 12883:0.0034095705 12889:0.010817187 12893:0.026816442 12912:0.038722296 12913:0.023592638 12916:0.0016253496 12921:0.018883616 12922:0.013737163 12925:0.00033695975 12940:0.009946643 12942:0.016825507 12943:0.0026026446 12948:0.03197101 12953:0.017267567 12985:0.0031841973 12994:0.019464456 13009:0.013719367 13024:0.013911287 13027:0.0046805628 13046:0.0084802406 13071:0.026691914 13075:0.0084814802 13101:0.023714604 13103:0.0042441839 13106:0.00075852826 13114:0.011761299 13119:0.0085882142 13125:0.011423123 13148:0.0009910179 13174:0.0083187465 13203:0.024737686 13211:0.0049705405 13221:0.024163695 13226:0.0094211631 13240:0.00924884 13242:0.0074644419 13268:0.0013722522 13271:0.0079476683 13286:0.0059943427 13303:0.0086512125 13318:0.017645755 13320:0.027397423 13328:0.028265384 13335:0.033976369 13339:0.00072753777 13355:0.010208916 13366:0.0042322578 13368:8.5915735e-05 13379:0.0043320235 13397:0.013239424 13405:0.009214765 13408:0.044655574 13421:0.01136847 13431:0.0033614375 13444:8.6491741e-05 13450:0.007510803 13478:0.0053261304 13497:0.0059225037 13501:0.0068725985 13502:0.0084404559 13520:0.0067810662 13525:0.0090499959 13543:0.0041241003 13547:0.0023984004 13549:0.0052956454 13558:0.0031170985 13560:0.023259022 13563:0.0064072065 13564:0.0022955578 13566:0.0051368107 13572:0.01438527 13575:0.011274236 13584:0.012705549 13586:0.0003108063 13623:0.0039972078 13628:0.0074899382 13634:0.0064512639 13636:0.0084977738 13644:0.0057747673 13645:0.01317769 13646:0.0095417549 13654:0.023955699 13659:0.00019674901 13681:0.0083277654 13704:0.0223116 13720:0.032601101 13733:0.009300038 13748:0.0041574122 13764:0.030846919 13768:0.018477509 13796:0.0134993 13801:0.023411255 13816:0.025588628 13857:0.0046630081 13858:0.020369532 13863:0.012237223 13893:0.0022532354 13902:0.0084221253 13925:0.022353918 13939:0.011942313 13940:0.018098703 13950:0.0022846193 13970:0.016504007 13972:0.012821408 13983:0.015969058 13994:0.0074842898 13999:0.0030576996 14000:0.017929186 14009:0.01129139 14015:0.0043869922 14020:0.015393337 14023:0.015848102 14035:0.0090933485 14052:0.015570891 14053:0.011520544 14071:0.0028627291 14081:0.0080819299 14092:0.0046443795 14103:0.010088828 14105:0.0057216995 14111:0.0026315598 14127:0.039352607 14131:0.012117609 14169:0.022343289 14174:0.0025387559 14187:0.016846031 14190:0.00097216519 14192:0.0038606494 14195:0.0063334159 14199:0.0059563183 14205:0.025063955 14236:0.014869489 14242:0.015091522 14245:0.011421266 14248:0.041224763 14252:0.00129191 14257:0.023747179 14259:0.0091414428 14268:0.021810841 14270:0.0086295325 14271:0.0088014197 14278:0.0010518814 14280:0.0058804404 14283:8.7329612e-05 14305:0.01011893 14306:0.017182446 14318:0.0031878394 14332:0.013533729 14345:0.00048695604 14352:0.0048483272 14355:0.024511598 14357:0.0031950525 14374:0.010358975 14386:0.016710493 14404:0.022949376 14405:0.022483841 14412:0.010283661 14443:0.010048048 14461:0.052981487 14477:0.016503259 14478:0.00048544445 14479:0.0089288843 14487:0.029168555 14500:0.0060551641 14501:0.018628967 14521:0.019791703 14525:0.0090619172 14532:0.037345778 14533:0.0034860108 14535:0.014572287 14545:0.022605337 14549:0.0056501722 14553:0.0096935433 14559:0.0096185508 14595:0.0092013997 14600:0.0276817 14626:0.0075428923 14644:0.0047716696 14646:0.0050512815 14652:0.016785491 14668:0.0059587378 14674:0.0098833215 14698:0.018110504 14712:0.031912538 14719:0.011473009 14724:0.0021861805 14736:0.035233007 14761:0.010924697 14777:0.003045352 14782:0.011647073 14785:0.005400401 14786:0.00076348164 14793:0.021261497 14802:0.0044871035 14832:0.020318765 14858:0.037775794 14882:0.031346069 14884:0.0087294015 14918:0.0065790115 14924:0.019898915 14925:0.0066682542 14931:0.022718853 14940:0.016268787 14950:0.016515536 14953:0.00077710061 14972:0.016765428 14994:0.0072161555 15001:0.018698911 15002:0.016439644 15004:0.0033025415 15007:0.0095292551 15018:0.011349908 15020:0.01190062 15023:0.01325133 15025:0.012409186 15026:0.009474506 15027:0.012261325 15035:0.030428146 15043:0.028648381 15049:0.0075923907 15053:0.024805222 15070:0.038541718 15074:0.01053086 15081:0.0051561624 15083:0.021098301 15111:0.024011359 15115:0.0039313661 15116:0.016521552 15117:0.012433734 15122:0.011294361 15127:0.022544598 15131:0.0010609726 15132:0.050696281 15135:0.011440915 15137:0.029634965 15142:0.010118366 15153:0.015669124 15180:0.015911946 15181:0.0052718115 15192:0.0095927276 15193:0.0061615214 15199:0.010980005 15205:0.020290882 15208:0.01123003 15213:0.0032372403 15224:0.0071042582 15226:0.017158804 15227:0.0074512463 15229:0.0020461262 15242:0.01962165 15255:0.0018217084 15257:0.023057962 15261:0.0043544447 15268:0.0015149653 15270:0.015992513 15302:0.0018093864 15303:0.012013175 15320:0.013353387 15326:0.033069344 15329:0.016621586 15340:0.0046770514 15352:0.0073051515 15355:0.0053519468 15359:0.033010519 15363:0.0020318842 15364:0.0036364244 15366:0.020426964 15372:0.034716431 15376:0.008476701 15377:0.010435144 15397:0.023139045 15403:0.027429485 15414:0.0025708298 15423:0.024726852 15425:0.0065852603 15432:0.0040608992 15441:0.0069000674 15442:0.0038479583 15450:0.0081955702 15457:0.018832309 15462:0.036329996 15467:0.028098231 15469:0.0059080324 15479:0.028463943 15480:0.021115913 15485:0.0054994967 15493:0.0013042183 15497:0.012010419 15504:0.020626397 15510:0.0056898155 15516:0.012498544 15520:0.021586693 15521:0.019961572 15523:0.0015236749 15525:0.0039373635 15530:0.0076199926 15532:0.0071475847 15533:0.0089272822 15548:0.01701701 15550:0.046490824 15555:0.014158581 15571:0.019880768 15574:0.010982353 15580:0.00048821261 15594:0.0073702727 15600:0.010055822 15610:0.023780329 15611:0.0045990636 15612:0.017692053 15634:0.0019830585 15638:0.030377887 15646:0.011842989 15664:0.006942104 15665:0.00058410868 15668:0.01212556 15672:0.014506183 15679:0.016362164 15681:0.016337936 15684:0.0018210746 15690:0.01032915 15697:0.0083243489 15698:0.024735846 15701:0.0072080174 15704:0.012722134 15711:0.010737652 15715:0.0059909623 15716:0.0072507502 15717:0.0090094304 15722:0.027065675 15736:0.028386425 15750:0.0082374376 15754:0.045299398 15762:0.0037515559 15768:0.0066313929 15778:0.0035460728 15786:0.0083877537 15787:0.018829635 15791:0.01053951 15796:0.0049074516 15802:0.014494805 15808:0.0083808882 15821:0.0032236347 15831:0.0062327767 15834:0.0045618236 15838:0.0040367405 15843:0.0062656514 15850:0.011157555 15858:0.037391535 15861:0.02954216 15874:0.031198607 15881:0.018496391 15891:0.022431903 15892:0.014903571 15894:0.0018911601 15898:0.00043447357 15900:0.012974074 15902:0.0020937548 15903:0.0060268187 15905:0.016024634 15917:0.010383966 15919:0.015047054 15926:0.0037797014 15928:0.030509903 