svm_type c_svc
kernel_type rbf
gamma 4.7619e-05
nr_class 2
total_sv 196
rho 1.85557
label 1 -1
probA -5.62274
probB 0.384749
nr_sv 81 115
SV
6886.948952960009 1:0.023193174 2:0.012835634 3:0.0055014147 4:0.019761672 7:0.009506072 8:0.022980332 9:0.028304641 10:0.01201649 11:0.008992248 12:0.0090565453 13:0.0064475157 15:0.010709324 18:0.00097257658 19:0.0024142076 20:0.025896768 21:0.029521862 23:0.020202321 25:0.0095210064 26:0.0084949435 28:0.042182666 30:0.026988699 31:0.024559276 33:0.026505996 34:0.0012627693 35:1.0301664e-06 36:0.014848122 37:0.023931322 39:0.016860168 41:0.0029411698 43:0.037339077 45:0.023204202 46:0.0052087331 48:0.047614648 49:0.0086356462 52:0.0043987973 54:0.011937791 55:0.034436569 57:0.0083052683 58:0.0065285938 60:0.028612361 61:0.049659873 64:0.0026503104 65:0.030346031 66:0.05040541 69:0.017318782 70:0.010699233 72:0.011550113 73:0.011754581 74:0.0079036615 75:0.016726398 76:0.0070250942 77:0.022019958 79:0.021236735 80:0.031673743 81:0.034019031 82:0.010584149 83:0.030574394 84:0.0093261305 85:0.0090619935 86:0.0023969566 87:0.016097883 88:0.039920585 89:0.014718805 92:0.0091371352 93:0.0064667988 94:0.010541241 97:0.049966303 98:0.0027937043 99:0.026202206 100:0.011925077 101:0.012452088 103:0.0094390077 104:0.0068265905 106:0.017969595 107:0.012806415 108:0.0019631661 109:0.013267119 110:0.018751259 112:0.011012072 113:0.027463235 116:0.024346842 117:0.00821237 118:0.0024460318 119:0.00414651 120:0.020957697 121:0.042434174 122:0.015336208 125:0.0059404101 126:0.016012535 127:0.0034031233 128:0.0084585318 129:0.0070231381 131:0.010764346 132:0.0093645077 133:0.043649047 135:0.00045748287 138:0.0070454205 141:0.045959016 142:0.0088558436 143:0.040411031 146:0.024416324 148:0.0039729123 154:0.0098807048 156:0.016234098 158:0.01517909 160:0.0039541307 161:0.039824168 162:0.01451835 163:0.0096991773 164:0.0048001026 165:0.019645296 166:0.058813044 167:0.031461734 168:0.020425827 169:0.022510276 170:0.015056 172:0.024495116 173:0.00084692888 174:0.0079453225 176:0.0014604563 179:0.042238861 180:0.024044917 181:0.016528707 182:0.010178034 183:0.0034874884 184:0.022781274 185:0.016770858 186:0.018662222 187:0.013994448 189:0.00096784005 192:0.040966694 193:0.042538712 194:0.05584758 195:0.0034896578 196:0.03235343 197:0.0060562093 198:0.019087624 199:2.6632589e-07 201:0.00027418017 202:0.0058541705 203:0.019681236 204:0.0021989469 206:0.024814893 207:0.028098811 209:0.012017252 210:0.0084065042 211:0.030595674 214:0.014201612 217:0.0088246619 219:0.009774773 220:0.018263968 221:0.030967027 222:0.023078793 223:0.003430362 224:0.019415857 225:0.017926594 227:0.019381965 228:0.013866273 229:0.014728369 231:0.037044644 232:0.001686492 235:0.013841381 236:0.024713613 238:0.019173298 239:0.0078105368 242:3.0090655e-05 243:0.051317427 245:0.010149151 246:0.0029470876 247:0.022544051 249:0.010969734 250:0.0047932279 251:0.030690724 252:0.0013764127 254:0.0070940102 255:0.037437637 257:0.041463851 258:0.0095243686 259:0.024419883 261:0.0070931719 263:0.0074511107 264:0.016583481 266:0.00010375591 267:0.041133223 271:0.016375276 272:0.023587983 274:0.00025434694 275:0.0060649098 276:0.009477914 278:0.013715053 280:0.025299772 281:0.0027985424 284:0.019496343 287:0.0069776029 290:0.018593656 291:0.0027517172 293:0.014224617 294:0.0044437114 295:0.0023618003 296:0.0061541802 298:0.021685831 299:0.043247432 300:0.0049081728 302:0.016094527 305:0.025608755 306:0.00038766781 311:0.011467119 313:0.0087560817 314:0.0017428511 317:0.026556089 318:0.0064672406 320:0.021501479 322:0.030322018 323:0.030381511 324:0.0094433198 325:0.011297817 328:0.00044806616 329:0.016502946 331:0.02216071 332:0.017051786 333:0.016344833 334:0.010997475 336:0.033742113 339:0.011596451 341:0.022872849 342:0.018747969 347:0.012465893 348:0.00018550103 349:0.050499998 350:0.010165277 351:0.017227772 353:0.015775001 357:0.0025597623 359:0.038732407 360:0.019511793 361:0.021692589 362:0.010373957 363:0.046825336 364:0.041318688 366:0.0062194987 367:0.029702814 368:0.028934968 369:0.0006693948 370:0.009912521 372:0.0043193335 373:0.01391358 375:0.0026063528 376:0.0054293939 377:0.012320006 381:0.051164868 382:0.0097334235 385:0.0075770695 388:0.00024847875 391:0.033556614 392:0.017492561 393:0.023529451 394:0.017973941 397:0.030426152 398:0.014344473 401:0.0076221904 403:0.026363464 404:0.044059339 405:0.030221457 406:0.023614531 407:0.014052405 408:0.027077119 409:0.0081911656 410:0.018509413 411:0.032886387 414:0.037859548 417:0.007464548 418:0.01594695 425:0.016678257 426:0.0088149779 428:0.031083169 429:0.0099573586 430:0.067520078 432:0.033452918 433:0.034528747 435:0.0093114556 437:0.0045193599 439:0.010810684 440:0.0066661524 441:0.0069984257 442:0.0063222992 443:0.00021373654 444:0.019002844 445:0.027588896 446:0.0081971429 448:0.018014542 450:0.020836039 451:0.028646854 452:0.0080941425 455:0.012329839 456:0.036155705 457:0.012853843 458:0.03136062 459:0.019267842 462:0.024914814 463:0.022164416 464:0.0047068475 467:0.020206154 468:0.0065789243 469:0.025123562 471:0.0094300212 472:0.0088305127 477:0.010338744 478:0.0069489904 479:0.042119849 480:0.010327869 482:0.050528415 483:0.009238729 484:0.0145104 485:0.0086904429 486:0.0064870378 488:0.0052597153 490:0.0083685401 491:0.0098492829 493:0.012829261 495:0.0093901893 497:0.0081898606 498:0.0034848635 499:0.015311478 505:0.026226539 510:0.0014701966 511:0.013805988 513:0.029714485 514:0.0024785326 516:0.024198211 518:0.0087158737 520:0.0001401788 522:0.034127581 523:0.016242721 527:0.022022357 528:0.010015564 529:0.020181189 531:0.010369948 532:0.03293749 533:0.014687315 536:0.032972283 539:0.014274701 540:0.00065810041 542:0.045466759 543:0.015270489 544:0.015218885 546:0.023947965 550:0.019940672 552:0.0042551822 553:0.022319458 554:0.020053056 557:0.0070880733 558:0.01167947 560:0.018563313 561:0.0177207 563:0.0060881106 564:0.01195755 565:0.010903824 566:0.02623355 567:0.020718492 568:0.038419629 569:0.030927504 571:0.0036393856 574:0.033382139 577:0.0076060564 578:0.020378239 579:0.012709226 580:0.014354076 581:0.0027175019 582:0.043650739 583:0.010753976 584:0.017697846 585:0.0067958661 586:0.011249451 588:0.019692997 589:0.0041357919 590:0.016332753 592:0.011885725 594:0.0080912436 595:0.019019889 596:0.048099302 597:0.0098951378 598:0.00072460383 601:0.018274227 602:0.016200312 603:0.015618447 606:0.0056025396 607:0.016859699 608:0.031925205 609:0.037357721 610:0.038908762 611:0.042777111 613:0.019849399 614:0.018850073 615:0.025260667 616:7.317724e-06 618:0.00060274096 621:0.0081555653 622:0.011321655 625:0.0059715354 626:0.009177209 627:0.01127814 628:0.011890661 629:0.015522341 630:0.02180868 632:0.013097211 633:0.016173701 634:0.0054073042 635:0.010428668 636:0.01356696 637:0.016218711 638:0.087607055 639:0.0019073825 642:0.011899447 644:0.025065002 645:0.014137938 646:0.017654883 647:0.036117689 649:0.0045468314 652:0.025233577 653:0.054034957 654:0.026488641 655:0.014286488 659:0.026627508 660:0.0028392322 663:0.025477088 664:0.011857115 666:0.0047556675 667:0.041182874 669:0.041547455 672:0.019038975 674:0.025152731 676:0.02263026 677:0.0082721001 679:0.00081761657 680:0.01219361 681:0.0086500875 682:0.038121178 684:0.022202035 687:0.032051772 689:0.007141179 690:0.023955962 691:0.03634915 692:0.020597481 693:0.017531251 695:0.0047998899 696:0.010181166 697:0.0070439978 698:0.028865961 700:0.029617429 705:0.0048183705 708:0.011873571 709:0.033368978 712:0.020347016 713:0.0002598696 714:0.013559169 715:0.0098325734 720:0.05567244 721:0.0079344527 722:0.0221227 724:0.013077566 727:0.015704963 729:0.0037497994 731:0.02515857 733:0.010810572 734:0.0096506847 736:0.010889419 737:0.04055843 738:0.0031231143 739:0.031571658 740:0.029818815 741:0.0088004449 742:0.019835712 743:0.010566521 744:0.016169419 747:0.0072569009 748:0.0056898036 749:0.029173531 750:0.019621924 751:0.031587987 754:0.03230715 755:0.015162477 757:0.07075721 758:0.0011940636 760:0.0068485619 761:0.012909515 763:0.012128872 765:0.026941752 769:0.00090794867 770:0.017279473 771:0.019114579 773:0.017851208 774:0.0049172189 775:0.012649425 777:0.015663191 779:0.0077755025 781:0.027585883 783:0.005135231 784:0.018472127 786:0.0037642841 787:0.0095803886 789:0.0051216877 790:0.01013438 791:0.05011739 792:0.00903942 795:0.0056390324 797:0.024524558 798:0.036556904 799:0.014657609 800:0.025428583 801:0.066206937 802:0.01562585 804:0.004083223 807:0.015002001 808:0.01725564 810:0.019970885 811:0.012788799 812:0.038768353 813:0.024738465 814:0.029219557 816:0.0031649117 821:0.022805462 822:0.0045190876 823:0.018496019 824:0.00043258848 827:0.017476966 828:0.0103943 830:0.012395203 831:0.025112457 832:0.010685432 833:0.014603002 834:0.013251233 837:0.018410637 838:0.010440388 839:0.0060877135 840:0.011604824 841:0.012047829 842:0.032571872 844:0.011723471 845:0.012819552 846:0.0079842757 847:0.017276022 850:0.0097336654 851:0.0044386819 852:0.0025597565 854:0.0012591045 855:0.01389838 857:0.014271202 858:0.05331107 859:0.020468089 860:0.056746117 861:0.052289743 864:0.0031956681 867:0.014558837 869:0.0043739259 870:0.010751821 873:0.013503833 874:0.0049646522 875:0.0028984802 877:0.017653158 879:0.0072901022 880:0.0057972432 881:0.010008309 882:0.0022266021 883:0.0044125287 884:0.045959935 885:0.014294741 886:0.030887184 888:0.017184845 889:0.014638779 891:0.059815395 892:0.037090401 893:0.027060328 894:0.0032048512 896:0.014790083 898:0.022221806 899:0.011854776 900:0.0030332888 901:0.0092344511 902:0.0089092972 903:0.0034970767 904:0.011617853 905:0.010495794 907:0.011565884 909:0.014328784 911:0.019532878 914:0.022469578 915:0.0082209412 916:0.0094439781 917:0.020755949 918:0.0094743198 921:0.0033698485 922:0.014482821 925:0.036609065 926:0.0075268644 927:0.0096818117 928:0.029854852 930:0.0031922534 931:0.026637966 932:0.014651731 937:0.024685308 938:0.0058678221 939:0.015520507 940:0.0072712488 943:0.025570178 944:3.075244e-05 946:0.033677864 947:0.0014240673 948:0.0080840387 950:0.0064881649 951:0.01851894 954:0.024075707 955:0.011627287 957:0.0095777233 958:0.031000083 959:0.049628482 960:0.010348519 961:0.048865723 963:0.028374954 964:0.02645879 966:0.013848585 967:0.010745768 968:0.024233389 969:0.037044348 970:0.010070401 971:0.036300261 973:0.0091585412 975:0.0092510656 977:0.018201861 978:0.0019832428 979:0.037988355 981:0.013236457 986:0.010419144 988:0.01095437 989:0.021344056 992:0.0068825723 993:0.0089396322 995:0.010509799 996:0.042414778 997:0.041361093 999:0.015802723 1002:0.012835634 1003:0.0055014147 1009:0.012509274 1010:0.01201649 1013:0.0064475157 1015:0.010709324 1020:0.025896768 1021:0.0057972664 1023:0.0019582443 1026:0.0035772032 1037:0.0074225076 1039:0.016860168 1043:0.037339077 1048:0.047614648 1058:0.0065285938 1066:0.05040541 1069:0.017318782 1070:0.0092668135 1072:0.011550113 1074:0.0079036615 1075:0.016726398 1080:0.031673743 1083:0.030574394 1084:0.0093261305 1086:0.0023969566 1087:0.00073863429 1089:0.014718805 1094:0.0093840293 1097:0.014155243 1101:0.012452088 1103:0.0094390077 1107:0.011587485 1109:0.0035822959 1112:0.011012072 1116:0.024346842 1121:0.042434174 1125:0.0024580304 1127:0.0022072845 1131:0.010764346 1132:0.0076308887 1133:0.043649047 1135:0.00045748287 1142:0.0088558436 1143:0.023500121 1163:0.0096991773 1164:0.0048001026 1166:0.058813044 1167:0.031461734 1169:0.00077091891 1170:0.015056 1173:0.00084692888 1174:0.0079453225 1180:0.024044917 1181:0.016528707 1183:0.0034874884 1185:0.016770858 1186:0.01201958 1187:0.010097998 1192:0.040966694 1193:0.042538712 1194:0.05584758 1203:0.019681236 1204:0.0021989469 1211:0.030595674 1214:0.012566369 1221:0.0056715136 1222:0.010167282 1223:0.00052969861 1224:0.019415857 1228:0.013866273 1229:0.014728369 1239:0.0078105368 1243:0.019510001 1249:0.0013108279 1261:0.0070931719 1263:0.0074511107 1264:0.016583481 1271:0.016375276 1274:0.00025434694 1287:0.0056685739 1290:0.018593656 1291:0.0027517172 1293:0.014224617 1295:0.0023618003 1298:0.021685831 1300:0.0049081728 1306:0.00038766781 1317:0.018405247 1324:0.0094433198 1325:0.011297817 1332:0.0055563169 1347:0.012465893 1350:0.010165277 1351:0.017227772 1353:0.015775001 1357:0.0025597623 1361:0.0059738019 1362:0.0018287952 1363:0.046825336 1364:0.013229286 1368:0.0096542899 1370:0.009912521 1372:0.0043193335 1375:0.0026063528 1376:0.0054293939 1388:0.00024847875 1391:0.033556614 1392:0.012538215 1394:0.017973941 1398:0.011213592 1403:0.026363464 1407:0.014052405 1411:0.0071437779 1417:0.007464548 1418:0.01594695 1425:0.016678257 1430:0.067520078 1432:0.033452918 1435:0.0093114556 1437:0.0045193599 1443:0.00021373654 1450:0.020836039 1456:0.036155705 1457:0.003922774 1458:0.0041927377 1459:0.019267842 1462:0.011658064 1463:0.022164416 1464:0.0047068475 1468:0.0065789243 1472:0.0088305127 1482:0.050528415 1486:0.0064870378 1490:0.0083685401 1491:0.0098492829 1493:0.012829261 1510:0.0014701966 1513:0.029714485 1516:0.023751607 1520:0.0001401788 1522:0.034127581 1523:0.0044987671 1529:0.020181189 1532:0.03293749 1533:0.014687315 1552:0.0042551822 1553:0.015279682 1557:0.0070880733 1560:0.018563313 1561:0.0177207 1564:0.0076506825 1567:0.020718492 1568:0.038419629 1569:0.030927504 1574:0.033382139 1578:0.017472399 1579:0.012709226 1581:0.0027175019 1584:0.0070197471 1590:0.012729619 1592:0.011885725 1594:0.0035973036 1595:0.019019889 1601:0.018274227 1607:0.016859699 1609:0.0083659301 1610:0.038908762 1611:0.042777111 1613:0.019849399 1621:0.0070796799 1622:0.011321655 1627:0.01127814 1630:0.02180868 1634:0.0054073042 1637:0.016218711 1638:0.0035348201 1646:0.014346785 1649:0.0045468314 1654:0.026488641 1663:0.025477088 1674:0.00068350831 1679:0.00081761657 1680:0.0093089086 1681:0.0086500875 1684:0.022202035 1687:0.032051772 1690:0.0036684615 1691:0.0018182319 1692:0.0078923997 1695:0.0047998899 1698:0.028865961 1700:0.029617429 1708:0.011873571 1709:0.033368978 1712:0.020347016 1713:0.0002598696 1715:0.0098325734 1721:0.0049843699 1733:0.010810572 1734:0.006141473 1736:0.010889419 1739:0.031571658 1740:0.029818815 1743:0.010566521 1744:0.016169419 1749:0.029173531 1750:0.019621924 1754:0.0072035467 1757:0.07075721 1770:0.017279473 1775:0.006556183 1781:0.027585883 1783:0.005135231 1784:0.018472127 1786:0.0037642841 1787:0.0095803886 1790:0.01013438 1791:0.05011739 1795:0.0056390324 1797:0.024524558 1798:0.006448464 1799:0.014657609 1801:0.019429765 1807:0.015002001 1808:0.0021626145 1810:0.019970885 1811:0.012788799 1813:0.0012604661 1814:0.029219557 1821:0.022805462 1822:0.0045190876 1823:0.018496019 1824:0.00043258848 1827:0.017476966 1830:0.012395203 1833:0.014603002 1834:0.0099092427 1838:0.010440388 1840:0.011604824 1845:0.0083379654 1846:0.0079842757 1850:0.0097336654 1855:0.0083602782 1859:0.020468089 1860:0.027395602 1861:0.0020583845 1877:0.017653158 1881:0.010008309 1884:0.011153874 1886:0.0041224317 1889:0.014638779 1892:0.019907606 1894:0.0032048512 1898:0.022221806 1901:0.0092344511 1905:0.010495794 1915:0.0053807577 1918:0.0089099886 1937:0.024685308 1938:0.0058678221 1944:3.075244e-05 1947:0.0014240673 1958:0.031000083 1959:0.026993926 1963:0.028374954 1964:0.0032937547 1966:0.013848585 1967:0.010745768 1977:0.0023364122 1978:0.0019832428 1979:0.037988355 1989:0.021344056 1995:0.0079599621 1999:0.015802723 3002:0.0026771758 3018:0.00097257658 3019:0.0024142076 3021:0.0034306343 3026:0.0084949435 3035:1.0301664e-06 3037:0.011001032 3039:0.0055882414 3045:0.0072255364 3048:0.0056430121 3072:0.0010369327 3079:0.021236735 3080:8.8932236e-06 3093:0.0061486459 3098:0.0027937043 3100:0.011925077 3113:0.012898609 3117:0.00821237 3119:0.00414651 3120:0.0035466472 3121:0.039277669 3122:0.015336208 3141:0.045959016 3164:0.0028781978 3165:0.019645296 3166:0.019068069 3170:0.0065406388 3179:0.042238861 3181:0.0058245717 3199:2.6632589e-07 3201:0.00027418017 3206:0.024814893 3214:0.014201612 3217:0.0088246619 3219:0.0052152355 3222:0.011414549 3224:0.0090944708 3225:0.017926594 3227:0.019381965 3231:0.037044644 3236:0.024713613 3243:0.011121298 3250:0.0047932279 3281:0.0027985424 3287:0.0069776029 3290:0.0048568178 3299:0.043247432 3311:0.011467119 3314:0.0017428511 3318:0.0064672406 3322:0.030322018 3323:0.030381511 3329:0.016502946 3331:0.00081494325 3333:0.016344833 3334:0.0057174154 3347:0.011011003 3348:0.00018550103 3359:0.038732407 3361:0.021692589 3362:0.010373957 3366:0.0062194987 3369:0.0006693948 3385:0.0075770695 3391:0.0074367677 3394:0.0099355617 3398:0.014344473 3408:0.027077119 3409:0.0081911656 3410:0.0094334519 3411:0.010160214 3425:0.0030812885 3428:0.031083169 3429:0.0052055647 3432:0.019913133 3439:0.010810684 3444:0.019002844 3452:0.003412271 3458:0.0030995884 3467:0.020206154 3469:0.025123562 3477:0.010338744 3478:0.0069489904 3480:0.010327869 3488:0.0048824713 3498:0.0034848635 3522:0.022378882 3523:0.010101209 3531:0.010369948 3536:0.017848571 3540:0.00065810041 3553:0.022319458 3554:0.020053056 3561:0.0095057804 3563:0.0060881106 3564:0.0074363795 3568:0.037411446 3583:0.0097326547 3590:0.016332753 3592:0.005965445 3595:0.011448923 3597:0.0098951378 3602:0.012125429 3607:0.013785758 3616:7.317724e-06 3618:0.00060274096 3638:0.012309873 3639:0.0019073825 3644:0.025065002 3646:0.0031379924 3655:0.0023401472 3664:0.002306827 3693:0.015961861 3700:0.026651232 3720:0.010093543 3721:0.0079344527 3742:0.019835712 3771:0.019114579 3775:0.012649425 3779:0.0017844844 3781:0.0053541317 3800:0.025428583 3810:0.0016107737 3814:0.027671878 3831:0.025112457 3838:0.00789216 3840:0.0032506622 3842:0.032571872 3844:0.011723471 3852:0.0025597565 3854:0.00052970344 3857:0.014271202 3864:0.0031956681 3870:0.010751821 3874:0.0049646522 3875:0.0028984802 3879:0.0072901022 3884:0.045959935 3888:0.0028385844 3891:0.059815395 3896:0.014790083 3899:0.011854776 3903:0.0034970767 3907:0.011565884 3914:0.0088263198 3916:0.0094439781 3917:0.0073095752 3921:0.0033698485 3922:0.014482821 3928:0.029854852 3939:0.015520507 3951:0.01851894 3957:0.0095777233 3959:0.049628482 3960:0.010348519 3968:0.011909542 3970:0.010070401 3977:0.018201861 3979:0.0096635647 3993:0.0089396322 3995:0.0076584706 3996:0.042414778 4001:0.023193174 4002:0.0039255952 4004:0.019761672 4007:0.009506072 4008:0.022980332 4009:0.028304641 4010:0.0042919435 4011:0.008992248 4012:0.0090565453 4015:0.0077696435 4021:0.029521862 4023:0.020202321 4025:0.0095210064 4028:0.042182666 4030:0.026988699 4031:0.024559276 4033:0.026505996 4034:0.0012627693 4036:0.014848122 4037:0.023931322 4039:0.0099749893 4041:0.0029411698 4045:0.023204202 4046:0.0052087331 4048:0.0094107094 4049:0.0086356462 4052:0.0043987973 4054:0.011937791 4055:0.034436569 4057:0.0083052683 4060:0.028612361 4061:0.049659873 4064:0.0026503104 4065:0.030346031 4070:0.010699233 4073:0.011754581 4076:0.0070250942 4077:0.022019958 4080:0.017468546 4081:0.034019031 4082:0.010584149 4083:0.00030684947 4085:0.0090619935 4087:0.016097883 4088:0.039920585 4089:0.011671782 4092:0.0091371352 4093:0.0064667988 4094:0.010541241 4097:0.049966303 4099:0.026202206 4104:0.0068265905 4106:0.017969595 4107:0.012806415 4108:0.0019631661 4109:0.013267119 4110:0.018751259 4113:0.027463235 4118:0.0024460318 4120:0.020957697 4121:0.006926507 4125:0.0059404101 4126:0.016012535 4127:0.0034031233 4128:0.0084585318 4129:0.0070231381 4132:0.0093645077 4138:0.0070454205 4143:0.040411031 4146:0.024416324 4148:0.0039729123 4154:0.0098807048 4156:0.016234098 4158:0.01517909 4160:0.0039541307 4161:0.039824168 4162:0.01451835 4166:0.019827337 4167:0.029946824 4168:0.020425827 4169:0.022510276 4172:0.024495116 4176:0.0014604563 4179:0.035908925 4180:0.0065498705 4181:0.01588004 4182:0.010178034 4184:0.022781274 4186:0.018662222 4187:0.013994448 4189:0.00096784005 4192:0.030600225 4195:0.0034896578 4196:0.03235343 4197:0.0060562093 4198:0.019087624 4202:0.0058541705 4206:0.0052954415 4207:0.028098811 4209:0.012017252 4210:0.0084065042 4219:0.009774773 4220:0.018263968 4221:0.030967027 4222:0.023078793 4223:0.003430362 4225:0.016293017 4227:0.0015410722 4228:0.0088646865 4229:0.013481834 4232:0.001686492 4235:0.013841381 4236:0.0078011637 4238:0.019173298 4242:3.0090655e-05 4243:0.051317427 4245:0.010149151 4246:0.0029470876 4247:0.022544051 4249:0.010969734 4251:0.030690724 4252:0.0013764127 4254:0.0070940102 4255:0.037437637 4257:0.041463851 4258:0.0095243686 4259:0.024419883 4264:0.0066530206 4266:0.00010375591 4267:0.041133223 4271:0.01568383 4272:0.023587983 4275:0.0060649098 4276:0.009477914 4278:0.013715053 4280:0.025299772 4284:0.019496343 4291:0.002279488 4294:0.0044437114 4296:0.0061541802 4299:0.027991312 4302:0.016094527 4305:0.025608755 4313:0.0087560817 4317:0.026556089 4320:0.021501479 4324:0.002192237 4328:0.00044806616 4329:0.010954721 4331:0.02216071 4332:0.017051786 4334:0.010997475 4336:0.033742113 4339:0.011596451 4341:0.022872849 4342:0.018747969 4349:0.050499998 4351:0.0043339168 4359:0.0062933051 4360:0.019511793 4361:0.014538004 4364:0.041318688 4367:0.029702814 4368:0.028934968 4373:0.01391358 4377:0.012320006 4381:0.051164868 4382:0.0097334235 4391:0.0074421115 4392:0.017492561 4393:0.023529451 4394:0.00095392901 4397:0.030426152 4401:0.0076221904 4403:0.0077919138 4404:0.044059339 4405:0.030221457 4406:0.023614531 4408:0.020123683 4410:0.018509413 4411:0.032886387 4414:0.037859548 4417:0.0019925238 4426:0.0088149779 4429:0.0099573586 4433:0.034528747 4440:0.0066661524 4441:0.0069984257 4442:0.0063222992 4445:0.027588896 4446:0.0081971429 4448:0.018014542 4451:0.028646854 4452:0.0080941425 4455:0.012329839 4457:0.012853843 4458:0.03136062 4459:0.0005746685 4462:0.024914814 4463:0.010769171 4469:0.00274742 4471:0.0094300212 4479:0.042119849 4483:0.009238729 4484:0.0145104 4485:0.0086904429 4486:0.00049293085 4488:0.0052597153 4490:0.0082327228 4491:0.0057062502 4493:0.0090550691 4495:0.0093901893 4497:0.0081898606 4499:0.015311478 4505:0.026226539 4511:0.013805988 4513:0.019411565 4514:0.0024785326 4516:0.024198211 4518:0.0087158737 4522:0.02846045 4523:0.016242721 4527:0.022022357 4528:0.010015564 4532:0.0099509457 4536:0.032972283 4539:0.014274701 4542:0.045466759 4543:0.015270489 4544:0.015218885 4546:0.023947965 4550:0.019940672 4558:0.01167947 4561:0.0051248964 4564:0.01195755 4565:0.010903824 4566:0.02623355 4571:0.0036393856 4577:0.0076060564 4578:0.020378239 4580:0.014354076 4582:0.043650739 4583:0.010753976 4584:0.017697846 4585:0.0067958661 4586:0.011249451 4588:0.019692997 4589:0.0041357919 4592:0.008596857 4594:0.0080912436 4596:0.048099302 4598:0.00072460383 4602:0.016200312 4603:0.015618447 4606:0.0056025396 4608:0.031925205 4609:0.037357721 4613:0.0059503692 4614:0.018850073 4615:0.025260667 4621:0.0081555653 4625:0.0059715354 4626:0.009177209 4627:0.00067017633 4628:0.011890661 4629:0.015522341 4632:0.013097211 4633:0.016173701 4635:0.010428668 4636:0.01356696 4638:0.087607055 4642:0.011899447 4645:0.014137938 4646:0.017654883 4647:0.036117689 4649:0.0045129781 4652:0.025233577 4653:0.054034957 4655:0.014286488 4659:0.026627508 4660:0.0028392322 4663:0.0027757445 4664:0.011857115 4666:0.0047556675 4667:0.041182874 4669:0.041547455 4672:0.019038975 4674:0.025152731 4676:0.02263026 4677:0.0082721001 4680:0.01219361 4682:0.038121178 4684:0.013351537 4687:0.028288455 4689:0.007141179 4690:0.023955962 4691:0.03634915 4692:0.020597481 4693:0.017531251 4696:0.010181166 4697:0.0070439978 4705:0.0048183705 4709:0.013725344 4714:0.013559169 4720:0.05567244 4722:0.0221227 4724:0.013077566 4727:0.015704963 4729:0.0037497994 4731:0.02515857 4734:0.0096506847 4737:0.04055843 4738:0.0031231143 4739:0.0055531563 4741:0.0088004449 4747:0.0072569009 4748:0.0056898036 4749:0.01361582 4751:0.031587987 4754:0.03230715 4755:0.015162477 4757:0.010736817 4758:0.0011940636 4760:0.0068485619 4761:0.012909515 4763:0.012128872 4765:0.026941752 4769:0.00090794867 4770:0.0049362325 4773:0.017851208 4774:0.0049172189 4777:0.015663191 4779:0.0077755025 4781:0.014802552 4789:0.0051216877 4791:0.0016027844 4792:0.00903942 4797:0.020752861 4798:0.036556904 4799:0.012600647 4801:0.066206937 4802:0.01562585 4804:0.004083223 4808:0.01725564 4812:0.038768353 4813:0.024738465 4814:0.0068178044 4816:0.0031649117 4821:0.007275461 4823:0.0031739219 4828:0.0103943 4831:0.0072890827 4832:0.010685432 4834:0.013251233 4837:0.018410637 4839:0.0060877135 4841:0.012047829 4845:0.012819552 4847:0.017276022 4851:0.0044386819 4854:0.0012591045 4855:0.01389838 4857:0.0027139044 4858:0.05331107 4860:0.056746117 4861:0.052289743 4867:0.014558837 4869:0.0043739259 4870:0.0033271979 4873:0.013503833 4877:0.0032647136 4880:0.0057972432 4881:0.0070742727 4882:0.0022266021 4883:0.0044125287 4885:0.014294741 4886:0.030887184 4888:0.017184845 4889:0.0058669301 4892:0.037090401 4893:0.027060328 4898:0.012134509 4900:0.0030332888 4902:0.0089092972 4904:0.011617853 4905:0.0012234383 4909:0.014328784 4911:0.019532878 4914:0.022469578 4915:0.0082209412 4916:0.0039061852 4917:0.020755949 4918:0.0094743198 4921:0.0023604768 4925:0.036609065 4926:0.0075268644 4927:0.0096818117 4928:0.0017661024 4930:0.0031922534 4931:0.026637966 4932:0.014651731 4940:0.0072712488 4943:0.025570178 4946:0.033677864 4948:0.0080840387 4950:0.0064881649 4954:0.024075707 4955:0.011627287 4960:0.0059411783 4961:0.048865723 4964:0.02645879 4966:0.013107046 4968:0.024233389 4969:0.037044348 4971:0.036300261 4973:0.0091585412 4975:0.0092510656 4977:0.011056922 4981:0.013236457 4986:0.010419144 4988:0.01095437 4989:0.014662185 4992:0.0068825723 4993:0.0038179538 4995:0.010509799 4997:0.041361093 4999:0.012759558 5009:0.012509274 5010:0.01201649 5013:0.0064475157 5015:0.010709324 5020:0.025896768 5026:0.0035772032 5043:0.037339077 5058:0.0065285938 5069:0.017318782 5070:0.0092668135 5074:0.0079036615 5075:0.016726398 5080:0.031673743 5083:0.030574394 5086:0.0023969566 5087:0.00073863429 5089:0.014718805 5101:0.012452088 5103:0.0094390077 5107:0.011587485 5109:0.0035822959 5112:0.011012072 5125:0.0024580304 5131:0.010764346 5132:0.0076308887 5135:0.00045748287 5142:0.0088558436 5164:0.0048001026 5167:0.031461734 5169:0.00077091891 5170:0.015056 5174:0.0079453225 5180:0.024044917 5181:0.016528707 5183:0.0034874884 5185:0.016770858 5186:0.01201958 5187:0.010097998 5193:0.042538712 5194:0.02863686 5203:0.019681236 5211:0.030595674 5221:0.0056715136 5229:0.014728369 5239:0.0078105368 5263:0.0074511107 5264:0.016583481 5271:0.016375276 5274:0.00025434694 5287:0.0056685739 5293:0.014224617 5298:0.021685831 5317:0.018405247 5325:0.011297817 5347:0.012465893 5350:0.010165277 5351:0.017227772 5357:0.0025597623 5363:0.046825336 5364:0.013229286 5370:0.009912521 5372:0.0043193335 5375:0.0026063528 5376:0.0054293939 5388:0.00024847875 5407:0.014052405 5443:0.00021373654 5456:0.036155705 5462:0.011658064 5464:0.0047068475 5490:0.0083685401 5493:0.012829261 5510:0.0014701966 5520:0.0001401788 5529:0.020181189 5533:0.014687315 5552:0.0042551822 5553:0.015279682 5560:0.018563313 5567:0.020718492 5569:0.030927504 5574:0.033382139 5578:0.017472399 5584:0.0070197471 5595:0.019019889 5610:0.038908762 5611:0.042777111 5621:0.0070796799 5627:0.01127814 5634:0.0054073042 5654:0.026488641 5663:0.025477088 5674:0.00068350831 5680:0.0093089086 5692:0.0078923997 5695:0.0047998899 5698:0.028865961 5700:0.029617429 5708:0.011873571 5712:0.020347016 5713:0.0002598696 5715:0.0098325734 5736:0.010889419 5739:0.031571658 5740:0.029818815 5754:0.0072035467 5757:0.07075721 5770:0.017279473 5783:0.005135231 5784:0.018472127 5786:0.0037642841 5787:0.0095803886 5790:0.01013438 5791:0.05011739 5795:0.0056390324 5797:0.024524558 5799:0.014657609 5801:0.019429765 5808:0.0021626145 5814:0.029219557 5821:0.022805462 5822:0.0045190876 5823:0.018496019 5824:0.00043258848 5830:0.012395203 5833:0.014603002 5838:0.010440388 5840:0.011604824 5845:0.0083379654 5850:0.0097336654 5859:0.020468089 5860:0.027395602 5881:0.010008309 5884:0.011153874 5894:0.0032048512 5898:0.022221806 5901:0.0092344511 5915:0.0053807577 5918:0.0089099886 5937:0.024685308 5944:3.075244e-05 5947:0.0014240673 5959:0.026993926 5963:0.028374954 5966:0.013848585 5978:0.0019832428 5995:0.0079599621 5999:0.015802723 6214:0.012566369 6324:0.0094433198 6435:0.0093114556 6437:0.0045193599 6457:0.003922774 6472:0.0088305127 6564:0.0076506825 6590:0.012729619 6627:0.0059722617 6691:0.0018182319 6733:0.010810572 6734:0.006141473 6834:0.0099092427 6877:0.017653158 6892:0.019907606 9003:0.0055014147 9021:0.0057972664 9023:0.0019582443 9037:0.0074225076 9039:0.016860168 9048:0.047614648 9066:0.05040541 9072:0.011550113 9094:0.0093840293 9097:0.014155243 9121:0.042434174 9133:0.043649047 9163:0.0096991773 9166:0.058813044 9192:0.040966694 9194:0.05584758 9223:0.00052969861 9228:0.013866273 9243:0.019510001 9290:0.018593656 9300:0.0049081728 9306:0.00038766781 9324:0.0074310523 9332:0.0055563169 9361:0.0059738019 9391:0.033556614 9394:0.017973941 9398:0.011213592 9411:0.0071437779 9417:0.007464548 9418:0.01594695 9432:0.0068308501 9458:0.0041927377 9482:0.050528415 9486:0.0064870378 9491:0.0098492829 9522:0.034127581 9532:0.03293749 9557:0.0070880733 9568:0.038419629 9579:0.012709226 9581:0.0027175019 9592:0.011885725 9594:0.0035973036 9607:0.016859699 9609:0.0067906245 9637:0.016218711 9649:0.0045468314 9681:0.0086500875 9709:0.033368978 9721:0.0049843699 9744:0.016169419 9749:0.029173531 9775:0.006556183 9807:0.015002001 9808:0.0010914582 9810:0.019970885 9811:0.012788799 9886:0.0041224317 9889:0.014638779 9905:0.0072055089 9964:0.0032937547 9977:0.0023364122 9979:0.037988355 9989:0.021344056 10002:0.012835634 10084:0.0093261305 10116:0.024346842 10121:0.02905244 10127:0.0022072845 10143:0.023500121 10173:0.00084692888 10193:0.041029794 10204:0.0021989469 10222:0.010167282 10224:0.019415857 10249:0.0013108279 10261:0.0070931719 10290:0.010897497 10291:0.0027517172 10295:0.0023618003 10353:0.015775001 10362:0.0018287952 10368:0.0096542899 10376:0.00053192101 10392:0.012538215 10403:0.026363464 10425:0.016678257 10430:0.067520078 10432:0.033452918 10450:0.020836039 10459:0.019267842 10463:0.022164416 10468:0.0065789243 10513:0.029714485 10516:0.023751607 10523:0.0044987671 10561:0.0177207 10590:0.0015677046 10601:0.018274227 10609:0.0083659301 10613:0.019849399 10622:0.011321655 10630:0.02180868 10638:0.0035348201 10646:0.014346785 10679:0.00081761657 10684:0.022202035 10687:0.032051772 10690:0.0036684615 10743:0.010566521 10750:0.019621924 10781:0.027585883 10791:0.046194314 10798:0.006448464 10813:0.0012604661 10827:0.017476966 10846:0.0079842757 10855:0.0083602782 10861:0.0020583845 10905:0.010495794 10938:0.0058678221 10958:0.031000083 10967:0.010745768 10999:0.0009220227 13021:0.0034306343 13037:0.011001032 13039:0.0055882414 13045:0.0072255364 13072:0.0010369327 13079:0.021236735 13120:0.0035466472 13121:0.020466293 13166:0.019068069 13179:0.042238861 13206:0.024814893 13219:0.0052152355 13225:0.017926594 13243:0.011121298 13311:0.011467119 13314:0.0017428511 13322:0.030322018 13331:0.00081494325 13334:0.0057174154 13361:0.021692589 13385:0.0075770695 13391:0.0074367677 13394:0.0099355617 13398:0.014344473 13411:0.010160214 13429:0.0052055647 13439:0.010810684 13458:0.0030995884 13467:0.016900532 13498:0.0034848635 13522:0.022378882 13536:0.017848571 13568:0.037411446 13583:0.0097326547 13607:0.013785758 13655:0.0023401472 13721:0.0079344527 13771:0.019114579 13775:0.012649425 13779:0.0017844844 13781:0.0053541317 13831:0.025112457 13854:0.00052970344 13864:0.0031956681 13870:0.010751821 13899:0.011854776 13928:0.029854852 13957:0.0095777233 13959:0.049628482 13960:0.010348519 13977:0.018201861 13979:0.0096635647 13993:0.0089396322 14002:0.0026771758 14018:0.00097257658 14019:0.0024142076 14048:0.0056430121 14093:0.0061486459 14098:0.0027937043 14100:0.011925077 14113:0.012898609 14121:0.039277669 14122:0.015336208 14181:0.0058245717 14214:0.014201612 14222:0.011414549 14224:0.0090944708 14227:0.019381965 14281:0.0027985424 14287:0.0069776029 14290:0.0048568178 14299:0.043247432 14329:0.016502946 14362:0.010373957 14408:0.027077119 14410:0.0094334519 14411:0.0033185441 14425:0.0015678892 14428:0.031083169 14432:0.019913133 14444:0.019002844 14480:0.010327869 14488:0.0048824713 14523:0.010101209 14553:0.022319458 14561:0.0095057804 14563:0.0060881106 14590:0.016332753 14592:0.005965445 14595:0.011448923 14597:0.0098951378 14602:0.012125429 14618:0.00060274096 14644:0.025065002 14646:0.0031379924 14664:0.002306827 14800:0.025428583 14810:0.0016107737 14844:0.011723471 14852:0.0025597565 14870:0.0038047311 14879:0.0072901022 14891:0.059815395 14896:0.014790083 14903:0.0034970767 14914:0.0088263198 14916:0.0094439781 14917:0.0073095752 14921:0.0033698485 14922:0.014482821 14951:0.0078339475 14968:0.011909542 14970:0.010070401 14996:0.042414778 15001:0.023193174 15007:0.009506072 15009:0.028304641 15011:0.008992248 15015:0.0077696435 15028:0.042182666 15031:0.024559276 15037:0.023931322 15046:0.0052087331 15052:0.0043987973 15060:0.028612361 15061:0.049659873 15073:0.011754581 15077:0.01444587 15083:0.00030684947 15085:0.0090619935 15108:0.0019631661 15109:0.013267119 15113:0.027463235 15118:0.0024460318 15120:0.020957697 15125:0.0059404101 15127:0.00085032188 15128:0.0084585318 15129:0.0070231381 15132:0.0093645077 15138:0.0070454205 15146:0.024416324 15156:0.016234098 15158:0.0043150954 15160:0.0039541307 15167:0.029946824 15168:0.020425827 15169:0.022510276 15180:0.0065498705 15186:0.018662222 15187:0.0069951993 15192:0.030600225 15195:0.0034896578 15198:0.019087624 15209:0.012017252 15210:0.0084065042 15219:0.009774773 15227:0.0015410722 15229:0.00355095 15232:0.001686492 15236:0.0078011637 15242:3.0090655e-05 15245:0.010149151 15247:0.0076487871 15255:0.037437637 15258:0.0095243686 15259:0.024419883 15264:0.0066530206 15267:0.041133223 15275:0.0060649098 15278:0.013715053 15284:0.017544762 15296:0.0058855134 15299:0.023324787 15302:0.016094527 15313:0.0087560817 15332:0.017051786 15341:0.010972742 15349:0.0033546741 15351:0.0043339168 15367:0.029702814 15381:0.0034314329 15391:0.0074421115 15393:0.0079635535 15401:0.0076221904 15404:0.044059339 15405:0.030221457 15406:0.023614531 15452:0.0080941425 15455:0.012329839 15462:0.024914814 15469:0.00274742 15471:0.0094300212 15479:0.0053396247 15484:0.004399906 15493:0.0090550691 15495:0.0037457187 15497:0.0071595099 15522:0.02846045 15527:0.022022357 15539:0.014274701 15542:0.045466759 15543:0.015270489 15544:0.015218885 15546:0.023947965 15558:0.01167947 15577:0.0076060564 15580:0.014354076 15582:0.043650739 15584:0.0063832244 15586:0.011249451 15589:0.0041357919 15592:0.008596857 15596:0.0099166432 15598:0.00072460383 15602:0.016200312 15603:0.015618447 15606:0.0056025396 15615:0.015440915 15621:0.0081555653 15627:0.00030448976 15632:0.013097211 15635:0.0028118217 15636:0.01356696 15638:0.018694669 15642:0.011899447 15645:0.014137938 15646:0.0042280158 15647:0.02040405 15652:0.0086457201 15660:0.0028392322 15674:0.025152731 15676:0.02263026 15682:0.038121178 15687:0.028288455 15693:0.013827063 15714:0.013559169 15731:0.02515857 15734:0.0096506847 15737:0.04055843 15739:0.0055531563 15741:0.0039951447 15748:0.0056898036 15757:0.010736817 15769:0.00090794867 15773:0.017851208 15779:0.0077755025 15791:0.0016027844 15792:0.00903942 15798:0.0084705442 15799:0.012600647 15804:0.004083223 15808:0.01725564 15812:0.038768353 15813:0.024738465 15823:0.0029304386 15828:0.0075684353 15837:0.018410637 15845:0.012819552 15847:0.017276022 15855:0.01389838 15858:0.05331107 15860:0.056746117 15867:0.014558837 15869:0.0043739259 15880:0.0057972432 15881:0.0070742727 15882:0.0022266021 15902:0.0089092972 15905:0.0012234383 15911:0.0037682706 15915:0.0082209412 15918:0.0094743198 15925:0.0065274821 15931:0.026637966 15940:0.0072712488 15948:0.0080840387 15955:0.011627287 15973:0.0091585412 15981:0.013236457 15989:0.014662185 15995:0.0075571718 15999:0.012759558 16028:0.01223538 16030:0.026988699 16034:0.0012627693 16036:0.0078719541 16039:0.0099749893 16041:0.0029411698 16070:0.010699233 16082:0.010584149 16113:0.0003369966 16158:0.01517909 16167:0.014770687 16197:0.0060562093 16207:0.005247488 16229:0.013481834 16235:0.011354729 16254:0.0070940102 16271:0.01568383 16280:0.00056482527 16284:0.019496343 16294:0.0044437114 16299:0.027991312 16305:0.0018046832 16329:0.010954721 16334:0.010997475 16342:0.018747969 16367:0.023817311 16368:0.028934968 16373:0.01391358 16392:0.017492561 16393:0.023529451 16397:0.030426152 16408:0.020123683 16455:0.0060829441 16457:0.012853843 16479:0.042119849 16483:0.009238729 16484:0.0145104 16490:0.0082327228 16495:0.0093901893 16497:0.0056550112 16550:0.019940672 16578:0.020378239 16584:0.017697846 16596:0.048099302 16608:0.031925205 16615:0.025260667 16627:0.00067017633 16636:0.0019530557 16646:0.0014854694 16647:0.018942828 16652:0.025233577 16669:0.020635163 16672:0.019038975 16687:0.00021032939 16689:0.007141179 16696:0.010181166 16697:0.0070439978 16720:0.05567244 16737:0.0017731248 16748:0.0056665824 16773:0.006972986 16801:0.066206937 16821:0.007275461 16823:0.0031739219 16828:0.00078734843 16834:0.013251233 16858:2.2863645e-05 16877:0.0032647136 16888:0.017184845 16892:0.037090401 16902:0.00058591367 16916:0.0039061852 16926:0.0075268644 16931:0.0026404808 16943:0.025570178 16946:0.033677864 16995:0.010509799 17026:0.0084949435 17467:0.020206154 17531:0.010369948 17590:0.0086336387 17639:0.0019073825 17838:0.00789216 17884:0.045959935 18019:0.0023010601 18035:1.0301664e-06 18080:8.8932236e-06 18117:0.00821237 18119:0.00414651 18141:0.045959016 18164:0.0028781978 18165:0.019645296 18170:0.0065406388 18199:2.6632589e-07 18201:0.00027418017 18217:0.0088246619 18231:0.037044644 18236:0.024713613 18250:0.0047932279 18318:0.0064672406 18323:0.030381511 18333:0.016344833 18347:0.011011003 18348:0.00018550103 18359:0.038732407 18366:0.0062194987 18369:0.0006693948 18409:0.0081911656 18425:0.0030812885 18452:0.003412271 18469:0.025123562 18477:0.010338744 18478:0.0069489904 18540:0.00065810041 18554:0.020053056 18564:0.0074363795 18616:7.317724e-06 18638:0.012309873 18693:0.015961861 18700:0.026651232 18720:0.010093543 18742:0.019835712 18814:0.027671878 18840:0.0032506622 18842:0.032571872 18857:0.014271202 18874:0.0049646522 18875:0.0028984802 18888:0.0028385844 18899:0.0082988128 18907:0.011565884 18939:0.015520507 18951:0.01851894 18970:0.0083268659 18995:0.0076584706 18996:0.018335156 19010:0.0042919435 19021:0.029521862 19023:0.020202321 19025:0.0095210064 19028:0.0029387138 19033:0.026505996 19037:0.00059807933 19045:0.023204202 19048:0.0094107094 19064:0.0026503104 19065:0.016059538 19076:0.0070250942 19081:0.034019031 19087:0.016097883 19099:0.026202206 19104:0.0068265905 19106:0.013538573 19120:0.0075842562 19156:0.0096573362 19158:0.011853398 19162:0.01451835 19181:0.01588004 19186:0.016525689 19198:0.0052832944 19202:0.0058541705 19220:0.018263968 19228:0.0088646865 19235:0.0087348994 19238:0.019173298 19246:0.0029470876 19284:0.0083836811 19320:0.021501479 19324:0.002192237 19331:0.02216071 19336:0.033742113 19341:0.022872849 19349:0.050499998 19364:0.041318688 19367:0.017447786 19426:0.0053393066 19440:0.0066661524 19441:0.0069984257 19448:0.018014542 19523:0.0078797212 19532:0.0099509457 19536:0.032972283 19543:0.0026698245 19546:0.01138516 19561:0.0051248964 19564:0.01195755 19585:0.0067958661 19613:0.0059387704 19628:0.011562747 19629:0.015522341 19655:0.014286488 19659:0.0019709867 19667:0.041182874 19669:0.032619471 19691:0.03634915 19722:0.0221227 19724:0.013077566 19727:0.015704963 19751:0.031587987 19758:0.0011940636 19760:0.0057727672 19770:0.0049362325 19777:0.015663191 19781:0.010982886 19789:0.0051216877 19814:0.0068178044 19828:0.0099454462 19851:0.0044386819 19855:0.010513463 19860:0.020903217 19870:0.0033271979 19880:0.0034839368 19881:0.0021118945 19886:0.016008678 19898:0.012074435 19909:0.0047603392 19917:0.020755949 19960:0.0059411783 20002:0.0039255952 20004:0.019761672 20008:0.022980332 20012:0.0090565453 20023:0.0014851053 20036:0.014848122 20037:0.0024131348 20049:0.0086356462 20054:0.011937791 20055:0.034436569 20057:0.0083052683 20061:0.00566521 20065:0.030346031 20076:0.0059890529 20077:0.022019958 20080:0.017468546 20088:0.039920585 20089:0.011671782 20092:0.0091371352 20093:0.0064667988 20094:0.010541241 20097:0.049966303 20099:0.022189885 20106:0.017969595 20107:0.012806415 20110:0.018751259 20120:0.0105263 20121:0.006926507 20126:0.016012535 20127:0.0034031233 20143:0.040411031 20148:0.0039729123 20154:0.0098807048 20161:0.039824168 20166:0.019827337 20172:0.024495116 20176:0.0014604563 20179:0.035908925 20182:0.010178034 20184:0.022781274 20187:0.013994448 20189:0.00096784005 20196:0.03235343 20206:0.0052954415 20207:0.028098811 20220:0.0058456286 20221:0.030967027 20222:0.023078793 20223:0.003430362 20225:0.016293017 20235:0.013841381 20238:0.015353939 20243:0.051317427 20247:0.022544051 20249:0.010969734 20251:0.030690724 20252:0.0013764127 20257:0.041463851 20259:0.01509408 20264:0.0038473638 20266:0.00010375591 20272:0.023587983 20276:0.009477914 20280:0.025299772 20291:0.002279488 20296:0.0061541802 20305:0.025608755 20317:0.026556089 20328:0.00044806616 20334:0.0051263423 20336:0.00078216421 20339:0.011596451 20342:0.0067976157 20359:0.0062933051 20360:0.019511793 20361:0.014538004 20364:0.026818903 20367:0.0088985693 20377:0.012320006 20381:0.051164868 20382:0.0097334235 20391:0.0061683409 20393:0.003677379 20394:0.00095392901 20397:0.028354993 20403:0.0077919138 20405:0.014903637 20410:0.018509413 20411:0.032886387 20414:0.037859548 20417:0.0019925238 20426:0.0088149779 20429:0.0099573586 20433:0.034528747 20442:0.0063222992 20445:0.027588896 20446:0.0081971429 20451:0.028646854 20458:0.03136062 20459:0.0005746685 20463:0.010769171 20471:0.0085042061 20485:0.0086904429 20486:0.00049293085 20488:0.0052597153 20490:0.0038760324 20491:0.0057062502 20497:0.0081898606 20499:0.015311478 20505:0.026226539 20511:0.013805988 20513:0.019411565 20514:0.0024785326 20516:0.024198211 20518:0.0087158737 20523:0.016242721 20528:0.010015564 20536:0.011284731 20565:0.010903824 20566:0.02623355 20571:0.0036393856 20578:0.0080250923 20583:0.010753976 20588:0.019692997 20594:0.0080912436 20608:0.0042346646 20609:0.037357721 20613:0.0059503692 20614:0.018850073 20625:0.0059715354 20626:0.009177209 20628:0.011890661 20633:0.016173701 20635:0.010428668 20638:0.087607055 20646:0.017654883 20647:0.036117689 20649:0.0045129781 20653:0.054034957 20655:0.012876046 20659:0.026627508 20663:0.0027757445 20664:0.011857115 20666:0.0047556675 20669:0.041547455 20677:0.0082721001 20680:0.01219361 20684:0.013351537 20690:0.023955962 20692:0.020597481 20693:0.017531251 20705:0.0048183705 20709:0.013725344 20720:0.028408835 20727:0.01204194 20729:0.0037497994 20731:0.0068868894 20738:0.0031231143 20741:0.0088004449 20747:0.0072569009 20749:0.01361582 20754:0.03230715 20755:0.015162477 20760:0.0068485619 20761:0.012909515 20763:0.012128872 20765:0.026941752 20773:0.011665388 20774:0.0049172189 20781:0.014802552 20797:0.020752861 20798:0.036556904 20801:0.00020247243 20802:0.01562585 20808:0.0030692752 20816:0.0031649117 20828:0.0103943 20831:0.0072890827 20832:0.010685432 20839:0.0060877135 20841:0.012047829 20847:0.01416558 20851:0.00096137677 20854:0.0012591045 20857:0.0027139044 20858:0.013091866 20861:0.052289743 20867:0.007533533 20873:0.013503833 20883:0.0044125287 20885:0.014294741 20886:0.030887184 20889:0.0058669301 20892:0.017620685 20893:0.027060328 20898:0.012134509 20900:0.0030332888 20904:0.011617853 20909:0.014328784 20911:0.019532878 20914:0.022469578 20921:0.0023604768 20925:0.036609065 20927:0.0096818117 20928:0.0017661024 20930:0.0031922534 20932:0.014651731 20950:0.0064881649 20954:0.024075707 20961:0.048865723 20964:0.02645879 20966:0.013107046 20968:0.024233389 20969:0.037044348 20971:0.036300261 20975:0.0092510656 20977:0.011056922 20986:0.010419144 20988:0.01095437 20992:0.0068825723 20993:0.0038179538 20997:0.041361093 
7103.356258510492 1:0.023953493 2:0.013256411 3:0.0056817621 4:0.0204095 7:0.0098177 9:0.029232524 10:0.012410414 11:0.0092870318 12:0.009353437 13:0.0066588782 15:0.011060397 18:0.0010044596 19:0.0024933501 20:0.026745716 21:0.030489648 23:0.020864594 25:0.009833124 26:0.0087734247 28:0.043565498 29:0.0093324495 31:0.025364378 33:0.027374915 35:1.0639373e-06 36:0.0081300125 37:0.024715838 39:0.017412878 40:0.0064594733 41:0.0034355425 43:0.01203385 45:0.023964882 46:0.0053794857 48:0.049175551 52:0.0045429987 55:0.008502755 57:0.0089539838 60:0.029550331 61:0.051287823 64:0.0027371928 65:0.016586001 66:0.0520578 69:0.017886526 70:0.011049975 72:0.011928748 73:0.01213992 74:0.0081627593 75:0.017274723 76:0.0072553908 77:0.022741816 79:0.021932917 80:0.032712072 81:0.035134243 82:0.010931118 83:0.019392544 84:0.0096318597 85:0.0093590637 86:0.0024755337 87:0.016625604 88:0.041229262 89:0.012054406 92:0.0094366687 93:0.0066787933 94:0.0096916565 97:0.051604298 98:0.0028852875 99:0.027061166 100:0.012316005 101:0.012860293 103:0.0097484372 104:0.0070503797 105:0.013565338 106:0.018558674 107:0.013226235 108:0.0020275226 109:0.013702042 111:0.013324232 112:0.029382852 113:0.028363535 116:0.02514498 117:0.0084815879 118:0.0025262176 119:0.0042824409 120:0.021644732 121:0.043825251 122:0.015838959 125:0.0061351486 127:0.0022796437 128:0.0087358194 129:0.021552487 131:0.011117223 132:0.009671495 133:0.04507995 135:0.00047248007 138:0.0072763834 141:0.047465644 142:0.0091461558 143:0.041735786 146:0.02521674 148:0.0041031523 154:0.010204614 156:0.016766284 158:0.015676691 159:0.011113183 160:0.004083755 161:0.041129684 162:0.014994291 163:0.010017136 164:0.0029725509 165:0.020289308 166:0.060741053 167:0.032493112 168:0.021095426 169:0.023248208 170:0.015549565 172:0.025298114 173:0.0008746929 174:0.008205786 176:0.0015083329 179:0.043623535 180:0.024833157 181:0.017070551 182:0.010511691 183:0.012258972 184:0.02352809 185:0.01732064 186:0.019274007 187:0.014453214 188:0.029402196 189:0.00099956778 192:0.042309664 193:0.043933216 194:0.057678375 195:0.0036040557 196:0.03341404 197:0.006254744 198:0.019713354 199:2.7505658e-07 201:0.00028316834 202:0.0060460819 203:0.021443543 204:0.0022710328 205:0.0086648638 206:0.025628374 207:0.029019946 209:0.012411201 210:0.0086820862 214:0.030436678 217:0.0091139519 219:0.01009521 220:0.018862698 221:0.031982188 222:0.023835362 223:0.0035428161 224:0.020052348 225:0.018514263 227:0.020017345 228:0.014320837 229:0.015211195 231:0.038259042 232:0.0017417786 235:0.014295129 236:0.025523775 238:0.028886291 239:0.0080665818 242:0.015354046 243:0.052999715 245:0.01048186 246:0.003043699 247:0.0078995296 249:0.0093969245 250:0.0049503595 251:0.031696827 252:0.0014215342 253:0.027305439 254:0.007326566 255:0.038664917 257:0.042823118 258:0.0098365964 259:0.025220416 261:0.0073257002 263:0.0075696855 264:0.0068711199 266:0.00010715723 267:0.042481652 271:0.016197977 274:0.00026268494 275:0.0062637296 276:0.0097886189 278:0.01416466 280:0.026129149 281:0.0028902842 284:0.020135472 287:0.0072063427 290:0.019203194 291:0.002841924 293:0.020790799 294:0.0045893852 295:0.0024392248 296:0.0063559265 298:0.022396736 299:0.044665169 300:0.0050690725 302:0.016622138 305:0.026448261 306:0.00040037633 311:0.011843034 313:0.0090431235 314:0.0017999852 317:0.02742665 318:0.0066792496 320:0.022206341 322:0.031316035 323:0.031377478 324:0.0097528907 328:0.00046275467 329:0.017043945 331:0.022887182 332:0.017610778 333:0.01688065 334:0.011357994 336:0.034848246 339:0.011976606 341:0.023622667 342:0.019362565 347:0.011371966 348:0.00019158212 349:0.052155489 350:0.0081964924 351:0.017792533 353:0.016292137 357:0.0059398213 359:0.040002133 360:0.020151428 361:0.022403715 362:0.010714036 363:0.048360364 364:0.042673197 366:0.0074385646 367:0.030676532 368:0.0675751 369:0.0006913389 372:0.0044609299 374:0.018039921 376:0.0056073802 381:0.052842155 385:0.0078254609 388:0.00025662438 391:0.034656667 392:0.021940163 393:0.024300793 394:0.018563163 397:0.031423582 398:0.014814713 401:0.007872061 403:0.027227711 404:0.045503692 405:0.031212176 406:0.029326385 407:0.014513071 408:0.027964761 409:0.0084596884 410:0.0097426993 411:0.033964468 414:0.03910066 417:0.0077092507 418:0.016469723 425:0.017225003 426:0.0091039504 428:0.032102137 429:0.0053762135 430:0.069733521 432:0.034549571 433:0.035660668 435:0.0096167037 437:0.0046675135 439:0.01116508 440:0.0068846822 441:0.007227848 442:0.0065295568 443:0.010636144 444:0.019625795 445:0.028493315 446:0.0084658616 448:0.018605094 450:0.021519086 451:0.029585955 452:0.0088617681 455:0.012734036 457:0.013275218 458:0.032388684 459:0.019899481 462:0.025731571 463:0.02289101 464:0.0048611474 465:0.012042809 467:0.020868552 468:0.0067945946 469:0.025947163 471:0.0097391561 472:0.0091199945 477:0.010677668 478:0.0071767922 479:0.029936292 480:0.010666438 482:0.052184838 483:0.009541593 484:0.01498608 486:0.0066996958 488:0.0054321392 490:0.0086428776 491:0.010172162 493:0.013249829 495:0.0096980185 497:0.0084583406 498:0.0035991043 501:0.009131836 505:0.027086297 510:0.0049119756 513:0.030688585 516:0.024530232 518:0.0090015975 520:0.00014477414 522:0.035246351 523:0.010432347 525:0.018310808 526:0.0037918227 527:0.022744294 528:0.012477834 529:0.020842769 531:0.010709895 532:0.034017246 533:0.02565799 536:0.03405318 539:0.014742654 540:0.00067967426 542:0.04695725 543:0.015771086 544:0.01571779 546:0.024733027 552:0.0043946756 553:0.023051135 554:0.020710435 557:0.0073204345 558:0.012062346 559:0.0016535215 560:0.020193885 561:0.01830162 563:0.006287691 564:0.012349543 566:0.027093539 567:0.021397685 568:0.039679101 569:0.0025470388 571:0.003758692 574:0.034476472 577:0.0078553981 578:0.018045179 579:0.01312586 580:0.014824631 581:0.002806587 582:0.045081697 583:0.010051711 584:0.018278017 585:0.0070186481 586:0.01161823 588:0.013143824 589:0.0042713714 590:0.016868173 591:0.01160793 592:0.012275363 594:0.0037152303 595:0.021174751 596:0.049676093 597:0.01021952 598:0.00074835779 601:0.018873293 602:0.016731391 603:0.016130451 606:0.005786202 607:0.017412394 608:0.032971777 609:0.038582382 610:0.040184269 611:0.04417943 613:0.020500102 615:0.015947099 616:7.5576136e-06 618:0.00062250001 620:0.011029237 621:0.008422921 622:0.011692802 625:0.0061672943 627:0.01164786 628:0.011941797 629:0.016031194 630:0.022523612 632:0.013526563 633:0.016703907 635:0.010770541 636:0.014011712 637:0.016750392 638:0.019307517 639:0.0019699103 642:0.012289535 644:0.025886683 645:0.014601408 646:0.018233645 647:0.021072935 649:0.0046958856 652:0.026060784 653:0.024039377 654:0.027356992 655:0.014754827 659:0.027500411 660:0.0029323079 661:0.031641951 662:0.024013743 663:0.0028667389 664:0.012245814 666:0.0049115678 667:0.042532931 669:0.042909464 674:0.025977288 676:0.023372125 677:0.0085432761 679:0.00084441968 680:0.012593341 681:0.0089336546 682:0.039370866 684:0.022929862 687:0.033102493 688:0.023508925 690:0.003788721 691:0.037540747 692:0.021272707 693:0.01810596 695:0.0049572399 697:0.0072749141 698:0.0013158002 700:0.030588347 707:0.00072429301 708:0.01226281 709:0.034462879 712:0.021014032 713:0.00026838864 714:0.014003666 715:0.010154905 718:0.035299305 720:0.010424429 721:0.0081945599 722:0.022847926 724:0.019496655 726:0.01255213 727:0.016219803 729:0.0038727253 731:0.025983318 733:0.011164965 734:0.0099670534 736:0.011246396 737:0.041888016 738:0.0032254962 739:0.020248871 740:0.030796335 741:0.0041261135 742:0.020485966 743:0.010912913 744:0.016699485 748:0.0058763268 749:0.030129897 750:0.02026517 751:0.032623504 752:0.018262523 754:0.033366242 757:0.073076773 758:0.0012332074 759:0.02112209 760:0.0070730715 761:0.013332715 762:0.025281726 763:0.01252648 765:0.027824956 769:0.00093771304 770:0.005098052 771:0.019741193 773:0.018436406 774:0.035818014 775:0.013064099 777:0.016176661 779:0.008030399 781:0.028490203 783:0.0053035742 784:0.019077681 786:0.0038876848 787:0.020266993 789:0.0052895869 790:0.022952485 791:0.051760338 792:0.0093357503 795:0.0058238912 796:0.0083488123 797:0.025328522 798:0.0087482256 799:0.015138115 800:0.026262183 801:0.068377333 804:0.0042170792 805:0.0055348196 807:0.015493797 808:0.017821314 810:0.020625571 811:0.013208042 812:0.040039257 813:0.025549441 814:0.028579017 816:0.0032686638 821:0.02355307 822:0.0046672323 823:0.019102355 824:0.00044676959 826:0.0022300914 827:0.018049896 828:0.010735045 830:0.012801542 831:0.025935694 833:0.015081718 834:0.013685635 837:0.019014174 838:0.010782644 839:0.0062872809 840:0.011985253 841:0.01244278 842:0.033639643 844:0.01210779 845:0.013239802 846:0.0082460162 847:0.017842364 849:0.0027389456 850:0.010052754 851:0.01112475 852:0.0026436704 854:0.0013003804 855:0.014353996 857:0.014739041 858:0.055058713 859:0.021139073 860:0.058606368 861:0.0021258624 864:0.0033004285 867:0.015036105 869:0.0045173119 870:0.011104287 873:0.013946516 874:0.0051274034 875:0.0029934982 877:0.018231863 879:0.0075290863 880:0.0059872884 881:0.0073061814 882:0.0022995945 883:0.0045571802 884:0.047466594 886:0.031899728 888:0.017748198 889:0.015118668 890:0.017236673 891:0.061776263 892:0.038306298 896:0.015274932 898:0.022950281 899:0.0122434 901:0.0095371748 902:0.010232975 903:0.0036117178 904:0.033032405 905:0.010839868 907:0.011945037 909:0.01479851 910:0.01064479 911:0.003891802 914:0.023206176 915:0.0084904401 916:0.0097535706 917:0.02143637 918:0.0097849069 921:0.0034803189 922:0.014957596 925:0.037809183 926:0.00777361 927:0.0072793054 928:0.030833553 930:0.0032969018 931:0.027511212 932:0.015132044 937:0.026824048 938:0.006060181 939:0.0160293 940:0.0075096149 944:3.1760566e-05 946:0.034781891 947:0.001470751 948:0.0091175989 950:0.0067008599 951:0.019126028 955:0.012008452 957:0.0098917002 958:0.032016328 959:0.051255403 960:0.010687764 961:0.050467639 963:0.029305142 964:0.027326162 965:0.013638067 966:0.014302569 967:0.011098036 968:0.01229996 969:0.038258736 970:0.010400529 971:0.037490256 972:0.011264247 973:0.0094587764 977:0.018798555 979:0.039233689 981:0.013670375 986:0.015278006 988:0.011313476 989:0.022043757 992:0.0071081968 993:0.0092326912 994:0.00066421991 995:0.010854331 996:0.04380522 997:0.02568235 999:0.016320767 1003:0.0056817621 1009:0.012919353 1010:0.012410414 1013:0.0066588782 1015:0.011060397 1020:0.026745716 1021:0.0059873123 1023:0.017180968 1026:0.003694471 1037:0.0076658322 1039:0.017412878 1040:0.0064594733 1043:0.01203385 1048:0.049175551 1060:0.0084615347 1066:0.0520578 1069:0.017886526 1070:0.0095705982 1072:0.011928748 1074:0.0081627593 1075:0.017274723 1080:0.032712072 1083:0.019392544 1084:0.0096318597 1086:0.0024755337 1087:0.0007628482 1094:0.0096916565 1097:0.01461928 1101:0.012860293 1103:0.0097484372 1105:0.013565338 1107:0.011967346 1111:0.013324232 1112:0.029382852 1116:0.02514498 1121:0.043825251 1127:0.0022796437 1129:0.021552487 1131:0.011117223 1132:0.0078810444 1133:0.04507995 1135:0.00047248007 1142:0.0091461558 1143:0.024270502 1159:0.011113183 1163:0.010017136 1166:0.060741053 1167:0.032493112 1169:0.016848306 1170:0.015549565 1174:0.008205786 1180:0.024833157 1181:0.017070551 1183:0.012258972 1185:0.01732064 1186:0.012413606 1187:0.010429031 1188:0.029402196 1192:0.042309664 1193:0.043933216 1194:0.057678375 1198:0.011901386 1203:0.021443543 1205:0.0086648638 1214:0.023114056 1222:0.010500585 1223:0.00054706319 1224:0.020052348 1228:0.014320837 1229:0.015211195 1239:0.0080665818 1242:0.015354046 1243:0.020149578 1249:0.0093969245 1263:0.0075696855 1271:0.010548566 1274:0.00026268494 1287:0.005854401 1290:0.019203194 1291:0.002841924 1293:0.020790799 1295:0.0024392248 1298:0.022396736 1300:0.0050690725 1306:0.00040037633 1317:0.019008607 1318:0.00095013542 1324:0.0097528907 1332:0.005738464 1341:0.018183148 1350:0.0081964924 1351:0.017792533 1357:0.0059398213 1361:0.0061696351 1362:0.0018887467 1363:0.048360364 1364:0.013662968 1368:0.0099707768 1372:0.0044609299 1376:0.0056073802 1388:0.00025662438 1391:0.034656667 1392:0.012949243 1393:0.0053549032 1394:0.018563163 1398:0.011581196 1406:0.029326385 1407:0.014513071 1411:0.0073779652 1414:0.0066296631 1417:0.0077092507 1418:0.016469723 1425:0.0163944 1432:0.034549571 1435:0.0096167037 1437:0.0046675135 1443:0.010636144 1452:0.0088617681 1457:0.0040513703 1458:0.004330184 1459:0.019899481 1463:0.02289101 1464:0.0048611474 1465:0.012042809 1472:0.0091199945 1477:0.0071483893 1479:0.029936292 1482:0.052184838 1486:0.0066996958 1490:0.0086428776 1491:0.010172162 1493:0.013249829 1501:0.009131836 1510:0.0049119756 1513:0.0086123261 1520:0.00014477414 1522:0.035246351 1525:0.018310808 1526:0.0037918227 1528:0.012477834 1529:0.020842769 1532:0.034017246 1533:0.02565799 1552:0.0043946756 1553:0.020031068 1554:0.0091664303 1557:0.0073204345 1559:0.0016535215 1560:0.020193885 1561:0.01830162 1564:0.0079014872 1567:0.021397685 1568:0.039679101 1569:0.0025470388 1574:0.034476472 1578:0.018045179 1579:0.01312586 1581:0.002806587 1584:0.0072498684 1590:0.013146921 1591:0.01160793 1592:0.012275363 1594:0.0037152303 1595:0.021174751 1601:0.018873293 1607:0.017412394 1609:0.008640182 1610:0.040184269 1611:0.04417943 1613:0.020500102 1620:0.011029237 1621:0.007311766 1627:0.01164786 1637:0.016750392 1638:0.0036506986 1646:0.014817101 1649:0.0046958856 1654:0.027356992 1661:0.031641951 1667:0.0025018379 1674:0.00070591508 1679:0.00084441968 1681:0.0089336546 1682:0.036385107 1688:0.023508925 1690:0.003788721 1691:0.0018778372 1692:0.0081511283 1695:0.0049572399 1698:0.0013158002 1700:0.030588347 1707:0.00072429301 1708:0.01226281 1709:0.034462879 1712:0.021014032 1713:0.00026838864 1715:0.010154905 1718:0.035299305 1721:0.0051477675 1724:0.019496655 1726:0.01255213 1733:0.011164965 1734:0.0063428028 1736:0.011246396 1737:0.034882291 1739:0.020248871 1740:0.030796335 1742:0.0061809234 1743:0.010912913 1744:0.016699485 1749:0.030129897 1750:0.02026517 1754:0.0074396933 1757:0.073076773 1775:0.0067711077 1777:0.010489433 1781:0.028490203 1783:0.0053035742 1784:0.019077681 1786:0.0038876848 1787:0.020266993 1790:0.022952485 1791:0.051760338 1795:0.0058238912 1796:0.0083488123 1797:0.025328522 1799:0.015138115 1801:0.020066712 1805:0.0055348196 1807:0.015493797 1808:0.0022622567 1810:0.020625571 1811:0.013208042 1813:0.0013017867 1821:0.02355307 1822:0.0046672323 1823:0.019102355 1824:0.00044676959 1826:0.0022300914 1827:0.018049896 1830:0.012801542 1833:0.015081718 1834:0.010234087 1838:0.010782644 1840:0.011985253 1842:0.019727121 1845:0.011446715 1846:0.0082460162 1849:0.0027389456 1850:0.010052754 1858:0.036974843 1859:0.021139073 1860:0.028293684 1861:0.0021258624 1877:0.018231863 1884:0.01151952 1886:0.0042575732 1889:0.015118668 1890:0.017236673 1892:0.020560217 1898:0.022950281 1901:0.0095371748 1902:0.010232975 1905:0.010839868 1910:0.01064479 1918:0.0014669262 1937:0.026824048 1938:0.006060181 1944:3.1760566e-05 1947:0.001470751 1948:0.0091175989 1959:0.02787884 1963:0.029305142 1964:0.0034017305 1965:0.013638067 1966:0.014302569 1967:0.011098036 1972:0.011264247 1977:0.0024130045 1979:0.039233689 1989:0.022043757 1994:0.00066421991 1995:0.0082209055 1999:0.016320767 2002:0.013256411 2173:0.0008746929 2193:0.042374832 2204:0.0022710328 2249:0.0013537995 2261:0.0073257002 2353:0.016292137 2362:0.010714036 2403:0.027227711 2425:0.017225003 2430:0.069733521 2432:0.014133865 2450:0.021519086 2468:0.0067945946 2513:0.030688585 2516:0.024530232 2523:0.010432347 2590:0.016868173 2622:0.011692802 2630:0.022523612 2684:0.022929862 2687:0.033102493 2750:0.0042066152 2798:0.0066598575 2855:0.0086343448 2958:0.032016328 2999:0.00095224844 3019:0.0024933501 3021:0.0035430973 3026:0.0087734247 3029:0.0093324495 3037:0.011361668 3039:0.0057714351 3041:0.0034355425 3045:0.0074624039 3048:0.0058280013 3055:0.008502755 3057:0.0089539838 3072:0.0010709254 3079:0.021932917 3093:0.0063502108 3097:0.00084685203 3113:0.013321451 3120:0.0036629134 3121:0.021137219 3122:0.015838959 3166:0.019693158 3179:0.043623535 3194:0.013804929 3206:0.025628374 3214:0.030436678 3219:0.0053862013 3222:0.014267298 3224:0.0094117982 3225:0.018514263 3238:0.028886291 3243:0.011485876 3253:0.027305439 3281:0.0028902842 3299:0.044665169 3311:0.011843034 3314:0.0017999852 3322:0.031316035 3329:0.017043945 3331:0.00084165871 3334:0.0059048437 3361:0.022403715 3366:0.0074385646 3368:0.0675751 3374:0.018039921 3385:0.0078254609 3391:0.0076805598 3392:0.021940163 3394:0.010261269 3398:0.014814713 3408:0.027964761 3411:0.010493286 3417:0.0055239351 3428:0.032102137 3429:0.0053762135 3432:0.020565926 3439:0.01116508 3443:0.0076506078 3444:0.019625795 3458:0.0032011991 3467:0.020868552 3480:0.010666438 3488:0.0050425284 3498:0.0035991043 3513:0.004638741 3522:0.023112507 3523:0.007257743 3531:0.010709895 3536:0.018433683 3554:0.020710435 3561:0.0098173988 3568:0.038637868 3583:0.010051711 3590:0.01015717 3594:0.0033906399 3597:0.01021952 3602:0.0087816443 3607:0.014237682 3628:0.0031617604 3639:0.0019699103 3644:0.025886683 3646:0.0032408621 3655:0.0024168619 3662:0.024013743 3664:0.0023824494 3674:0.0040947238 3721:0.0081945599 3752:0.018262523 3759:0.02112209 3760:0.0025921018 3762:0.025281726 3771:0.019741193 3774:0.035818014 3775:0.013064099 3779:0.0018429834 3781:0.0055296508 3831:0.025935694 3833:0.013513135 3838:0.008689926 3851:0.01112475 3852:0.0026436704 3854:0.00054706818 3864:0.0033004285 3870:0.011104287 3884:0.047466594 3891:0.061776263 3896:0.015274932 3899:0.0122434 3901:0.0022523482 3903:0.0036117178 3904:0.033032405 3914:0.0091156642 3916:0.0097535706 3917:0.0075491976 3922:0.014957596 3928:0.030833553 3957:0.0098917002 3959:0.051255403 3960:0.010687764 3964:0.012181481 3977:0.018798555 3979:0.0099803557 3986:0.015278006 3992:0.0010274161 3993:0.0092326912 3996:0.04380522 4001:0.023953493 4002:0.0040542841 4004:0.0204095 4007:0.0098177 4009:0.029232524 4010:0.0044326419 4011:0.0092870318 4012:0.009353437 4015:0.0080243479 4018:0.0010044596 4019:0.0023764934 4021:0.030489648 4023:0.020864594 4025:0.009833124 4028:0.043565498 4031:0.025364378 4033:0.027374915 4035:1.0639373e-06 4036:0.0081300125 4037:0.024715838 4039:0.010301989 4045:0.023964882 4046:0.0053794857 4048:0.0097192113 4052:0.0045429987 4057:0.0085775316 4060:0.029550331 4061:0.051287823 4064:0.0027371928 4065:0.016586001 4070:0.011049975 4073:0.01213992 4076:0.0072553908 4077:0.022741816 4080:0.0180412 4081:0.035134243 4082:0.010931118 4083:0.00031690861 4085:0.0093590637 4087:0.016625604 4088:0.041229262 4089:0.012054406 4092:0.0094366687 4093:0.0066787933 4097:0.051604298 4098:0.0028852875 4099:0.027061166 4100:0.012316005 4104:0.0070503797 4106:0.018558674 4107:0.013226235 4108:0.0020275226 4109:0.013702042 4113:0.028363535 4117:0.0084815879 4118:0.0025262176 4119:0.0042824409 4120:0.021644732 4121:0.04056527 4125:0.0061351486 4127:0.00087819713 4128:0.0087358194 4129:0.0072533705 4132:0.009671495 4138:0.0072763834 4141:0.047465644 4143:0.041735786 4146:0.02521674 4148:0.0041031523 4154:0.010204614 4156:0.016766284 4158:0.015676691 4160:0.004083755 4161:0.041129684 4162:0.014994291 4164:0.0029725509 4165:0.020289308 4166:0.020477317 4167:0.030928541 4168:0.021095426 4169:0.023248208 4170:0.006755054 4172:0.025298114 4176:0.0015083329 4179:0.037086091 4180:0.0067645883 4181:0.01640062 4182:0.010511691 4184:0.02352809 4186:0.019274007 4187:0.014453214 4189:0.00099956778 4192:0.031603361 4195:0.0036040557 4196:0.03341404 4197:0.006254744 4198:0.019713354 4199:2.7505658e-07 4201:0.00028316834 4202:0.0060460819 4207:0.029019946 4209:0.012411201 4210:0.0086820862 4214:0.014667169 4217:0.0091139519 4219:0.01009521 4220:0.018862698 4221:0.031982188 4222:0.023835362 4223:0.0035428161 4227:0.020017345 4228:0.0091552886 4229:0.0036673572 4231:0.038259042 4232:0.0017417786 4235:0.014295129 4236:0.025523775 4238:0.019801837 4242:3.1077087e-05 4243:0.052999715 4245:0.01048186 4246:0.003043699 4247:0.0078995296 4250:0.0049503595 4251:0.031696827 4252:0.0014215342 4254:0.007326566 4255:0.038664917 4257:0.042823118 4258:0.0098365964 4259:0.025220416 4264:0.0068711199 4266:0.00010715723 4267:0.042481652 4271:0.016197977 4275:0.0062637296 4276:0.0097886189 4278:0.01416466 4280:0.026129149 4284:0.020135472 4287:0.0072063427 4290:0.005016034 4291:0.0023542142 4294:0.0045893852 4296:0.0063559265 4299:0.02408942 4302:0.016622138 4305:0.026448261 4313:0.0090431235 4317:0.02742665 4318:0.0066792496 4320:0.022206341 4323:0.031377478 4324:0.0022641029 4328:0.00046275467 4329:0.011313839 4331:0.022887182 4332:0.017610778 4333:0.01688065 4334:0.011357994 4336:0.034848246 4339:0.011976606 4341:0.023622667 4342:0.019362565 4347:0.011371966 4348:0.00019158212 4349:0.052155489 4351:0.0044759912 4359:0.040002133 4360:0.020151428 4361:0.015014589 4364:0.042673197 4366:0.0064233863 4367:0.030676532 4368:0.029883514 4369:0.0006913389 4381:0.052842155 4391:0.0076860787 4393:0.024300793 4394:0.00098520071 4397:0.031423582 4401:0.007872061 4403:0.0080473482 4404:0.045503692 4405:0.031212176 4406:0.024388663 4409:0.0084596884 4410:0.0097426993 4411:0.033964468 4414:0.03910066 4425:0.0031822992 4426:0.0091039504 4433:0.035660668 4440:0.0068846822 4441:0.007227848 4442:0.0065295568 4445:0.028493315 4446:0.0084658616 4448:0.018605094 4451:0.029585955 4452:0.0083594846 4455:0.012734036 4457:0.013275218 4458:0.032388684 4459:0.00059350728 4462:0.025731571 4463:0.0033118781 4469:0.025947163 4471:0.0097391561 4477:0.010677668 4478:0.0071767922 4479:0.0055146683 4483:0.009541593 4484:0.01498608 4486:0.0005090901 4488:0.0054321392 4490:0.0085026079 4491:0.0058933125 4493:0.0093519124 4495:0.0096980185 4497:0.0084583406 4505:0.027086297 4513:0.0035673624 4518:0.0090015975 4522:0.02939344 4523:0.0081380342 4527:0.022744294 4532:0.010277158 4536:0.03405318 4539:0.014742654 4540:0.00067967426 4542:0.04695725 4543:0.015771086 4544:0.01571779 4546:0.024733027 4553:0.023051135 4558:0.012062346 4561:0.0052929008 4563:0.006287691 4564:0.012349543 4566:0.027093539 4571:0.003758692 4577:0.0078553981 4578:0.0082881708 4580:0.014824631 4582:0.045081697 4584:0.018278017 4585:0.0070186481 4586:0.01161823 4588:0.013143824 4589:0.0042713714 4592:0.0088786791 4595:0.011824241 4596:0.049676093 4598:0.00074835779 4602:0.016731391 4603:0.016130451 4606:0.005786202 4608:0.032971777 4609:0.038582382 4613:0.0061454341 4615:0.015947099 4616:7.5576136e-06 4618:0.00062250001 4621:0.008422921 4625:0.0061672943 4627:0.00069214605 4628:0.011941797 4629:0.016031194 4632:0.013526563 4633:0.016703907 4635:0.010770541 4636:0.014011712 4638:0.019307517 4642:0.012289535 4645:0.014601408 4646:0.018233645 4647:0.021072935 4649:0.0046609226 4652:0.026060784 4653:0.024039377 4655:0.014754827 4659:0.027500411 4660:0.0029323079 4663:0.0028667389 4664:0.012245814 4666:0.0049115678 4667:0.042532931 4669:0.042909464 4674:0.025977288 4676:0.023372125 4677:0.0085432761 4680:0.012593341 4682:0.039370866 4687:0.029215807 4691:0.037540747 4692:0.021272707 4693:0.01810596 4697:0.0072749141 4700:0.027524912 4709:0.014175288 4714:0.014003666 4720:0.010424429 4722:0.022847926 4724:0.013506275 4727:0.016219803 4729:0.0038727253 4731:0.025983318 4734:0.0099670534 4737:0.041888016 4738:0.0032254962 4739:0.0057351998 4741:0.0041261135 4742:0.020485966 4748:0.0058763268 4749:0.014062174 4751:0.032623504 4754:0.033366242 4757:0.011088791 4758:0.0012332074 4760:0.0070730715 4761:0.013332715 4763:0.01252648 4765:0.027824956 4769:0.00093771304 4770:0.005098052 4773:0.018436406 4774:0.0050784152 4777:0.016176661 4779:0.008030399 4781:0.01528781 4789:0.0052895869 4791:0.0016553269 4792:0.0093357503 4797:0.021433181 4798:0.0087482256 4799:0.013013721 4800:0.026262183 4801:0.068377333 4804:0.0042170792 4808:0.017821314 4810:0.0016635781 4812:0.040039257 4813:0.025549441 4814:0.028579017 4816:0.0032686638 4821:0.0075139651 4823:0.0032779694 4828:0.010735045 4834:0.013685635 4837:0.019014174 4839:0.0062872809 4840:0.0033572254 4841:0.01244278 4842:0.033639643 4844:0.01210779 4845:0.013239802 4847:0.017842364 4851:0.0045841908 4854:0.0013003804 4855:0.014353996 4857:0.014739041 4858:0.055058713 4860:0.058606368 4867:0.015036105 4869:0.0045173119 4870:0.00343627 4873:0.013946516 4874:0.0051274034 4875:0.0029934982 4877:0.0033717374 4879:0.0075290863 4880:0.0059872884 4881:0.0073061814 4882:0.0022995945 4883:0.0045571802 4886:0.031899728 4888:0.017748198 4889:0.0060592598 4892:0.038306298 4898:0.012532303 4902:0.0092013617 4904:0.011998709 4905:0.001263545 4907:0.011945037 4909:0.01479851 4911:0.003891802 4914:0.023206176 4915:0.0084904401 4916:0.0035584857 4917:0.02143637 4918:0.0097849069 4921:0.0034803189 4925:0.037809183 4926:0.00777361 4927:0.0072793054 4928:0.0018239988 4930:0.0032969018 4931:0.027511212 4932:0.015132044 4939:0.0160293 4940:0.0075096149 4946:0.034781891 4948:0.0083490496 4950:0.0067008599 4951:0.019126028 4955:0.012008452 4960:0.006135942 4961:0.050467639 4964:0.027326162 4966:0.013536722 4968:0.01229996 4969:0.038258736 4970:0.010400529 4971:0.037490256 4973:0.0094587764 4977:0.01141939 4981:0.013670375 4986:0.010760704 4988:0.011313476 4989:0.015142841 4992:0.0071081968 4993:0.003943114 4995:0.010854331 4997:0.02568235 4999:0.013177841 5009:0.012919353 5015:0.011060397 5040:0.0064594733 5043:0.01203385 5060:0.0084615347 5069:0.017886526 5070:0.0095705982 5075:0.017274723 5083:0.019392544 5101:0.007972546 5103:0.0097484372 5105:0.013565338 5107:0.011967346 5111:0.013324232 5112:0.029382852 5132:0.0078810444 5142:0.0087163542 5159:0.011113183 5163:0.010017136 5167:0.032493112 5169:0.016848306 5174:0.008205786 5180:0.024833157 5183:0.012258972 5185:0.01732064 5186:0.012413606 5188:0.029402196 5193:0.043933216 5194:0.015428282 5198:0.011901386 5205:0.0086648638 5214:0.023114056 5229:0.015211195 5242:0.015354046 5249:0.0093969245 5263:0.0075696855 5271:0.010548566 5274:0.00026268494 5287:0.00077834489 5293:0.020790799 5298:0.020353902 5306:0.00040037633 5318:0.00095013542 5324:0.007674657 5341:0.018183148 5350:0.0081964924 5351:0.017792533 5357:0.0059398213 5363:0.048360364 5372:0.0044609299 5388:0.00025662438 5393:0.0053549032 5407:0.014513071 5418:0.016469723 5425:0.0163944 5443:0.010636144 5452:0.0088617681 5465:0.012042809 5477:0.0071483893 5479:0.029936292 5490:0.0040022486 5493:0.013249829 5501:0.009131836 5510:0.0049119756 5520:0.00014477414 5526:0.0037918227 5528:0.012477834 5529:0.011054061 5533:0.02565799 5553:0.020031068 5554:0.0091664303 5559:0.0016535215 5560:0.020193885 5569:0.0025470388 5578:0.018045179 5579:0.01312586 5584:0.0072498684 5591:0.01160793 5592:0.012275363 5594:0.0037152303 5595:0.021174751 5610:0.040184269 5611:0.0059773194 5620:0.011029237 5621:0.007311766 5654:0.012879365 5661:0.031641951 5667:0.0025018379 5674:0.00070591508 5688:0.023508925 5707:0.00072429301 5708:0.01226281 5712:0.0058105998 5715:0.010154905 5718:0.035299305 5724:0.019496655 5726:0.01255213 5736:0.011246396 5737:0.034882291 5739:0.020248871 5740:0.0053810349 5742:0.0061809234 5757:0.073076773 5777:0.010489433 5783:0.0053035742 5784:0.011802262 5786:0.0038876848 5787:0.020266993 5790:0.022952485 5791:0.051760338 5796:0.0083488123 5801:0.00059163877 5810:0.020625571 5823:0.0046646896 5826:0.0022300914 5830:0.001628234 5833:0.015081718 5838:0.0051266386 5842:0.019727121 5845:0.011446715 5849:0.0027389456 5850:0.010052754 5858:0.036974843 5859:0.021139073 5884:0.01151952 5890:0.017236673 5910:0.01064479 5918:0.0014669262 5937:0.026824048 5948:0.0091175989 5959:0.02787884 5972:0.011264247 5994:0.00066421991 5995:0.0082209055 5999:0.016320767 6010:0.012410414 6013:0.0066588782 6020:0.026745716 6023:0.0020224394 6026:0.003694471 6069:0.0031774017 6074:0.0081627593 6080:0.032712072 6086:0.0024755337 6087:0.0007628482 6101:0.012860293 6107:0.010805645 6112:0.0018258911 6131:0.011117223 6135:0.00047248007 6142:0.0091461558 6170:0.015549565 6181:0.017070551 6183:0.0036018153 6187:0.010429031 6192:0.042309664 6214:0.01297832 6239:0.0080665818 6271:0.004237218 6287:0.005854401 6293:0.014690928 6298:0.022396736 6317:0.019008607 6324:0.0097528907 6357:0.0026436764 6362:0.0018887467 6364:0.013662968 6376:0.0056073802 6432:0.034549571 6435:0.0096167037 6437:0.0046675135 6457:0.0040513703 6464:0.0048611474 6472:0.0091199945 6490:0.0086428776 6510:0.0015183926 6529:0.020842769 6532:0.034017246 6533:0.015168794 6552:0.0043946756 6553:0.01578058 6564:0.0079014872 6567:0.021397685 6574:0.034476472 6578:0.007053227 6590:0.013146921 6595:0.019643399 6611:0.005286208 6627:0.01164786 6654:0.027356992 6690:0.003788721 6691:0.0018778372 6692:0.0081511283 6695:0.0049572399 6700:0.030588347 6712:0.021014032 6713:0.00026838864 6733:0.011164965 6734:0.0063428028 6740:0.030796335 6754:0.0074396933 6784:0.019077681 6787:0.0098944529 6795:0.0058238912 6797:0.025328522 6799:0.015138115 6801:0.020066712 6821:0.02355307 6822:0.0046672323 6823:0.019102355 6824:0.00044676959 6830:0.012801542 6834:0.010234087 6838:0.010782644 6840:0.011985253 6850:0.00053462673 6860:0.028293684 6861:0.0021258624 6877:0.018231863 6892:0.020560217 6898:0.022950281 6901:0.0095371748 6944:3.1760566e-05 6947:0.001470751 6963:0.029305142 6966:0.014302569 9023:0.017180968 9129:0.021552487 9192:0.0063338143 9203:0.021443543 9406:0.029326385 9414:0.0066296631 9525:0.018310808 9682:0.036385107 9698:0.0013158002 9700:0.0040599025 9805:0.0055348196 9808:0.0022622567 9902:0.010232975 9965:0.013638067 10003:0.0056817621 10021:0.0059873123 10037:0.0076658322 10039:0.017412878 10048:0.049175551 10066:0.0520578 10072:0.011928748 10084:0.0096318597 10094:0.0096916565 10097:0.01461928 10116:0.02514498 10121:0.043825251 10127:0.0022796437 10133:0.04507995 10143:0.024270502 10166:0.060741053 10194:0.057678375 10222:0.010500585 10223:0.00054706319 10224:0.020052348 10228:0.014320837 10243:0.020149578 10290:0.019203194 10291:0.002841924 10295:0.0024392248 10300:0.0050690725 10332:0.005738464 10361:0.0061696351 10368:0.0099707768 10376:0.00054935844 10391:0.034656667 10392:0.012949243 10394:0.018563163 10398:0.011581196 10411:0.0073779652 10417:0.0077092507 10432:0.007054779 10458:0.004330184 10459:0.019899481 10463:0.02289101 10482:0.052184838 10486:0.0066996958 10491:0.010172162 10513:0.0086123261 10522:0.035246351 10557:0.0073204345 10561:0.01830162 10568:0.039679101 10581:0.002806587 10601:0.018873293 10607:0.017412394 10609:0.008640182 10613:0.020500102 10637:0.016750392 10638:0.0036506986 10646:0.014817101 10649:0.0046958856 10679:0.00084441968 10681:0.0089336546 10709:0.034462879 10721:0.0051477675 10743:0.010912913 10744:0.016699485 10749:0.030129897 10750:0.02026517 10775:0.0067711077 10781:0.028490203 10791:0.047708655 10807:0.015493797 10808:0.0011272383 10811:0.013208042 10813:0.0013017867 10827:0.018049896 10846:0.0082460162 10886:0.0042575732 10889:0.015118668 10905:0.010839868 10938:0.006060181 10964:0.0034017305 10967:0.011098036 10977:0.0024130045 10979:0.039233689 10989:0.022043757 11002:0.013256411 11173:0.0008746929 11193:0.042374832 11204:0.0022710328 11249:0.0013537995 11261:0.0073257002 11353:0.016292137 11362:0.010714036 11403:0.027227711 11425:0.017225003 11430:0.069733521 11432:0.014133865 11450:0.021519086 11468:0.0067945946 11513:0.030688585 11516:0.024530232 11523:0.010432347 11590:0.016868173 11622:0.011692802 11630:0.022523612 11684:0.022929862 11687:0.033102493 11750:0.0042066152 11798:0.0066598575 11855:0.0086343448 11958:0.032016328 11999:0.00095224844 13057:0.0089539838 13628:0.0031617604 13662:0.024013743 13760:0.0025921018 13765:-0.00044446492 14019:0.0024933501 14021:0.0035430973 14037:0.011361668 14039:0.0057714351 14045:0.0074624039 14048:0.0058280013 14072:0.0010709254 14079:0.021932917 14093:0.0063502108 14113:0.013321451 14120:0.0036629134 14121:0.021137219 14122:0.015838959 14166:0.019693158 14179:0.043623535 14206:0.025628374 14219:0.0053862013 14224:0.0093926057 14225:0.018514263 14243:0.011485876 14281:0.0028902842 14299:0.044665169 14311:0.011843034 14314:0.0017999852 14322:0.031316035 14329:0.017043945 14331:0.00084165871 14334:0.0059048437 14361:0.022403715 14385:0.0078254609 14391:0.0076805598 14394:0.010261269 14398:0.014814713 14408:0.027964761 14411:0.010493286 14428:0.032102137 14429:0.0053762135 14432:0.020565926 14439:0.01116508 14444:0.019625795 14458:0.0032011991 14467:0.017454565 14480:0.010666438 14488:0.0050425284 14498:0.0035991043 14522:0.023112507 14536:0.018433683 14561:0.0098173988 14568:0.038637868 14583:0.010051711 14597:0.01021952 14607:0.014237682 14644:0.025886683 14646:0.0032408621 14655:0.0024168619 14664:0.0023824494 14721:0.0081945599 14771:0.019741193 14775:0.013064099 14779:0.0018429834 14781:0.0055296508 14831:0.025935694 14852:0.0026436704 14854:0.00054706818 14864:0.0033004285 14870:0.011104287 14891:0.061776263 14896:0.015274932 14899:0.0122434 14903:0.0036117178 14914:0.0091156642 14916:0.0097535706 14917:0.0075491976 14922:0.014957596 14928:0.030833553 14957:0.0098917002 14959:0.051255403 14960:0.010687764 14977:0.018798555 14979:0.0099803557 14993:0.0092326912 14996:0.04380522 15001:0.023953493 15002:0.0027649389 15007:0.00039142824 15009:0.029232524 15015:0.0080243479 15018:0.0010044596 15031:0.025364378 15046:0.0053794857 15060:0.029550331 15073:0.0068992986 15083:0.00031690861 15098:0.0028852875 15100:0.012316005 15108:0.0020275226 15109:0.012223861 15118:0.0025262176 15120:0.013486577 15121:0.04056527 15125:0.0061351486 15127:0.00087819713 15129:0.0072533705 15132:0.009671495 15138:0.0072763834 15146:0.02521674 15156:0.01474403 15167:0.030928541 15168:0.021095426 15169:0.023248208 15180:0.0067645883 15181:0.0060155127 15186:0.019274007 15192:0.031603361 15195:0.0036040557 15209:0.012411201 15210:0.0086820862 15214:0.014667169 15222:0.011788741 15227:0.020017345 15229:0.0036673572 15232:0.0017417786 15236:0.0080569014 15242:3.1077087e-05 15245:0.01048186 15255:0.038664917 15258:0.0098365964 15259:0.0095838571 15264:0.0031310232 15287:0.0072063427 15290:0.005016034 15302:0.016622138 15341:0.01133245 15351:0.0044759912 15381:0.0035439221 15393:0.0082246146 15401:0.007872061 15406:0.024388663 15410:0.0097426993 15452:0.0083594846 15462:0.025731571 15469:0.0028374859 15479:0.0055146683 15484:0.0045441437 15493:0.0093519124 15527:0.022744294 15542:0.04695725 15553:0.023051135 15558:0.012062346 15563:0.006287691 15577:0.0078553981 15580:0.014824631 15582:0.045081697 15586:0.01161823 15589:0.0042713714 15592:0.0088786791 15595:0.011824241 15596:0.010241731 15602:0.016731391 15603:0.016130451 15606:0.005786202 15615:0.015947099 15618:0.00062250001 15621:0.008422921 15627:0.00031447155 15638:0.019307517 15642:0.012289535 15660:0.0029323079 15674:0.011257684 15682:0.039370866 15693:0.014280342 15714:0.014003666 15734:0.0099670534 15737:0.041888016 15748:0.0058763268 15757:0.011088791 15791:0.0016553269 15792:0.0093357503 15798:0.0087482256 15799:0.013013721 15800:0.026262183 15804:0.0042170792 15808:0.017821314 15810:0.0016635781 15823:0.0030265043 15844:0.01210779 15855:0.014353996 15858:0.055058713 15879:0.0075290863 15880:0.0012894089 15881:0.0073061814 15882:0.0022995945 15902:0.0092013617 15905:0.001263545 15918:0.0097849069 15921:0.0034803189 15931:0.027511212 15940:0.0075096149 15948:0.0083490496 15951:0.0080907599 15955:0.012008452 15968:0.01229996 15970:0.010400529 15973:0.0094587764 15995:0.0078049109 15999:0.013177841 16007:0.0098177 16011:0.0092870318 16028:0.043565498 16036:0.0081300125 16037:0.024715838 16039:0.010301989 16052:0.0045429987 16061:0.051287823 16070:0.011049975 16073:0.01213992 16077:0.014919435 16082:0.010931118 16085:0.0093590637 16109:0.013702042 16113:0.028363535 16120:0.021644732 16128:0.0087358194 16156:0.016766284 16158:0.015676691 16160:0.004083755 16186:0.0078049874 16187:0.0072245159 16197:0.006254744 16198:0.019713354 16207:0.0054195111 16219:0.01009521 16235:0.011726959 16247:0.0078995296 16254:0.007326566 16259:0.025220416 16264:0.0068711199 16267:0.042481652 16271:0.016197977 16275:0.0062637296 16278:0.01416466 16280:0.00058334137 16284:0.020135472 16294:0.0045893852 16296:0.0060784523 16299:0.02408942 16305:0.0018638444 16313:0.0090431235 16329:0.011313839 16332:0.017610778 16334:0.011357994 16342:0.019362565 16349:0.003464647 16367:0.030676532 16368:0.029883514 16391:0.0076860787 16393:0.024300793 16397:0.031423582 16404:0.045503692 16405:0.031212176 16455:0.012734036 16457:0.013275218 16471:0.0097391561 16483:0.009541593 16484:0.01498608 16490:0.0085026079 16495:0.0096980185 16497:0.0073942129 16522:0.02939344 16539:0.014742654 16542:0.034463719 16543:0.015771086 16544:0.01571779 16546:0.024733027 16584:0.018278017 16596:0.049676093 16598:0.00074835779 16608:0.032971777 16627:0.00069214605 16632:0.013526563 16635:0.0029039989 16636:0.014011712 16638:0.013411244 16645:0.014601408 16646:0.0043666186 16647:0.021072935 16652:0.026060784 16669:0.021311625 16674:0.025977288 16676:0.023372125 16687:0.029215807 16697:0.0072749141 16731:0.025983318 16739:0.0057351998 16741:0.0041261135 16748:0.0058523443 16769:0.00093771304 16773:0.018436406 16779:0.008030399 16801:0.068377333 16812:0.040039257 16813:0.025549441 16821:0.0075139651 16823:0.0032779694 16828:0.0078165437 16834:0.013685635 16837:0.019014174 16845:0.013239802 16847:0.017842364 16858:2.3613161e-05 16860:0.058606368 16867:0.015036105 16869:0.0045173119 16877:0.0033717374 16880:0.0059872884 16881:0.00099230521 16888:0.017748198 16892:0.038306298 16902:0.00060512109 16911:0.003891802 16915:0.0084904401 16916:0.0035584857 16925:0.006741466 16926:0.00777361 16946:0.034781891 16948:0.0054206707 16981:0.013670375 16989:0.015142841 16995:0.010854331 17026:0.0087734247 17029:0.0093324495 17041:0.0034355425 17055:0.008502755 17097:0.00084685203 17194:0.013804929 17214:0.030436678 17222:0.014267298 17224:0.0094117982 17238:0.028886291 17253:0.027305439 17299:0.027824584 17366:0.0074385646 17368:0.0675751 17374:0.018039921 17392:0.021940163 17417:0.0055239351 17443:0.0076506078 17467:0.020868552 17513:0.004638741 17523:0.007257743 17590:0.01015717 17594:0.0033906399 17602:0.0087816443 17674:0.0040947238 17752:0.018262523 17759:0.02112209 17762:0.025281726 17774:0.035818014 17831:0.0218308 17833:0.013513135 17838:0.008689926 17851:0.01112475 17901:0.0022523482 17904:0.033032405 17964:0.012181481 17986:0.015278006 17992:0.0010274161 18531:0.010709895 18554:0.020710435 18639:0.0019699103 18884:0.047466594 18899:0.0085708645 18996:0.018936219 19019:0.0023764934 19025:0.009833124 19035:1.0639373e-06 19080:9.1847613e-06 19117:0.0084815879 19119:0.0042824409 19141:0.047465644 19156:0.009973923 19164:0.0029725509 19165:0.020289308 19170:0.006755054 19186:0.017067434 19198:0.0054564913 19199:2.7505658e-07 19201:0.00028316834 19217:0.0091139519 19231:0.038259042 19236:0.025523775 19250:0.0049503595 19318:0.0066792496 19320:0.022206341 19323:0.031377478 19333:0.01688065 19336:0.034848246 19347:0.011371966 19348:0.00019158212 19349:0.0029665757 19359:0.040002133 19366:0.0064233863 19369:0.0006913389 19409:0.0084596884 19425:0.0031822992 19452:0.0035241321 19469:0.025947163 19477:0.010677668 19478:0.0071767922 19540:0.00067967426 19546:0.011758388 19564:0.0076801588 19616:7.5576136e-06 19629:0.0032774635 19638:0.012713415 19659:0.0020355995 19693:0.016485123 19700:0.027524912 19720:0.010424429 19722:0.022847926 19724:0.013506275 19742:0.020485966 19770:0.005098052 19814:0.028579017 19840:0.0033572254 19842:0.033639643 19857:0.014739041 19874:0.0051274034 19875:0.0029934982 19880:0.0035981472 19881:0.0021811266 19888:0.0029316389 19907:0.011945037 19939:0.0160293 19951:0.019126028 19970:0.0085998372 19995:0.0079095306 20002:0.0040542841 20004:0.0204095 20010:0.0044326419 20012:0.009353437 20021:0.030489648 20023:0.020864594 20028:0.0030350507 20033:0.027374915 20037:0.0024922422 20045:0.023964882 20048:0.0097192113 20057:0.0085775316 20061:0.0058509269 20064:0.0027371928 20065:0.016586001 20076:0.0072553908 20077:0.022741816 20080:0.0180412 20081:0.035134243 20087:0.016625604 20088:0.041229262 20089:0.012054406 20092:0.0094366687 20093:0.0066787933 20097:0.051604298 20099:0.027061166 20104:0.0070503797 20106:0.018558674 20107:0.013226235 20120:0.010871373 20121:0.0071535717 20143:0.041735786 20148:0.0041031523 20154:0.010204614 20158:0.012241976 20161:0.041129684 20162:0.014994291 20166:0.020477317 20172:0.025298114 20176:0.0015083329 20179:0.037086091 20181:0.01640062 20182:0.010511691 20184:0.02352809 20187:0.014453214 20189:0.00099956778 20196:0.03341404 20198:0.0021488395 20202:0.0060460819 20207:0.029019946 20220:0.018862698 20221:0.031982188 20222:0.023835362 20223:0.0035428161 20228:0.0091552886 20235:0.014295129 20238:0.019801837 20243:0.052999715 20251:0.031696827 20252:0.0014215342 20257:0.042823118 20259:0.015588894 20264:0.0039734881 20266:0.00010715723 20276:0.0097886189 20280:0.026129149 20284:0.0086585149 20291:0.0023542142 20296:0.0063559265 20305:0.026448261 20317:0.02742665 20324:0.0022641029 20328:0.00046275467 20331:0.022887182 20334:0.005294394 20336:0.00080780512 20339:0.011976606 20341:0.023622667 20349:0.052155489 20360:0.020151428 20361:0.015014589 20364:0.042673197 20367:0.01801976 20381:0.052842155 20391:0.0063705515 20393:0.0037979308 20394:0.00098520071 20403:0.0080473482 20405:0.015392208 20411:0.033964468 20414:0.03910066 20426:0.0091039504 20433:0.035660668 20440:0.0068846822 20441:0.007227848 20442:0.0065295568 20445:0.028493315 20446:0.0084658616 20448:0.018605094 20451:0.029585955 20458:0.032388684 20459:0.00059350728 20463:0.0033118781 20471:0.008782991 20486:0.0005090901 20488:0.0054321392 20491:0.0058933125 20497:0.0084583406 20505:0.027086297 20513:0.0035673624 20518:0.0090015975 20523:0.0081380342 20532:0.010277158 20536:0.03405318 20543:0.0027573467 20561:0.0052929008 20564:0.012349543 20566:0.027093539 20571:0.003758692 20578:0.0082881708 20585:0.0070186481 20588:0.013143824 20608:0.0043734854 20609:0.038582382 20613:0.0061454341 20625:0.0061672943 20628:0.011941797 20629:0.016031194 20633:0.016703907 20635:0.010770541 20646:0.018233645 20649:0.0046609226 20653:0.024039377 20655:0.014754827 20659:0.027500411 20663:0.0028667389 20664:0.012245814 20666:0.0049115678 20667:0.042532931 20669:0.042909464 20677:0.0085432761 20680:0.012593341 20691:0.037540747 20692:0.021272707 20693:0.01810596 20709:0.014175288 20727:0.016219803 20729:0.0038727253 20731:0.0071126554 20738:0.0032254962 20749:0.014062174 20751:0.032623504 20754:0.033366242 20758:0.0012332074 20760:0.0070730715 20761:0.013332715 20763:0.01252648 20765:0.027824956 20773:0.012047802 20774:0.0050784152 20777:0.016176661 20781:0.01528781 20789:0.0052895869 20797:0.021433181 20816:0.0032686638 20828:0.010735045 20839:0.0062872809 20841:0.01244278 20851:0.0045841908 20854:0.0013003804 20855:0.010858115 20857:0.0028028716 20860:0.021588466 20867:0.0077804972 20870:0.00343627 20873:0.013946516 20883:0.0045571802 20886:0.031899728 20889:0.0060592598 20898:0.012532303 20904:0.011998709 20909:0.01479851 20914:0.023206176 20917:0.02143637 20921:0.0024378579 20925:0.037809183 20927:0.0072793054 20928:0.0018239988 20930:0.0032969018 20932:0.015132044 20950:0.0067008599 20960:0.006135942 20961:0.050467639 20964:0.027326162 20966:0.013536722 20969:0.038258736 20971:0.037490256 20977:0.01141939 20986:0.010760704 20988:0.011313476 20992:0.0071081968 20993:0.003943114 20997:0.02568235 
