svm_type c_svc
kernel_type rbf
gamma 4.7619e-05
nr_class 2
total_sv 378
rho 2.14932
label 1 -1
probA -5.07759
probB 0.672691
nr_sv 181 197
SV
11268.18828248827 25:0.01838711 33:0.0073351204 64:0.075570884 75:0.066818881 81:0.0092159389 87:0.022777798 101:0.10257856 103:0.01727641 111:0.026251498 136:0.0061032937 140:0.0040442285 156:0.026341098 195:0.011621712 205:0.12002925 213:0.021605687 214:0.043490686 237:0.011466755 253:0.11537362 282:0.0026071883 287:0.0047173293 303:0.024201539 307:0.041836995 313:0.12355218 320:0.0824656 326:0.01749732 333:0.019148459 349:0.024745186 352:0.04062788 355:0.1192612 356:0.070045736 377:0.045371828 405:0.065839979 422:0.042768144 430:0.065137019 474:0.012019289 502:0.080719307 515:0.076720614 520:0.040516811 545:0.12432446 546:0.1734687 548:0.045174495 549:0.0053192052 553:0.074115526 555:0.034327652 564:0.00060462581 576:0.020331843 579:0.0045485044 586:0.031103021 588:0.099091513 592:0.0033894299 595:0.028684858 600:0.036327714 612:0.042985999 668:0.063621014 686:0.027665853 701:0.054483098 712:0.012370545 713:0.018787026 722:0.065831028 724:0.022991063 731:0.019085711 745:0.010190606 748:0.054201084 789:0.062446019 801:0.022034001 804:0.030844458 816:0.008843203 850:0.058588026 855:0.051831637 868:0.061089626 879:0.035058955 882:0.0045886045 890:0.15315987 893:0.05625411 901:0.030371239 902:0.0059332547 916:0.24124945 931:0.085681558 940:0.0095039909 956:0.037569299 983:0.033433967 994:0.015567437 1025:0.01838711 1064:0.075570884 1081:0.0092159389 1087:0.022777798 1101:0.10257856 1103:0.01727641 1136:0.0061032937 1140:0.0040442285 1156:0.026341098 1195:0.011621712 1205:0.12002925 1253:0.11537362 1282:0.0026071883 1307:0.041836995 1313:0.12355218 1326:0.010626092 1333:0.019148459 1349:0.024745186 1352:0.04062788 1355:0.027037798 1356:0.028371411 1405:0.065839979 1422:0.042768144 1474:0.012019289 1515:0.076720614 1520:0.040516811 1546:0.1734687 1548:0.045174495 1555:0.034327652 1564:0.00060462581 1586:0.031103021 1592:0.0033894299 1600:0.0088676035 1612:0.042985999 1668:0.063621014 1686:0.027665853 1701:0.054483098 1724:0.022991063 1731:0.019085711 1789:0.062446019 1801:0.022034001 1804:0.030844458 1931:0.085681558 1956:0.037569299 1994:0.015567437 2213:0.021605687 2237:0.011466755 2287:0.0047173293 2303:0.024201539 2355:0.1192612 2520:0.011621806 2545:0.12432446 2553:0.074115526 2576:0.020331843 2712:0.012370545 2713:0.018787026 2850:0.058588026 2882:0.0045886045 2890:0.15315987 2901:0.030371239 2983:0.033433967 3033:0.0073351204 3075:0.066818881 3320:0.0824656 3326:0.01749732 3349:0.00724485 3356:0.070045736 3377:0.045371828 3430:0.065137019 3502:0.080719307 3548:0.021422281 3549:0.0053192052 3588:0.099091513 3600:0.024337503 3612:0.013794791 3722:0.065831028 3748:0.054201084 3816:0.008843203 3868:0.061089626 3893:0.05625411 3916:0.24124945 3940:0.0095039909 4111:0.026251498 4214:0.043490686 4579:0.0045485044 4595:0.028684858 4600:0.036327714 4745:0.010190606 4855:0.051831637 4879:0.035058955 4902:0.0059332547 6025:0.01838711 6101:0.075768238 6103:0.0057389626 6136:0.0061032937 6195:0.011621712 6253:0.11537362 6282:0.0026071883 6307:0.041836995 6313:0.12355218 6349:0.024745186 6352:0.04062788 6355:0.027037798 6405:0.065839979 6520:0.040516811 6546:0.1734687 6555:0.034327652 6586:0.031103021 6592:0.0033894299 6600:0.0088676035 6668:0.05202756 6701:0.054483098 6724:0.022991063 6731:0.019085711 6801:0.022034001 6931:0.085681558 7213:0.021605687 7237:0.011466755 7287:0.0047173293 7355:0.1192612 7520:0.011621806 7553:0.074115526 7576:0.020331843 7712:0.012370545 7713:0.018787026 7850:0.058588026 7882:0.0045886045 7890:0.15315987 7901:0.030371239 7983:0.033433967 10064:0.075570884 10081:0.0092159389 10087:0.022777798 10101:0.10257856 10103:0.01727641 10140:0.0040442285 10156:0.026341098 10205:0.12002925 10326:0.010626092 10333:0.019148459 10356:0.028371411 10422:0.042768144 10474:0.012019289 10515:0.076720614 10548:0.045174495 10555:0.033714194 10564:0.00060462581 10612:0.042985999 10668:0.063621014 10686:0.027665853 10701:0.03597915 10789:0.062446019 10804:0.030844458 10956:0.037569299 10994:0.015567437 12303:0.024201539 12357:-0.026310365 12545:0.12432446 12553:0.043596022 12882:-0.052049614 14033:0.0073351204 14075:0.066818881 14326:0.01749732 14349:0.00724485 14356:0.070045736 14377:0.045371828 14430:0.065137019 14502:0.080719307 14548:0.021422281 14588:0.099091513 14612:0.013794791 14722:0.065831028 14816:0.008843203 14868:0.061089626 14893:0.05625411 14940:0.0095039909 18320:0.0824656 18502:0.031744459 18549:0.0053192052 18600:0.024337503 18748:0.054201084 18916:0.24124945 19111:0.026251498 19214:0.043490686 19579:0.0045485044 19595:0.028684858 19600:0.036327714 19745:0.010190606 19855:0.051831637 19879:0.035058955 19902:0.0059332547 
5220.427054814819 111:0.041506185 136:0.0096499042 214:0.068763028 303:0.038265 307:0.056711924 313:0.03408623 320:0.13038618 352:0.06423665 502:0.050191094 545:0.19656913 546:0.27427098 549:0.0084101835 553:0.068929573 579:0.0071916303 586:0.049176917 595:0.045353565 600:0.057437668 668:0.042784892 745:0.016112344 748:0.085697213 855:0.081950886 879:0.055431636 902:0.0093810558 916:0.38143897 1136:0.0096499042 1307:0.056711924 1313:0.03408623 1352:0.06423665 1546:0.27427098 1586:0.049176917 1600:0.014020548 1668:0.042784892 2303:0.038265 2357:-0.041599259 2545:0.19656913 2553:0.068929573 2882:-0.08229553 3111:0.041506185 3214:0.068763028 3320:0.13038618 3502:0.050191094 3549:0.0084101835 3579:0.0071916303 3595:0.045353565 3600:0.057437668 3745:0.016112344 3748:0.085697213 3855:0.081950886 3879:0.055431636 3902:0.0093810558 3916:0.38143897 5136:0.0096499042 5307:0.056711924 5313:0.03408623 5352:0.06423665 5546:0.27427098 5586:0.049176917 5600:0.014020548 5668:0.042784892 12303:0.038265 12357:-0.041599259 12545:0.19656913 12553:0.068929573 12882:-0.08229553 17111:0.041506185 17320:0.13038618 17502:0.050191094 17549:0.0084101835 17600:0.057437668 17745:0.016112344 17748:0.085697213 17879:0.055431636 17902:0.0093810558 17916:0.38143897 18214:0.068763028 18523:-0.023390205 18579:0.0071916303 18595:0.045353565 18855:0.081950886 
45737.94508429273 75:0.10705943 111:0.04206102 214:0.06968222 303:0.038776509 320:0.13212912 349:0.011607939 430:0.10436469 502:0.12933115 545:0.19919678 549:0.008522607 553:0.069850992 579:0.0072877646 588:0.15876771 595:0.045959831 600:0.058205468 722:0.10547666 745:0.016327726 748:0.086842774 816:0.014168873 855:0.083046368 879:0.056172621 893:0.090132201 902:0.0095064574 916:0.38653787 2303:0.038776509 2357:-0.042155339 2545:0.19919678 2553:0.069850992 2882:-0.083395618 3075:0.10705943 3111:0.04206102 3214:0.06968222 3320:0.13212912 3349:0.011607939 3430:0.10436469 3502:0.12933115 3549:0.008522607 3579:0.0072877646 3588:0.15876771 3595:0.045959831 3600:0.058205468 3722:0.10547666 3745:0.016327726 3748:0.086842774 3816:0.014168873 3855:0.083046368 3879:0.056172621 3893:0.090132201 3902:0.0095064574 3916:0.38653787 12303:0.038776509 12357:-0.042155339 12545:0.19919678 12553:0.069850992 12882:-0.083395618 13075:0.10705943 13320:0.13212912 13349:0.011607939 13430:0.10436469 13502:0.12933115 13549:0.008522607 13588:0.15876771 13600:0.038994355 13722:0.10547666 13748:0.086842774 13816:0.014168873 13893:0.090132201 13916:0.38653787 18111:0.04206102 18214:0.06968222 18579:0.0072877646 18595:0.045959831 18600:0.058205468 18745:0.016327726 18855:0.083046368 18879:0.056172621 18902:0.0095064574 
27195.68922531035 15:0.065796531 25:0.024169893 43:0.039419637 83:0.016243243 103:0.007543878 131:0.0023637462 136:0.008022792 146:0.041678045 213:0.028400719 218:0.015211307 221:0.026834815 237:0.095685106 254:0.025346454 257:0.13110468 264:0.027325884 282:0.0034271543 287:0.006200939 303:0.031812973 307:0.054994815 313:0.16240959 317:0.022983252 328:0.086744198 349:0.032527597 352:0.05340543 355:0.15676909 380:0.015669585 405:0.086546786 462:0.058099341 520:0.05325943 528:0.051412545 545:0.16342476 546:0.22802496 553:0.097425009 566:0.070811918 567:0.0073771196 569:0.016333542 576:0.026726248 586:0.040884984 600:0.011656483 610:0.078176169 625:0.0016552445 668:0.035570746 680:0.045167831 700:0.025110748 712:0.016261107 713:0.024695584 724:0.030221799 729:0.0056024257 731:0.025088206 790:0.071035677 850:0.077014079 857:0.0025149044 882:0.0060317299 890:0.20132896 901:0.039923056 928:0.010613638 965:0.078916918 966:0.050192991 971:0.10304262 983:0.043949017 995:0.14483278 1025:0.024169893 1103:0.007543878 1136:0.008022792 1213:0.028400719 1218:0.015211307 1237:0.015073072 1254:0.025346454 1282:0.0034271543 1287:0.006200939 1307:0.054994815 1313:0.16240959 1349:0.032527597 1352:0.05340543 1355:0.15676909 1405:0.086546786 1520:0.05325943 1528:0.051412545 1546:0.22802496 1553:0.097425009 1567:0.0073771196 1576:0.026726248 1586:0.040884984 1600:0.011656483 1668:0.035570746 1712:0.016261107 1713:0.024695584 1724:0.030221799 1731:0.025088206 1850:0.077014079 1882:0.0060317299 1890:0.20132896 1901:0.039923056 1966:0.050192991 1983:0.043949017 2015:0.065796531 2043:0.039419637 2083:0.016243243 2131:0.0023637462 2146:0.041678045 2221:0.026834815 2237:0.095685106 2257:0.13110468 2264:0.027325884 2317:0.022983252 2328:0.086744198 2380:0.015669585 2462:0.058099341 2566:0.070811918 2569:0.016333542 2610:0.078176169 2625:0.0016552445 2680:0.045167831 2700:0.025110748 2729:0.0056024257 2790:0.071035677 2857:0.0025149044 2928:0.010613638 2965:0.078916918 2966:0.034884134 2971:0.10304262 2995:0.14483278 4303:0.031812973 4357:-0.034585028 4545:0.16342476 4553:0.05730706 4882:-0.068419324 7015:0.065796531 7043:0.039419637 7083:0.016243243 7131:0.0023637462 7146:0.041678045 7237:0.095685106 7257:0.13110468 7380:0.015669585 7462:0.058099341 7569:0.016333542 7610:0.078176169 7700:0.025110748 7729:0.0056024257 7790:0.071035677 7857:0.0025149044 7928:0.010613638 7965:0.078916918 7966:0.034884134 7995:0.14483278 8221:0.026834815 8264:0.027325884 8317:0.022983252 8328:0.086744198 8566:0.070811918 8625:0.0016552445 8680:0.045167831 8971:0.10304262 9025:0.024169893 9103:0.007543878 9136:0.008022792 9282:0.0034271543 9307:0.054994815 9313:0.16240959 9349:0.032527597 9352:0.05340543 9355:0.03554124 9405:0.086546786 9520:0.05325943 9546:0.22802496 9586:0.040884984 9600:0.011656483 9668:0.035570746 9724:0.030221799 9731:0.025088206 10213:0.028400719 10218:0.015211307 10237:0.015073072 10254:0.025346454 10287:0.006200939 10355:0.15676909 10520:0.015276887 10528:0.051412545 10553:0.097425009 10567:0.0073771196 10576:0.026726248 10712:0.016261107 10713:0.024695584 10850:0.077014079 10882:0.0060317299 10890:0.20132896 10901:0.039923056 10966:0.050192991 10983:0.043949017 20303:0.031812973 20357:-0.034585028 20545:0.16342476 20553:0.05730706 20882:-0.068419324 
63018.41663599784 15:0.087448364 43:0.052391558 83:0.021588449 131:0.0031415903 146:0.055393146 213:0.037746617 214:0.075981212 218:0.02021693 221:0.035665416 237:0.12717245 254:0.033687276 257:0.17424763 264:0.036318083 287:0.0082414978 303:0.042281749 317:0.030546409 328:0.11528933 355:0.065870997 380:0.020826016 462:0.07721824 528:0.068331003 545:0.21720336 553:0.12948491 566:0.094114177 567:0.0098047272 569:0.021708462 579:0.0079465492 595:0.050114414 610:0.1039018 625:0.00219994 680:0.060031325 700:0.033374006 712:0.021612191 713:0.032822223 729:0.0074460303 790:0.094411569 850:0.1023573 855:0.090553425 857:0.0033424905 890:0.14003762 901:0.053060638 928:0.014106294 965:0.10488631 966:0.066710127 971:0.13695112 983:0.058411432 995:0.19249327 1043:0.052391558 1083:0.021588449 1146:0.055393146 1213:0.037746617 1218:0.02021693 1237:0.12717245 1254:0.033687276 1287:0.0082414978 1355:0.065870997 1380:0.020826016 1462:0.07721824 1528:0.068331003 1553:0.12948491 1567:0.0098047272 1610:0.1039018 1700:0.033374006 1712:0.021612191 1713:0.032822223 1790:0.094411569 1850:0.1023573 1890:0.14003762 1901:0.053060638 1966:0.066710127 1983:0.058411432 1995:0.19249327 2015:0.087448364 2131:0.0031415903 2221:0.035665416 2257:0.17424763 2264:0.036318083 2317:0.030546409 2328:0.11528933 2566:0.094114177 2569:0.021708462 2625:0.00219994 2680:0.060031325 2729:0.0074460303 2857:0.0033424905 2928:0.014106294 2965:0.10488631 2971:0.13695112 3214:0.075981212 3523:-0.025845519 3579:0.0079465492 3595:0.050114414 3855:0.090553425 4303:0.042281749 4357:-0.045966012 4545:0.21720336 4553:0.07616524 4882:-0.090934246 5213:0.037746617 5218:0.02021693 5237:0.020033207 5254:0.033687276 5287:0.0082414978 5355:0.065870997 5528:0.068331003 5553:0.12948491 5567:0.0098047272 5712:0.021612191 5713:0.032822223 5850:0.1023573 5890:0.14003762 5901:0.053060638 5966:0.066710127 5983:0.058411432 6043:0.052391558 6083:0.021588449 6146:0.055393146 6237:0.12717245 6380:0.020826016 6462:0.07721824 6610:0.1039018 6700:0.033374006 6790:0.094411569 6966:0.046363545 6995:0.19249327 7015:0.087448364 7131:0.0031415903 7221:0.035665416 7257:0.17424763 7264:0.036318083 7317:0.030546409 7328:0.11528933 7566:0.094114177 7569:0.021708462 7625:0.00219994 7680:0.060031325 7729:0.0074460303 7857:0.0033424905 7928:0.014106294 7965:0.10488631 7971:0.13695112 15303:0.042281749 15357:-0.045966012 15545:0.21720336 15553:0.07616524 15882:-0.090934246 17214:0.075981212 17523:-0.025845519 17579:0.0079465492 17595:0.050114414 17855:0.090553425 
6089.130495658167 25:0.02035729 33:0.0081210792 43:0.033201512 64:0.083668311 81:0.010203428 83:0.013681005 87:0.025218441 101:0.11356986 103:0.019127579 131:0.0019908846 136:0.0067572622 140:0.0044775679 156:0.02916355 195:0.012866979 205:0.1328904 213:0.023920738 218:0.012811847 237:0.080591563 253:0.12773592 254:0.021348258 257:0.11042399 264:0.02301545 282:0.0028865488 287:0.0052227916 303:0.026794737 307:0.046319833 313:0.1367908 317:0.019357832 326:0.019372159 333:0.021200218 349:0.027396635 352:0.044981161 355:0.13204005 356:0.077551143 377:0.050233424 380:0.013197836 405:0.072894739 422:0.047350755 474:0.013307157 515:0.084941235 520:0.044858191 528:0.043302637 545:0.13764584 546:0.19205589 548:0.050014946 553:0.082057011 555:0.038005863 564:0.00066941153 567:0.0062134393 576:0.022510402 586:0.034435713 592:0.0037526076 600:0.0098177681 610:0.065844518 612:0.047591953 625:0.0013941432 668:0.070438012 686:0.030630251 700:0.021149733 701:0.060320968 712:0.01369605 713:0.020800058 724:0.025454557 729:0.0047186889 731:0.021130747 789:0.069137116 790:0.05983038 801:0.024394947 804:0.034149444 850:0.064865739 868:0.067635385 882:0.0050802739 890:0.16957096 901:0.033625521 928:0.0089394231 931:0.094862345 940:0.010522344 956:0.041594853 966:0.042275457 971:0.086788489 983:0.037016419 994:0.017235489 1025:0.02035729 1101:0.083886811 1103:0.006353893 1136:0.0067572622 1195:0.012866979 1213:0.023920738 1253:0.12773592 1282:0.0028865488 1287:0.0052227916 1307:0.046319833 1313:0.1367908 1349:0.027396635 1352:0.044981161 1355:0.13204005 1405:0.072894739 1520:0.044858191 1546:0.19205589 1553:0.082057011 1555:0.038005863 1576:0.022510402 1586:0.034435713 1592:0.0037526076 1600:0.0098177681 1668:0.057602318 1701:0.060320968 1724:0.025454557 1731:0.021130747 1801:0.024394947 1850:0.064865739 1882:0.0050802739 1890:0.16957096 1901:0.033625521 1931:0.094862345 2043:0.033201512 2083:0.013681005 2131:0.0019908846 2218:0.012811847 2237:0.080591563 2254:0.021348258 2257:0.11042399 2264:0.02301545 2317:0.019357832 2355:0.041743685 2380:0.013197836 2528:0.043302637 2567:0.0062134393 2610:0.065844518 2625:0.0013941432 2700:0.021149733 2712:0.01369605 2713:0.020800058 2729:0.0047186889 2790:0.05983038 2928:0.0089394231 2966:0.042275457 2971:0.086788489 2983:0.037016419 3033:0.0081210792 3064:0.083668311 3081:0.010203428 3087:0.025218441 3101:0.11356986 3103:0.019127579 3140:0.0044775679 3156:0.02916355 3205:0.1328904 3326:0.019372159 3333:0.021200218 3356:0.077551143 3377:0.050233424 3422:0.047350755 3474:0.013307157 3515:0.084941235 3548:0.050014946 3555:0.037326674 3564:0.00066941153 3612:0.047591953 3668:0.070438012 3686:0.030630251 3701:0.039834319 3789:0.069137116 3804:0.034149444 3868:0.067635385 3940:0.010522344 3956:0.041594853 3994:0.017235489 4303:0.026794737 4357:-0.029129523 4545:0.13764584 4553:0.04826734 4882:-0.057626736 5025:0.02035729 5103:0.006353893 5282:0.0028865488 5307:0.046319833 5313:0.1367908 5349:0.027396635 5355:0.029934901 5405:0.051928246 5520:0.044858191 5546:0.19205589 5724:0.025454557 5731:0.021130747 6213:0.023920738 6287:0.0052227916 6313:0.11908525 6355:0.13204005 6405:0.072894739 6520:0.012867083 6546:0.0049932708 6553:0.082057011 6576:0.022510402 6850:0.064865739 6882:0.0050802739 6890:0.16957096 6901:0.033625521 7043:0.033201512 7083:0.013681005 7131:0.0019908846 7218:0.012811847 7237:0.080591563 7254:0.021348258 7257:0.11042399 7355:0.041743685 7380:0.013197836 7528:0.043302637 7567:0.0062134393 7610:0.065844518 7700:0.021149733 7712:0.01369605 7713:0.020800058 7729:0.0047186889 7790:0.05983038 7928:0.0089394231 7966:0.042275457 7983:0.037016419 8053:-0.0046042804 8264:0.02301545 8317:0.019357832 8625:0.0013941432 8971:0.086788489 9101:0.083886811 9136:0.0067572622 9195:0.012866979 9253:0.12773592 9307:0.039712036 9313:0.023868589 9352:0.044981161 9546:0.12735267 9555:0.038005863 9586:0.034435713 9592:0.0037526076 9600:0.0098177681 9668:0.057602318 9701:0.060320968 9801:0.024394947 9931:0.094862345 13064:0.083668311 13081:0.010203428 13087:0.025218441 13101:0.11356986 13103:0.019127579 13140:0.0044775679 13156:0.02916355 13205:0.1328904 13356:0.031411411 13422:0.047350755 13474:0.013307157 13548:0.050014946 13555:0.037326674 13612:0.047591953 13668:0.070438012 13686:0.030630251 13701:0.039834319 13804:0.034149444 16303:0.026794737 16357:-0.029129523 16545:0.13764584 16553:0.04826734 16882:-0.057626736 17033:0.0081210792 17326:0.019372159 17333:0.021200218 17356:0.077551143 17377:0.050233424 17515:0.084941235 17548:0.023717681 17564:0.00066941153 17612:0.015272905 17789:0.069137116 17868:0.067635385 17940:0.010522344 17956:0.041594853 17994:0.017235489 
25873.9146905908 33:0.010233628 64:0.10543308 75:0.093222682 81:0.012857661 87:0.031778554 101:0.14311297 103:0.024103266 136:0.0085150395 140:0.0056423247 156:0.03674991 195:0.016214087 205:0.16745939 253:0.16096406 303:0.033764894 307:0.050042391 313:0.030077563 326:0.02441147 333:0.026715064 352:0.056682181 356:0.097724645 377:0.063300723 422:0.059668181 430:0.090876224 474:0.016768769 515:0.10703713 545:0.17345187 546:0.24201569 548:0.063025413 553:0.060823199 555:0.047892388 564:0.0008435466 586:0.043393529 588:0.138248 592:0.0047287794 600:0.01237168 612:0.059972123 668:0.088761163 686:0.038598147 701:0.076012356 789:0.087121863 801:0.030740843 804:0.043032793 816:0.012337637 868:0.085229485 893:0.078483192 931:0.11953904 940:0.013259538 956:0.052414988 994:0.021718984 1081:0.012857661 1101:0.14311297 1103:0.024103266 1136:0.0085150395 1195:0.016214087 1205:0.16745939 1253:0.16096406 1307:0.050042391 1313:0.030077563 1352:0.056682181 1356:0.033200549 1546:0.24201569 1548:0.063025413 1555:0.047892388 1586:0.043393529 1592:0.0047287794 1600:0.01237168 1612:0.045521367 1668:0.088761163 1701:0.076012356 1801:0.030740843 1804:0.043032793 1931:0.11953904 3033:0.010233628 3064:0.10543308 3075:0.093222682 3087:0.031778554 3140:0.0056423247 3156:0.03674991 3326:0.02441147 3333:0.026715064 3356:0.097724645 3377:0.063300723 3422:0.059668181 3430:0.090876224 3474:0.016768769 3515:0.10703713 3548:0.029887399 3564:0.0008435466 3588:0.138248 3612:0.059972123 3686:0.038598147 3789:0.087121863 3804:0.035180204 3816:0.012337637 3868:0.085229485 3893:0.078483192 3940:0.013259538 3956:0.052414988 3994:0.021718984 4303:0.033764894 4357:-0.036707032 4545:0.17345187 4553:0.060823199 4882:-0.072617269 5136:0.0085150395 5195:0.016214087 5307:0.050042391 5313:0.030077563 5352:0.056682181 5546:0.24201569 5586:0.043393529 5600:0.01237168 5668:0.037753229 5801:0.030740843 5931:0.11953904 9081:0.012857661 9101:0.14311297 9103:0.024103266 9205:0.16745939 9253:0.16096406 9356:0.033200549 9548:0.063025413 9555:0.047892388 9592:0.0047287794 9612:0.045521367 9668:0.088761163 9701:0.076012356 9804:0.043032793 13064:0.10543308 13087:0.031778554 13140:0.0056423247 13156:0.03674991 13326:0.014825044 13333:0.026715064 13356:0.03958251 13422:0.059668181 13474:0.016768769 13515:0.10703713 13564:0.0008435466 13612:0.059972123 13686:0.038598147 13789:0.087121863 13804:0.035180204 13956:0.052414988 13994:0.021718984 16303:0.033764894 16357:-0.036707032 16545:0.17345187 16553:0.060823199 16882:-0.072617269 17033:0.010233628 17075:0.093222682 17326:0.02441147 17356:0.097724645 17377:0.063300723 17430:0.090876224 17548:0.029887399 17588:0.138248 17612:0.019245869 17816:0.012337637 17868:0.085229485 17893:0.078483192 17940:0.013259538 
18005.95893242284 15:0.077288388 43:0.046304572 83:0.019080247 131:0.0027765922 146:0.048957429 213:0.033361118 214:0.06715352 218:0.017868075 221:0.031521716 237:0.11239723 254:0.029773402 257:0.15400309 264:0.032098555 287:0.0072839795 303:0.037369347 317:0.026997449 328:0.10189472 355:0.18414999 380:0.018406396 462:0.068246826 520:0.01794511 528:0.060392131 545:0.19196812 553:0.11444102 566:0.08317975 567:0.0086655888 569:0.019186317 576:0.031394188 579:0.0070232987 595:0.044291993 610:0.091830223 625:0.0019443453 680:0.053056731 700:0.029496528 712:0.019101231 713:0.029008853 729:0.0065809313 790:0.083442591 850:0.090465166 855:0.080032696 857:0.0029541514 882:0.0070852168 890:0.23649257 901:0.046895917 928:0.012467389 965:0.09270035 966:0.058959573 971:0.12103978 983:0.051625042 995:0.17012891 1043:0.046304572 1083:0.019080247 1213:0.033361118 1218:0.017868075 1237:0.11239723 1254:0.029773402 1287:0.0072839795 1355:0.18414999 1380:0.018406396 1520:0.01794511 1528:0.060392131 1553:0.11444102 1567:0.0086655888 1576:0.031394188 1610:0.091830223 1700:0.029496528 1712:0.019101231 1713:0.029008853 1790:0.083442591 1850:0.090465166 1882:0.0070852168 1890:0.23649257 1901:0.046895917 1966:0.058959573 1983:0.051625042 2015:0.077288388 2131:0.0027765922 2146:0.048957429 2221:0.031521716 2257:0.15400309 2264:0.032098555 2317:0.026997449 2328:0.10189472 2462:0.068246826 2566:0.08317975 2569:0.019186317 2625:0.0019443453 2680:0.053056731 2729:0.0065809313 2857:0.0029541514 2928:0.012467389 2965:0.09270035 2971:0.12103978 2995:0.17012891 3214:0.06715352 3523:-0.02284272 3579:0.0070232987 3595:0.044291993 3855:0.080032696 4303:0.037369347 4357:-0.040625562 4545:0.19196812 4553:0.067316167 4882:-0.080369272 5213:0.033361118 5287:0.0072839795 5355:0.18414999 5520:0.01794511 5553:0.11444102 5576:0.031394188 5850:0.090465166 5882:0.0070852168 5890:0.23649257 5901:0.046895917 6043:0.046304572 6083:0.019080247 6218:0.017868075 6237:0.11239723 6254:0.029773402 6355:0.058217936 6380:0.018406396 6528:0.060392131 6567:0.0086655888 6610:0.091830223 6700:0.029496528 6712:0.019101231 6713:0.029008853 6790:0.083442591 6966:0.058959573 6983:0.051625042 7015:0.077288388 7146:0.048957429 7462:0.068246826 7569:0.019186317 7857:0.0029541514 7965:0.09270035 7995:0.17012891 8131:0.0027765922 8221:0.031521716 8257:0.15400309 8264:0.032098555 8317:0.026997449 8328:0.10189472 8566:0.08317975 8625:0.0019443453 8680:0.053056731 8729:0.0065809313 8928:0.012467389 8971:0.12103978 16303:0.037369347 16357:-0.040625562 16545:0.19196812 16553:0.067316167 16882:-0.080369272 17214:0.06715352 17523:-0.02284272 17579:0.0070232987 17595:0.044291993 17855:0.080032696 
19375.88815579108 33:0.0092958888 64:0.095771917 75:0.084680395 81:0.011679473 87:0.028866586 101:0.12999908 103:0.021894608 140:0.0051253008 156:0.0333824 205:0.15211456 253:0.14621442 303:0.03067091 320:0.10450968 326:0.02217457 333:0.024267078 349:0.0091814881 356:0.088769828 377:0.057500279 422:0.054200598 430:0.08254895 474:0.015232194 502:0.10229658 515:0.097228983 545:0.15755793 548:0.057250196 549:0.0067410946 553:0.055249778 555:0.043503858 564:0.00076624978 588:0.1255799 592:0.0042954665 600:0.030843219 612:0.054476689 668:0.080627698 686:0.035061278 701:0.069047105 722:0.083428477 748:0.068689704 789:0.079138613 804:0.039089563 816:0.011207101 868:0.077419639 893:0.07129153 916:0.30573842 940:0.012044525 956:0.047612038 994:0.019728805 1064:0.095771917 1081:0.011679473 1087:0.028866586 1101:0.12999908 1103:0.021894608 1140:0.0051253008 1156:0.0333824 1205:0.15211456 1253:0.14621442 1326:0.013466578 1333:0.024267078 1356:0.035955441 1422:0.054200598 1474:0.015232194 1515:0.097228983 1548:0.057250196 1555:0.043503858 1564:0.00076624978 1592:0.0042954665 1612:0.054476689 1668:0.080627698 1686:0.035061278 1701:0.069047105 1789:0.079138613 1804:0.039089563 1956:0.047612038 1994:0.019728805 2303:0.03067091 2357:-0.033343451 2545:0.15755793 2553:0.055249778 2882:-0.065963121 3033:0.0092958888 3075:0.084680395 3320:0.10450968 3326:0.02217457 3349:0.0091814881 3356:0.088769828 3377:0.057500279 3430:0.08254895 3502:0.10229658 3548:0.027148722 3549:0.0067410946 3588:0.1255799 3600:0.030843219 3612:0.01748231 3722:0.083428477 3748:0.068689704 3816:0.011207101 3868:0.077419639 3893:0.07129153 3916:0.30573842 3940:0.012044525 5081:0.011679473 5101:0.12999908 5103:0.021894608 5205:0.15211456 5253:0.14621442 5356:0.030158278 5548:0.057250196 5555:0.043503858 5592:0.0042954665 5612:0.041350101 5668:0.080627698 5701:0.069047105 5804:0.039089563 9064:0.095771917 9087:0.028866586 9140:0.0051253008 9156:0.0333824 9326:0.013466578 9333:0.024267078 9356:0.035955441 9422:0.054200598 9474:0.015232194 9515:0.097228983 9564:0.00076624978 9612:0.054476689 9686:0.035061278 9789:0.079138613 9804:0.031956532 9956:0.047612038 9994:0.019728805 12303:0.03067091 12357:-0.033343451 12545:0.15755793 12553:0.055249778 12882:-0.065963121 13033:0.0092958888 13326:0.02217457 13356:0.088769828 13377:0.057500279 13430:0.08254895 13548:0.027148722 13612:0.01748231 13816:0.011207101 13868:0.077419639 13893:0.07129153 13940:0.012044525 17075:0.084680395 17320:0.10450968 17349:0.0091814881 17502:0.10229658 17549:0.0067410946 17588:0.1255799 17600:0.030843219 17722:0.083428477 17748:0.068689704 17916:0.30573842 
7178.806285380407 1:0.0070306208 2:0.0019218681 3:0.0030062949 7:0.013202099 8:0.040674366 10:0.019870701 14:0.0068353441 16:0.010844329 17:0.02572998 22:0.0062043098 25:0.0066413594 26:0.033043814 28:0.012195867 29:0.005960907 30:0.0037573884 33:0.0089710683 36:0.020145375 40:0.032506407 41:0.0060670405 42:0.013421605 43:0.0223588 45:0.012533224 46:0.02830658 48:0.023368294 49:0.00557306 50:0.0081450217 54:0.048572085 55:0.036772671 57:0.046939487 59:0.012174905 60:0.014950769 61:0.0069574106 62:0.018103879 63:0.014898764 64:0.0042186768 66:0.022021997 70:0.054992518 72:0.019083092 75:0.01627337 76:0.0085760549 77:0.048187795 84:0.018846532 85:0.011796605 87:0.021417908 91:0.0052238729 93:0.0053487534 97:0.0090218309 101:0.043381469 104:0.035438324 105:0.010074629 106:0.0024176711 110:0.018675289 111:0.015024962 116:0.0098620037 118:0.011753553 119:0.010594206 120:0.024576506 121:0.023517042 124:0.051093078 125:0.0094354928 127:0.045413338 129:0.036054504 132:0.010521004 133:0.0074166775 137:0.0026233601 138:0.022054403 139:0.035163465 140:0.012070389 141:0.044879505 143:0.0048280645 144:0.0192407 145:0.026443381 146:0.017772956 148:0.025234403 150:0.045266497 152:0.041007376 156:0.026262472 158:0.0073287303 159:0.0014820355 160:0.019993395 161:0.00048208529 162:3.1750614e-05 163:0.024394982 167:0.00324851 171:0.062541512 172:0.0012114839 173:0.013662176 176:0.014401537 177:0.016449094 179:0.046108549 180:0.017686604 181:0.0086574125 183:0.029705323 184:0.0028242748 185:0.0064006626 186:0.015600481 188:0.0028633987 193:0.059759722 204:0.0063691719 205:0.045702353 206:0.044530002 207:0.040423532 211:0.008739067 212:0.00092082666 213:0.020041487 215:0.023985635 220:0.015679954 223:0.021604613 225:0.018583066 226:0.014222005 227:0.0023162939 228:0.018821987 229:0.014952291 236:0.029529157 238:0.01021734 239:0.0079376672 240:0.0023717117 242:0.010379169 245:0.048481746 249:0.010405183 250:0.0046916835 253:0.013619312 256:0.0043713005 261:0.0031548733 262:0.032368701 266:0.01822649 269:0.033140975 270:0.0096551372 274:0.008441946 279:0.036312213 280:0.024811163 282:0.0094901534 283:0.035985267 285:0.014207813 287:0.031638032 290:0.041035611 295:0.0013270172 296:0.004876277 297:0.019694111 299:0.024509741 301:0.038146582 304:0.016926378 305:0.0050662784 306:0.015415749 308:0.00072345805 310:0.014305236 313:0.0059701992 314:0.023541456 318:0.039701915 319:4.2473943e-06 320:0.031971882 321:0.02163324 324:0.00026198953 326:0.017745417 328:0.00066438962 330:0.021956502 331:0.0027396221 332:0.0012664044 333:0.03965311 334:0.01347663 335:0.011756942 336:0.0022966203 337:0.0097540372 338:0.011484308 341:0.00080570766 342:0.036184639 344:0.050739749 346:0.024327233 347:0.012452124 348:0.03078461 349:0.013396889 352:0.013072749 353:0.015165485 362:0.0127083 363:0.014052142 367:0.031027118 372:0.010458571 373:0.0066988766 376:0.013553813 377:0.0026781387 378:0.024394318 382:0.032414367 383:0.035841483 384:0.018720162 385:0.037492246 390:0.016040641 396:0.00053373502 398:0.036300916 399:0.026281505 400:0.033932883 403:0.0045178281 405:0.016002173 406:0.00116025 409:0.030572565 410:0.0014052701 411:0.016672385 412:0.01101697 414:0.028576577 416:0.021135956 417:0.003734442 419:0.047745478 422:0.04104285 425:0.024924485 426:0.00059681511 429:0.050896044 430:0.091608068 431:0.0010986301 432:0.032043528 433:0.002231026 435:0.011060296 436:0.015930207 437:0.019721455 438:0.011739416 439:0.021381585 440:0.014640047 441:0.020903806 444:0.016134745 447:0.031408348 448:0.038447492 449:0.05236291 452:0.015578779 454:4.8207926e-06 457:0.013635494 458:0.014192475 459:0.017905762 463:0.048875931 465:0.015431481 467:0.030252544 468:0.012401088 471:0.019300374 477:0.0022675343 478:0.017077918 482:0.021807266 485:0.017267668 487:0.020770241 488:0.011893828 490:0.034741245 491:0.040299271 492:0.018148934 493:0.0025300718 495:0.0061148441 496:0.020316834 499:0.019449791 501:0.0077463135 502:0.023168406 504:0.016430877 505:0.019556131 506:0.042270948 509:0.027010775 510:0.021957144 512:0.010643801 513:0.010454904 514:0.023372862 515:0.056526606 516:0.027956708 517:0.0035430189 519:0.026949361 520:0.015584824 524:0.015633347 526:0.026313646 528:7.4581566e-05 529:0.0087235019 533:0.017308085 534:0.027267169 535:0.019062693 537:0.038769214 538:0.00050287087 540:0.019493186 541:0.012983133 543:0.020500203 549:0.014576115 551:0.020414214 552:0.024684386 553:0.014772747 554:0.016022122 558:0.01086494 560:0.019076491 563:0.024272416 566:0.026989601 568:0.003378601 570:0.0085833054 571:0.01485782 572:0.029234132 573:0.040545591 575:0.021088289 579:0.051972806 580:0.012605074 581:0.014481566 583:0.012711721 585:0.010146999 586:0.0094283845 590:0.016371987 592:0.0079335657 593:0.0082540335 594:0.025817007 595:0.019192235 597:0.0093829268 598:0.010772477 600:0.015600283 602:0.011665117 603:0.0098024846 604:0.0069757618 606:0.00069653532 608:0.015945021 609:0.021041195 610:0.01435255 613:0.027643146 615:0.0089738709 620:0.025678878 623:0.010051812 626:0.033849307 627:0.014573304 629:0.017349826 630:0.0033936187 631:0.024427294 636:0.018747293 637:0.011249335 638:0.010852781 640:0.034189442 642:0.0056114253 644:0.0045397699 645:0.0018292655 650:0.031519463 654:0.023164712 655:0.012119181 657:4.7512404e-06 660:0.018212141 661:0.016715511 662:0.015983585 663:0.0079805788 664:0.040246404 665:0.02923279 666:0.028246346 667:0.014344868 668:0.019325648 669:0.032867568 670:0.012564019 672:0.0080768599 676:0.01830126 677:0.015531052 679:0.015823708 683:0.027106735 684:0.042904843 687:0.018051268 688:0.0025661105 690:0.012884566 691:0.023969516 692:0.014046619 693:0.049091163 705:0.0070298707 707:0.019340778 708:0.016711836 711:0.030495436 716:0.033194873 717:0.017041192 718:0.012768538 720:0.045444185 722:0.043215373 723:0.021857321 724:0.016862889 726:0.014186059 727:0.015407873 728:0.01279774 731:0.016825518 732:0.045177778 733:0.013231463 734:0.025457024 738:0.055402063 742:0.026416194 743:0.039245754 745:0.010801421 747:0.02953536 748:0.046425535 749:0.037344697 750:0.0051983315 751:0.014905894 752:0.030402916 754:0.018563256 755:0.018304399 756:0.0080771397 759:0.0069160334 760:0.012831118 761:0.0051579268 762:0.023904118 763:0.037146929 765:0.001113259 770:0.0092991494 772:0.016966721 773:0.0049959481 776:0.035824545 777:0.013315281 781:0.010128478 787:0.014824972 788:0.014791802 789:0.035403912 790:0.0032704779 791:0.030066246 793:0.0077127362 795:0.02000731 796:0.029622967 798:0.023088659 799:0.012377491 801:0.059071535 802:0.0034712407 803:0.046456355 805:0.021241218 806:5.1777745e-06 810:0.00989734 811:0.040740573 812:0.047869235 813:0.016793689 814:0.01968478 815:0.0027713844 816:0.0041025946 818:0.030340394 819:0.0095742106 820:0.053180103 822:0.0065814269 831:0.023002604 832:0.012457655 834:0.017966516 835:0.027707399 836:0.0037709331 838:0.010757629 840:0.0038501023 841:0.0014272266 843:0.026827152 844:0.011618113 846:0.054009694 853:0.0069867379 855:0.025707289 858:0.053757 860:0.0080676832 861:0.017353784 863:0.010783334 867:0.052337359 868:0.00383528 869:0.0069361135 870:0.026832102 874:0.022119559 875:0.0092944683 877:0.020947219 879:0.0042669209 882:0.015839735 887:0.01170931 888:0.01478698 891:0.0417162 892:0.022840749 893:0.037784374 895:0.010221796 898:0.039488962 899:0.023743833 900:0.031277187 901:0.011533927 903:0.020774934 905:0.0032928052 907:0.049988831 908:0.033834446 909:0.0029140553 910:0.036912522 911:0.0023976536 914:0.016547189 917:0.0079999866 919:0.021900366 921:0.028067164 923:0.0074725875 927:0.0039880524 928:0.006601673 929:0.005805936 932:0.029238982 939:0.032764456 941:0.0016292456 942:0.015894093 944:0.014204763 945:0.030253302 946:0.00078792725 950:0.012869821 951:0.015721153 952:0.049641126 954:0.0016947988 955:0.0086179576 956:0.024122388 957:0.03030639 958:0.008560946 967:0.0054009764 968:0.018218289 970:0.0073964393 972:0.013054013 973:0.0011511505 975:0.03869575 976:0.010639096 981:0.029477552 989:0.010715583 994:0.021611142 995:0.011045162 996:0.019186486 999:0.018932049 1000:0.0062885337 1003:9.2605907e-05 1010:0.0081516728 1026:0.019716489 1028:0.0093581361 1029:0.0035035685 1040:0.032506407 1045:0.012533224 1048:0.013478908 1050:0.0081450217 1054:0.036246949 1055:0.020230361 1057:0.046939487 1066:0.022021997 1070:0.054992518 1075:0.0032568353 1077:0.012416943 1084:0.018846532 1091:0.0052238729 1097:0.0090218309 1101:0.043381469 1104:0.035438324 1105:0.010074629 1110:0.016463413 1116:0.00098648034 1121:0.023517042 1124:0.051093078 1127:0.045413338 1132:0.010521004 1137:0.0026233601 1139:0.035163465 1141:0.044879505 1144:0.0192407 1148:0.025234403 1150:0.00011878389 1152:0.041007376 1159:0.0014820355 1162:3.1750614e-05 1172:0.0012114839 1179:0.046108549 1180:0.017686604 1181:0.0028447626 1183:0.029705323 1185:0.0032448685 1193:0.058982461 1205:0.019724003 1206:0.010524866 1212:0.00092082666 1215:0.023985635 1225:0.018140412 1228:0.018821987 1236:0.029529157 1238:0.01021734 1239:0.0079376672 1240:0.0023717117 1242:0.0099804162 1249:0.010405183 1250:0.0046916835 1261:0.0031548733 1266:0.01822649 1283:0.035985267 1290:0.035053367 1299:0.024509741 1305:0.0050662784 1306:0.015415749 1308:0.00072345805 1314:0.023541456 1318:0.039701915 1326:0.017745417 1328:0.00066438962 1330:0.021956502 1333:0.03965311 1335:0.011756942 1336:0.0022966203 1344:0.041932588 1348:0.0032432417 1353:0.015165485 1362:0.0011335141 1363:0.014052142 1372:0.010458571 1376:0.013553813 1382:0.010818516 1384:0.0016559093 1385:0.027924051 1396:0.00053373502 1398:0.036300916 1400:0.033932883 1409:0.01357061 1411:0.016672385 1416:0.021135956 1419:0.047745478 1426:0.00040426011 1429:0.050896044 1430:0.091608068 1433:0.0016467388 1435:0.011060296 1437:0.019721455 1439:0.0087730065 1440:0.014640047 1447:0.0030544437 1449:0.05236291 1457:0.0033881226 1458:0.0088287562 1463:0.042592789 1465:0.015431481 1467:0.002930029 1468:0.012401088 1477:0.0022675343 1488:0.0026552779 1490:0.011991158 1491:0.040299271 1492:0.016392255 1496:0.020316834 1499:0.019449791 1506:0.042270948 1510:0.014192723 1514:0.007373071 1519:0.026949361 1526:0.011371 1533:0.0051787832 1534:0.027267169 1537:0.025867758 1552:0.024684386 1554:0.010954548 1560:0.019076491 1563:0.009502495 1566:0.026989601 1568:0.003378601 1579:0.051972806 1580:0.012605074 1583:0.012711721 1592:0.0079335657 1594:0.016784273 1595:0.015544673 1602:0.0072226087 1610:0.01435255 1613:0.027643146 1620:0.017964145 1636:0.018747293 1637:0.011249335 1638:0.010852781 1640:0.034189442 1650:0.013048602 1655:0.012119181 1661:0.016715511 1662:0.015983585 1670:0.012564019 1679:0.015823708 1684:0.0049334865 1687:0.018051268 1691:0.023969516 1705:0.0018642145 1707:0.019340778 1711:0.021752071 1716:0.020339203 1717:0.0063623143 1720:0.02186039 1726:0.014186059 1734:0.025457024 1747:0.02953536 1749:0.01254388 1750:0.0051983315 1752:0.030402916 1754:0.0059544521 1755:0.011630411 1759:0.0069160334 1760:0.012831118 1762:0.0085074319 1763:0.027771415 1770:0.0092991494 1772:0.0063823 1776:0.035824545 1781:0.010128478 1789:0.019765733 1790:0.0032704779 1791:0.030066246 1793:0.0077127362 1796:0.029622967 1801:0.013989707 1803:0.046324441 1805:0.021241218 1811:0.040740573 1815:0.0027713844 1816:0.0041025946 1819:0.0095742106 1820:0.053180103 1831:0.01605272 1834:0.017966516 1835:0.0021828017 1838:0.0014469933 1840:0.0038501023 1855:0.010600799 1858:0.053757 1860:0.0080676832 1861:0.017353784 1868:0.00013477845 1874:0.016929562 1887:0.0095463608 1891:0.021084672 1892:0.022840749 1893:0.036703693 1898:0.039488962 1899:0.023743833 1900:0.031277187 1901:0.010715064 1903:0.020774934 1907:0.028632699 1908:0.033834446 1910:0.014023066 1919:0.00081347569 1927:0.0039880524 1928:0.006601673 1929:0.0047091338 1932:0.029238982 1939:0.029359797 1944:0.014204763 1950:0.012869821 1951:0.015721153 1956:0.0088920322 1957:0.02608277 1958:0.008560946 1967:0.0054009764 1972:0.0097229787 1976:0.010639096 1989:0.010715583 1995:0.011045162 1996:0.019186486 1999:0.018932049 2000:0.0027973369 2002:0.0019218681 2003:0.0030062949 2008:0.040674366 2010:0.019870701 2014:0.0068353441 2025:0.0066413594 2026:0.019401816 2029:0.005960907 2030:0.0037573884 2033:0.0089710683 2036:0.020145375 2041:0.0060670405 2042:0.008754218 2043:0.0223588 2046:0.02830658 2048:0.0047246318 2050:0.0051981938 2054:0.048572085 2055:0.036772671 2057:0.031185509 2059:0.012174905 2060:0.014950769 2061:0.0069574106 2062:0.018103879 2063:0.014898764 2072:0.019083092 2075:0.01627337 2076:0.0085760549 2084:0.0074875702 2085:0.011796605 2087:0.021417908 2101:0.011509316 2104:0.019163908 2105:0.0037415083 2106:0.0024176711 2116:0.0098620037 2118:0.011753553 2119:0.010594206 2124:0.019504951 2127:0.041983285 2129:0.036054504 2133:0.0074166775 2137:0.001592818 2138:0.017310173 2141:0.0178245 2143:0.0048280645 2144:0.011096742 2145:0.026443381 2150:0.045266497 2152:0.03607604 2156:0.026262472 2158:0.0073287303 2160:0.019993395 2163:0.012374944 2167:0.00324851 2171:0.030668163 2173:0.013662176 2176:0.014401537 2177:0.016449094 2181:0.0086574125 2183:0.0013916145 2184:0.0028242748 2185:0.0064006626 2186:0.015600481 2188:0.0028633987 2193:0.030542394 2204:0.0063691719 2205:0.045702353 2206:0.044530002 2213:0.020041487 2220:0.011218387 2223:0.021604613 2225:0.018583066 2226:0.014222005 2227:0.0023162939 2229:0.014952291 2236:0.010439375 2238:0.0090352394 2242:0.010379169 2245:0.048481746 2250:0.0028897489 2256:0.0029992403 2262:0.032368701 2266:0.010440033 2270:0.0096551372 2274:0.008441946 2282:0.00026673952 2283:0.004193751 2285:0.014207813 2287:0.031638032 2290:0.041035611 2295:0.0013270172 2296:0.004876277 2297:0.010516217 2301:0.038146582 2310:0.014305236 2313:0.0059701992 2318:0.013636279 2319:4.2473943e-06 2320:0.031971882 2321:0.02163324 2324:0.00026198953 2332:0.0012664044 2334:0.0051925062 2337:0.0097540372 2338:0.011484308 2344:0.050739749 2346:0.024327233 2347:0.0014620285 2348:0.03078461 2349:0.013396889 2352:0.013072749 2353:0.014756887 2362:0.0030700625 2363:0.0035274641 2367:0.031027118 2373:0.0066988766 2376:0.013147711 2378:0.024394318 2382:0.032414367 2384:0.018720162 2385:0.037492246 2390:0.016040641 2399:0.026281505 2400:0.016647326 2403:0.0045178281 2405:0.016002173 2406:0.00116025 2410:0.0014052701 2412:0.01101697 2416:0.012504844 2417:0.003734442 2419:0.027384514 2422:0.023512727 2425:0.021912798 2426:0.00059681511 2429:0.015347569 2430:0.024663628 2432:0.032043528 2436:0.015930207 2438:0.011739416 2439:0.021381585 2441:0.020903806 2444:0.016134745 2448:0.0082073883 2454:4.8207926e-06 2458:0.014192475 2463:0.048875931 2467:0.030252544 2468:0.0041668385 2471:0.019300374 2478:0.017077918 2482:0.021807266 2485:0.017267668 2487:0.020770241 2488:0.011893828 2491:0.031081293 2492:0.018148934 2495:0.0061148441 2496:0.00047495681 2499:0.016020969 2502:0.001656217 2504:0.016430877 2505:0.019556131 2509:0.027010775 2510:0.021957144 2512:0.010643801 2513:0.010454904 2514:0.023372862 2516:0.027956708 2517:0.0035430189 2519:0.016593514 2520:0.015584824 2526:0.026313646 2528:7.4581566e-05 2529:0.0087235019 2533:0.017308085 2534:0.012621213 2537:0.038769214 2540:0.019493186 2541:0.012983133 2543:0.020500203 2549:0.014178458 2551:0.020414214 2552:0.0025550602 2553:0.014772747 2554:0.0090397766 2560:0.0091786656 2570:0.0085833054 2571:0.01485782 2572:0.023132259 2573:0.018716915 2575:0.021088289 2579:0.013360126 2581:0.014481566 2585:0.0057883997 2590:0.016371987 2593:0.0082540335 2594:0.025817007 2595:0.0037641242 2597:0.0093829268 2598:0.010772477 2602:0.011665117 2604:0.0069757618 2606:0.00069653532 2609:0.021041195 2613:0.012774987 2615:0.0089738709 2620:0.025678878 2626:0.033849307 2627:0.014573304 2630:0.0033936187 2631:0.010610323 2636:0.01670144 2640:0.026251307 2642:0.0056114253 2644:0.0045397699 2650:0.031519463 2654:0.022131247 2657:4.7512404e-06 2663:0.0079805788 2665:0.02923279 2666:0.028246346 2667:0.014344868 2672:0.0080768599 2676:0.01830126 2677:0.015531052 2679:0.0089771637 2683:0.027106735 2684:0.042904843 2687:0.0090783284 2688:0.0025661105 2690:0.012884566 2691:0.01897837 2692:0.014046619 2693:0.049091163 2705:0.0070298707 2707:0.007081682 2708:0.016711836 2711:0.030495436 2716:0.033194873 2717:0.017041192 2718:0.012768538 2720:0.045444185 2727:0.015407873 2728:0.01279774 2732:0.0045366323 2733:0.013231463 2734:0.016587613 2742:0.018028876 2743:0.039245754 2747:0.014529979 2748:0.046425535 2749:0.037344697 2752:0.016007582 2754:0.018563256 2755:0.018304399 2761:0.0051579268 2762:0.011267124 2763:0.037146929 2765:0.001113259 2772:0.016966721 2776:0.026963006 2777:0.013315281 2787:0.014824972 2788:0.014791802 2789:0.018466891 2795:0.02000731 2796:0.013937369 2798:0.023088659 2799:0.0096721439 2801:0.059071535 2802:0.0034712407 2803:0.046456355 2805:0.020142825 2806:5.1777745e-06 2810:0.00989734 2811:0.040073029 2818:0.030340394 2819:0.0030400758 2822:0.0065814269 2831:0.023002604 2832:0.012457655 2834:0.012390644 2835:0.027707399 2838:0.010757629 2841:0.0014272266 2843:0.026827152 2844:0.011618113 2846:0.054009694 2855:0.015496397 2858:0.035281755 2861:0.0065433198 2867:0.052337359 2868:0.00383528 2869:0.0069361135 2870:0.026832102 2875:0.0092944683 2877:0.020947219 2879:0.0042669209 2882:0.011725855 2887:0.01170931 2888:0.01478698 2891:0.013012041 2892:0.0016164857 2899:0.010601652 2900:0.014423755 2901:0.011533927 2905:0.0032928052 2907:0.049988831 2908:0.023608984 2909:0.0029140553 2910:0.0076799448 2911:0.0023976536 2914:0.016547189 2917:0.0079999866 2919:0.016898595 2921:0.028067164 2929:0.005805936 2939:0.032764456 2941:0.0016292456 2942:0.015894093 2944:0.0072060074 2952:0.049641126 2954:0.0016947988 2955:0.0086179576 2957:0.03030639 2958:0.0016583971 2968:0.018218289 2973:0.0011511505 2975:0.03869575 3000:0.0062885337 3010:0.012996134 3036:0.020013415 3064:0.0042186768 3087:0.011353085 3110:0.012549884 3138:0.022054403 3144:0.0088677869 3171:0.01138734 3250:0.003584859 3253:0.013619312 3256:0.0043713005 3279:0.012970749 3353:0.014657726 3362:0.0029892296 3377:0.0026781387 3414:0.028576577 3422:0.04104285 3457:0.013635494 3485:0.016117151 3515:0.056526606 3563:0.024272416 3571:0.004691754 3573:0.040545591 3585:0.0070393443 3600:0.015600283 3654:0.023164712 3664:0.040246404 3668:0.019325648 3690:0.0013658525 3723:0.021857321 3756:0.00073905318 3789:0.035403912 3863:0.010783334 3891:0.002128719 3919:0.0140787 3944:0.00087313629 3956:0.024122388 3970:0.0073964393 3972:0.012437529 4001:0.0070306208 4007:0.013202099 4010:0.009792688 4016:0.010844329 4017:0.02572998 4022:0.0062043098 4025:0.0050075015 4026:0.033043814 4028:0.012195867 4042:0.013421605 4048:0.023368294 4049:0.00557306 4064:0.0033196794 4077:0.048187795 4085:0.010710845 4087:0.010289255 4093:0.0053487534 4101:0.014185813 4105:0.0011271507 4110:0.018675289 4111:0.015024962 4119:0.0087714119 4120:0.024576506 4125:0.0094354928 4138:0.018070731 4140:0.012070389 4146:0.017772956 4160:0.0045266938 4161:0.00048208529 4163:0.024394982 4171:0.062541512 4183:0.0011617918 4193:0.059759722 4206:0.018730901 4207:0.040423532 4211:0.008739067 4220:0.015679954 4225:0.0090040621 4236:0.027577096 4253:0.012904766 4269:0.033140975 4279:0.036312213 4280:0.024811163 4282:0.0094901534 4283:0.021873132 4297:0.019694111 4304:0.016926378 4331:0.0027396221 4334:0.01347663 4341:0.00080570766 4342:0.036184639 4347:0.012452124 4349:0.010894868 4353:0.010897347 4362:0.0127083 4383:0.035841483 4385:0.035015603 4399:0.014088087 4400:0.0089405637 4405:0.001439371 4409:0.030572565 4425:0.024924485 4431:0.0010986301 4433:0.002231026 4435:0.0031670025 4437:0.0022281323 4447:0.031408348 4448:0.038447492 4452:0.015578779 4457:0.0055900008 4459:0.017905762 4471:0.0015711798 4477:0.00028817215 4485:0.013845629 4490:0.034741245 4493:0.0025300718 4499:0.010438563 4501:0.0077463135 4502:0.023168406 4515:0.032679975 4520:0.0027534392 4524:0.015633347 4533:0.0053539446 4534:0.02467909 4535:0.019062693 4538:0.00050287087 4549:0.014576115 4554:0.016022122 4558:0.01086494 4563:0.009177531 4572:0.029234132 4573:0.017507053 4585:0.010146999 4586:0.0094283845 4590:0.0025422721 4595:0.019192235 4600:0.015525959 4603:0.0098024846 4608:0.015945021 4623:0.010051812 4629:0.017349826 4631:0.024427294 4640:0.011700578 4645:0.0018292655 4660:0.018212141 4667:0.013264986 4669:0.032867568 4691:0.0067373505 4693:0.032374504 4707:0.016834809 4722:0.043215373 4724:0.016862889 4731:0.016825518 4732:0.045177778 4734:0.0033183582 4738:0.055402063 4742:0.026416194 4745:0.010801421 4751:0.014905894 4755:0.010957883 4756:0.0080771397 4762:0.023904118 4773:0.0049959481 4799:0.012377491 4801:0.012713821 4803:0.015776177 4805:0.01016368 4812:0.047869235 4813:0.016793689 4814:0.01968478 4820:0.019198677 4831:0.020153214 4836:0.0037709331 4846:0.010317625 4853:0.0069867379 4855:0.025707289 4858:0.0155966 4861:0.014245748 4867:0.019878549 4874:0.022119559 4882:0.015839735 4888:0.0069325681 4891:0.0417162 4892:0.014007964 4893:0.037784374 4895:0.010221796 4910:0.036912522 4914:0.013823956 4919:0.021900366 4923:0.0074725875 4932:0.02337554 4945:0.030253302 4946:0.00078792725 4957:0.0031627218 4972:0.013054013 4976:0.0064183381 4981:0.029477552 4994:0.021611142 4999:0.0053569485 5010:0.0081516728 5026:0.0098512835 5040:0.019192908 5050:0.0081450217 5070:0.054992518 5084:0.016463844 5101:0.043381469 5105:0.010074629 5110:0.016463413 5127:0.045413338 5132:0.010521004 5137:0.00031547857 5139:0.035163465 5141:0.044879505 5144:0.0192407 5148:0.025234403 5159:0.0014820355 5181:0.0028447626 5183:0.029705323 5193:0.058982461 5205:0.019724003 5215:0.023985635 5236:0.029529157 5239:0.0079376672 5240:0.0023717117 5242:0.0099804162 5249:0.010405183 5250:0.0046916835 5261:0.0031548733 5283:0.035985267 5299:0.024509741 5306:0.015415749 5308:0.00072345805 5314:0.023541456 5318:0.039701915 5326:0.017745417 5330:0.021956502 5333:0.012528248 5335:0.011756942 5362:0.0011335141 5363:0.014052142 5376:0.013553813 5396:0.00053373502 5400:0.033932883 5409:0.01357061 5429:0.050896044 5430:0.019997112 5437:0.019721455 5440:0.014640047 5457:0.0033881226 5465:0.015431481 5468:0.0032027676 5490:0.011991158 5492:0.016392255 5496:0.020316834 5499:0.019449791 5506:0.0093578506 5526:0.011371 5533:0.0051787832 5537:0.025867758 5554:0.010954548 5563:0.0035661885 5580:0.012605074 5583:0.012711721 5592:0.0079335657 5594:0.016784273 5595:0.015544673 5640:0.034189442 5687:0.018051268 5707:0.019340778 5720:0.02186039 5726:0.014186059 5734:0.025457024 5755:0.011630411 5759:0.0069160334 5789:0.014362704 5791:0.030066246 5796:0.029622967 5801:0.013989707 5805:0.021241218 5815:0.0027713844 5816:0.0041025946 5820:0.053180103 5831:0.0046215935 5834:0.0093956 5835:0.0021828017 5838:0.0014469933 5855:0.010600799 5858:0.053757 5861:0.017353784 5868:0.00013477845 5891:0.021084672 5892:0.022840749 5893:0.036703693 5900:0.014230271 5901:0.010715064 5907:0.028632699 5910:0.014023066 5919:0.00081347569 5939:0.029359797 5950:0.012869821 5951:0.015721153 5956:0.0088920322 5957:0.005699877 5958:0.0055998804 5972:0.0097229787 5996:0.019186486 5999:0.018932049 6003:9.2605907e-05 6026:0.019716489 6029:0.0035035685 6040:0.032506407 6045:0.012533224 6054:0.036246949 6075:0.0032568353 6084:0.018846532 6116:0.00098648034 6124:0.051093078 6137:0.0026233601 6179:0.046108549 6183:0.013282678 6193:0.035803612 6206:0.010524866 6212:0.00092082666 6225:0.018140412 6238:0.007556278 6249:0.0086562876 6266:0.01822649 6290:0.035053367 6314:0.0038166865 6344:0.01030819 6382:0.010818516 6384:0.0016559093 6385:0.027924051 6411:0.016672385 6416:0.021135956 6419:0.047745478 6429:0.0021620808 6439:0.0087730065 6463:0.042592789 6467:0.002930029 6488:0.0026552779 6514:0.007373071 6519:0.026949361 6526:0.01095932 6534:0.027267169 6554:0.0074564998 6595:0.013759307 6613:0.027643146 6620:0.017964145 6655:0.012119181 6679:0.0033643195 6684:0.0049334865 6707:0.0081761757 6711:0.018709366 6716:0.020339203 6717:0.0063623143 6747:0.02953536 6752:0.030402916 6762:0.0085074319 6763:0.027771415 6772:0.0063823 6831:0.01605272 6834:0.017966516 6887:0.0095463608 6899:0.023743833 6900:0.031277187 6908:0.025146193 6928:0.006601673 6929:0.0047091338 6932:0.029238982 6944:0.014204763 6957:0.02608277 6958:0.0023764428 6967:0.0054009764 7000:0.0027973369 7002:0.0019218681 7003:0.0030062949 7008:0.040674366 7026:0.019401816 7030:0.0037573884 7036:0.020145375 7041:0.0060670405 7043:0.0223588 7048:0.0047246318 7054:0.010011785 7055:0.028121425 7057:0.031185509 7059:0.012174905 7061:0.0069574106 7072:0.019083092 7085:0.011796605 7087:0.021417908 7104:0.015126501 7106:0.0024176711 7116:0.0098620037 7119:0.0046911137 7124:0.019504951 7129:0.036054504 7133:0.0074166775 7138:0.017310173 7141:0.0178245 7143:0.0048280645 7145:0.026443381 7150:0.031835032 7152:0.03607604 7158:0.0073287303 7160:0.0020267504 7167:0.00324851 7173:0.013662176 7177:0.016449094 7183:0.0013916145 7185:0.0064006626 7204:0.0063691719 7206:0.017780843 7223:0.021604613 7225:0.018583066 7227:0.0023162939 7229:0.014952291 7236:0.010439375 7238:0.0090352394 7245:0.048481746 7256:0.0029992403 7266:0.0037086766 7285:0.014207813 7290:0.041035611 7296:0.004876277 7297:0.010516217 7301:0.038146582 7319:4.2473943e-06 7332:0.0012664044 7337:0.0032345222 7338:0.011484308 7344:0.024985764 7348:0.007950366 7362:0.0030700625 7363:0.0035274641 7373:0.0066988766 7378:0.024394318 7382:0.032414367 7385:0.025381738 7390:0.016040641 7403:0.0045178281 7406:0.00116025 7410:0.0014052701 7412:0.01101697 7417:0.003734442 7419:0.027384514 7425:0.021912798 7426:0.00059681511 7429:0.015347569 7430:0.024663628 7432:0.032043528 7436:0.015930207 7438:0.011739416 7439:0.021381585 7441:0.020903806 7454:4.8207926e-06 7458:0.014192475 7463:0.048875931 7467:0.011920818 7468:0.0041668385 7482:0.021807266 7485:0.017267668 7487:0.020770241 7491:0.031081293 7495:0.0061148441 7499:0.001092112 7505:0.019556131 7509:0.0012009581 7516:0.0012912471 7517:0.0035430189 7519:0.0071614006 7526:0.026313646 7528:7.4581566e-05 7529:0.0087235019 7534:0.0040653269 7540:0.019493186 7543:0.020500203 7552:0.0025550602 7554:0.0075510595 7570:0.0085833054 7573:0.0085002554 7581:0.014481566 7593:0.0082540335 7604:0.0069757618 7609:0.021041195 7613:0.002813409 7615:0.0089738709 7626:0.033849307 7631:0.010610323 7636:0.01670144 7650:0.031519463 7654:0.022131247 7657:4.7512404e-06 7665:0.02923279 7666:0.028246346 7683:0.027106735 7684:0.042904843 7687:0.0090783284 7688:0.0025661105 7690:0.012884566 7708:0.016711836 7711:0.030495436 7716:0.033194873 7718:0.0046286495 7720:0.045444185 7727:0.015407873 7732:0.0045366323 7742:0.010372114 7743:0.039245754 7747:0.01272784 7749:0.037344697 7752:0.016007582 7754:0.018563256 7755:0.0046026924 7762:0.011267124 7763:0.037146929 7765:0.001113259 7772:0.016966721 7776:0.026963006 7789:0.017817518 7795:0.02000731 7798:0.00056412024 7801:0.059071535 7803:0.046456355 7806:5.1777745e-06 7811:0.040073029 7818:0.030340394 7831:0.0017770382 7832:0.0068652833 7834:0.0058386591 7835:0.027707399 7841:0.0014272266 7843:0.026827152 7846:0.054009694 7861:0.0065433198 7869:0.0069361135 7870:0.026832102 7875:0.0092944683 7877:0.020947219 7887:0.01170931 7888:0.01478698 7891:0.013012041 7899:0.010601652 7905:0.0032928052 7907:0.049988831 7908:0.022914572 7909:0.0029140553 7911:0.0023976536 7917:0.0052360717 7921:0.028067164 7929:0.005453377 7939:0.032764456 7941:0.0016292456 7944:0.0037863893 7952:0.030988364 7954:0.0016947988 7957:0.02360734 7958:0.0013786667 7968:0.018218289 8000:0.0062885337 8010:0.019870701 8014:0.0068353441 8025:0.0066413594 8042:0.008754218 8046:0.02830658 8050:0.0051981938 8060:0.014950769 8062:0.018103879 8063:0.014898764 8075:0.01627337 8084:0.0074875702 8105:0.0016336807 8118:0.011753553 8119:0.010594206 8137:0.001592818 8160:0.0068678192 8181:0.0042634756 8188:0.0028633987 8193:0.030542394 8205:0.045702353 8213:0.020041487 8225:0.013159376 8226:0.014222005 8242:0.010379169 8250:0.0028897489 8262:0.032368701 8266:0.010440033 8270:0.0096551372 8274:0.008441946 8282:0.00026673952 8295:0.0013270172 8318:0.013636279 8320:0.031971882 8334:0.0051925062 8337:0.0097540372 8347:0.0014620285 8348:0.03078461 8352:0.013072749 8367:0.031027118 8376:0.013147711 8399:0.026281505 8430:0.022219575 8467:0.0068115827 8468:0.0024611272 8492:0.018148934 8499:0.016020969 8502:0.001656217 8512:0.010643801 8514:0.01565793 8516:0.027956708 8519:0.016593514 8520:0.015584824 8526:0.0021697703 8537:0.038769214 8541:0.012983133 8549:0.014178458 8551:0.020414214 8553:0.014772747 8572:0.023132259 8585:0.0057883997 8590:0.011559655 8597:0.0093829268 8627:0.010101701 8630:0.0033936187 8644:0.0045397699 8654:0.0074627016 8665:0.019879152 8667:0.0062832998 8672:0.0080768599 8677:0.015531052 8679:0.0089771637 8690:0.0060175785 8691:0.01897837 8693:0.049091163 8705:0.0070298707 8717:0.017041192 8718:0.012768538 8748:0.046425535 8755:0.0081000008 8761:0.0051579268 8787:0.014824972 8796:0.013937369 8801:0.024158339 8803:0.037134797 8819:0.0030400758 8831:0.023002604 8834:0.012390644 8855:0.0010734154 8858:0.035281755 8861:0.00066509823 8867:0.052337359 8877:0.0080812311 8879:0.0042669209 8882:0.011725855 8900:0.014423755 8914:0.016547189 8919:0.004183841 8942:0.015894093 8944:0.0072060074 8952:0.049641126 8957:0.0037005013 8958:0.0016583971 8973:0.0011511505 9028:0.0093581361 9066:0.022021997 9077:0.012416943 9091:0.0052238729 9162:3.1750614e-05 9185:0.0032448685 9228:0.018821987 9283:0.032266506 9333:0.03965311 9348:0.0032432417 9353:0.015165485 9372:0.010458571 9430:0.091608068 9435:0.011060296 9437:0.0051730648 9447:0.0030544437 9477:0.0022675343 9506:0.042270948 9552:0.024684386 9560:0.0057511429 9568:0.003378601 9610:0.01435255 9640:0.0060706768 9789:0.019765733 9790:0.0032704779 9793:0.0077127362 9803:0.046324441 9840:0.0038501023 9860:0.0080676832 9891:0.017463463 9958:0.008560946 9989:0.010715583 9995:0.011045162 10010:0.002529471 10048:0.013478908 10055:0.020230361 10057:0.046939487 10084:0.0081772568 10097:0.0090218309 10104:0.035438324 10121:0.023517042 10124:0.004851227 10150:0.00011878389 10152:0.041007376 10172:0.0012114839 10180:0.017686604 10215:0.0067971648 10238:0.01021734 10290:0.030512657 10305:0.0050662784 10328:0.00066438962 10336:0.0022966203 10344:0.041932588 10398:0.036300916 10426:0.00040426011 10433:0.0016467388 10449:0.05236291 10458:0.0088287562 10468:0.012401088 10491:0.040299271 10510:0.014192723 10560:0.019076491 10563:0.009502495 10566:0.026989601 10579:0.051972806 10595:0.007579536 10602:0.0072226087 10620:0.0042691067 10636:0.018747293 10637:0.011249335 10638:0.010852781 10650:0.013048602 10661:0.016715511 10662:0.015983585 10670:0.012564019 10679:0.015823708 10691:0.023969516 10705:0.0018642145 10711:0.021752071 10749:0.01254388 10750:0.0051983315 10754:0.0059544521 10760:0.012831118 10770:0.0092991494 10776:0.035824545 10781:0.010128478 10811:0.040740573 10819:0.0095742106 10838:0.00043255518 10874:0.016929562 10898:0.039488962 10903:0.020774934 10908:0.033834446 10927:0.0039880524 10944:0.00029622944 10976:0.010639096 11010:0.016911485 11029:0.005960907 11033:0.0089710683 11054:0.048572085 11055:0.036772671 11059:0.0050567013 11076:0.0085760549 11104:0.019163908 11105:0.0034092395 11127:0.041983285 11150:0.045266497 11171:0.030668163 11184:0.0028242748 11206:0.044530002 11213:0.010993232 11225:0.016864056 11238:0.006846935 11344:0.050739749 11346:0.024327233 11376:0.0055971006 11382:0.0070297228 11384:0.018720162 11419:0.010163275 11429:0.0089791434 11441:0.0051485635 11448:0.0082073883 11488:0.011893828 11513:0.010454904 11514:0.0037656671 11519:0.002331894 11526:0.0093589192 11534:0.012621213 11554:0.0027411511 11571:0.01485782 11573:0.018716915 11575:0.021088289 11585:0.002331458 11598:0.010772477 11613:0.012774987 11640:0.026251307 11663:0.0079805788 11676:0.01830126 11707:0.007081682 11728:0.01279774 11742:0.018028876 11747:0.014529979 11763:0.019752925 11798:0.012718639 11802:0.0034712407 11805:0.020142825 11899:0.0058155631 11901:0.011533927 11908:0.023608984 11929:0.005805936 11939:0.018622372 11955:0.0086179576 11957:0.03030639 11975:0.03869575 12026:0.014632947 12101:0.011509316 12105:0.0037415083 12129:0.0084439137 12144:0.011096742 12156:0.026262472 12160:0.019993395 12163:0.012374944 12176:0.014401537 12181:0.0086574125 12186:0.015600481 12206:0.010882851 12220:0.011218387 12225:0.0116848 12283:0.004193751 12287:0.031638032 12310:0.014305236 12313:0.0059701992 12321:0.02163324 12324:0.00026198953 12349:0.013396889 12353:0.014756887 12362:0.00016882162 12385:0.037492246 12400:0.016647326 12405:0.016002173 12416:0.012504844 12422:0.023512727 12444:0.016134745 12467:0.030252544 12471:0.019300374 12478:0.017077918 12488:0.005719013 12496:0.00047495681 12504:0.016430877 12509:0.027010775 12510:0.021957144 12514:0.023372862 12526:0.015158948 12533:0.017308085 12541:0.0067291691 12554:0.0090397766 12560:0.0091786656 12579:0.013360126 12590:0.016371987 12594:0.025817007 12595:0.0037641242 12602:0.011665117 12606:0.00069653532 12620:0.025678878 12627:0.014573304 12642:0.0056114253 12667:0.014344868 12692:0.014046619 12716:0.000723349 12718:0.010622786 12733:0.013231463 12734:0.016587613 12742:0.0099716683 12755:0.018304399 12772:0.0060892259 12777:0.013315281 12788:0.014791802 12789:0.018466891 12798:0.023088659 12799:0.0096721439 12803:0.033912496 12810:0.00989734 12822:0.0065814269 12832:0.012457655 12834:0.0056532022 12835:0.025206277 12838:0.010757629 12844:0.011618113 12855:0.015496397 12868:0.00383528 12877:0.0088663611 12892:0.0016164857 12899:0.0057951868 12910:0.0076799448 12917:0.0079999866 12919:0.016898595 12957:0.0028439346 13010:0.012996134 13036:0.020013415 13087:0.011353085 13110:0.012549884 13144:0.0088677869 13256:0.0043713005 13353:0.014657726 13362:0.0029892296 13377:0.0026781387 13422:0.04104285 13457:0.013635494 13485:0.016117151 13563:0.024272416 13571:0.004691754 13573:0.040545591 13654:0.023164712 13690:0.0013658525 13863:0.010783334 13891:0.002128719 13919:0.0140787 13944:0.00087313629 13956:0.024122388 13972:0.012437529 15010:0.009792688 15017:0.02572998 15042:0.013421605 15085:0.0053730044 15253:0.012904766 15279:0.0022184707 15304:0.016926378 15405:0.001439371 15435:0.0031670025 15471:0.0015711798 15515:0.032679975 15563:0.009177531 15572:0.0021810778 15573:0.0098111279 15585:0.0026468823 15629:0.017349826 15691:0.0067373505 15731:0.016825518 15732:0.013181688 15799:0.012377491 15820:0.019198677 15867:0.019878549 15923:0.0074725875 15981:0.029477552 16085:0.010710845 16093:0.0053487534 16171:0.062541512 16206:0.018730901 16225:0.0090040621 16342:0.036184639 16349:0.010894868 16385:0.014097251 16437:0.0022281323 16457:0.0055900008 16485:0.013845629 16490:0.0023158156 16535:0.00076739499 16554:0.016022122 16595:0.011811275 16707:0.016834809 16724:0.016862889 16755:0.010957883 16803:0.015776177 16846:0.0075146324 16891:0.0417162 16914:0.013823956 16919:0.021900366 16957:0.0031627218 17064:0.0042186768 17138:0.022054403 17171:0.01138734 17250:0.003584859 17253:0.013619312 17279:0.012970749 17414:0.028576577 17515:0.056526606 17563:0.0066531369 17573:0.032645625 17585:0.0070393443 17600:0.015600283 17664:0.040246404 17668:0.019325648 17723:0.021857321 17756:0.00073905318 17789:0.035403912 17970:0.0073964393 19026:0.033043814 19028:0.012195867 19064:0.0033196794 19077:0.048187795 19087:0.010289255 19120:0.024576506 19163:0.024394982 19207:0.0097176943 19279:0.036312213 19280:0.024811163 19331:0.0027396221 19349:0.0014185165 19353:0.010897347 19362:0.0127083 19425:0.024924485 19433:0.002231026 19447:0.031408348 19448:0.038447492 19459:0.017905762 19515:0.0036372305 19524:0.015633347 19534:0.02467909 19549:0.0041794081 19572:0.029234132 19573:0.017507053 19585:0.010146999 19590:0.0025422721 19600:0.015525959 19623:0.010051812 19645:0.0018292655 19722:0.043215373 19738:0.055402063 19756:0.0080771397 19762:0.023904118 19836:0.0016269876 19853:0.0069867379 19892:0.014007964 19932:0.02337554 19946:0.00078792725 20001:0.0070306208 20007:0.013202099 20016:0.010844329 20022:0.0062043098 20025:0.0050075015 20048:0.023368294 20049:0.00557306 20064:0.0021571534 20077:0.020439164 20101:0.014185813 20105:0.0011271507 20110:0.018675289 20111:0.015024962 20119:0.0087714119 20125:0.0094354928 20138:0.018070731 20140:0.012070389 20146:0.017772956 20160:0.0045266938 20161:0.00048208529 20183:0.0011617918 20193:0.059759722 20207:0.040423532 20211:0.008739067 20220:0.015679954 20236:0.027577096 20269:0.033140975 20280:0.007742159 20282:0.0094901534 20283:0.021873132 20297:0.019694111 20334:0.01347663 20341:0.00080570766 20347:0.012452124 20349:0.0011099696 20383:0.035841483 20385:0.035015603 20399:0.014088087 20400:0.0089405637 20409:0.030572565 20431:0.0010986301 20452:0.015578779 20477:0.00028817215 20490:0.034741245 20493:0.0025300718 20499:0.010438563 20501:0.0077463135 20502:0.023168406 20520:0.0027534392 20533:0.0053539446 20535:0.019062693 20538:0.00050287087 20549:0.014576115 20558:0.01086494 20586:0.0094283845 20595:0.019192235 20603:0.0098024846 20608:0.015945021 20631:0.024427294 20640:0.011700578 20660:0.018212141 20667:0.013264986 20669:0.032867568 20693:0.032374504 20732:0.045177778 20734:0.0033183582 20738:0.013847828 20742:0.026416194 20745:0.010801421 20751:0.014905894 20773:0.0049959481 20801:0.012713821 20803:0.009549102 20805:0.01016368 20812:0.047869235 20813:0.016793689 20814:0.01968478 20831:0.020153214 20836:0.0037709331 20846:0.010317625 20855:0.025707289 20858:0.0155966 20861:0.014245748 20874:0.022119559 20882:0.015839735 20888:0.0069325681 20893:0.037784374 20895:0.010221796 20910:0.036912522 20945:0.030253302 20957:4.6502198e-05 20972:0.013054013 20976:0.0064183381 20994:0.021611142 20999:0.0053569485 
7709.137640542569 1:0.014513128 5:0.02257665 7:0.015667796 10:0.057180575 11:0.049245211 16:0.020621286 17:0.034781647 19:0.058722903 25:0.034188659 26:0.044668448 27:0.036271729 28:0.036487083 33:0.0015463474 35:0.0097174108 36:0.027054026 42:0.018143253 43:0.0093194506 45:0.025660423 51:0.040023544 53:0.024456143 58:0.0044739228 59:0.0068356213 60:0.050526507 64:0.021633994 66:0.03590797 70:0.049079059 75:0.028481133 77:0.065139999 80:0.0063739871 85:0.0072631981 87:0.015347039 90:0.0007326961 103:0.010622436 104:0.025905667 109:0.028532749 110:0.039310635 115:0.00038115583 117:0.0034536773 120:0.033222387 122:0.00032153825 125:0.018508923 127:0.039399764 129:0.003980455 131:0.0029048161 132:0.011043406 135:0.028377234 136:0.017846285 138:0.029813021 140:0.030092175 144:0.011987426 159:0.00095733728 160:0.026072308 162:0.03040958 163:0.041939989 164:0.068129204 168:0.039779702 171:0.015393344 174:0.0065171998 181:0.021716825 183:0.028669902 185:0.0577139 186:0.011834929 188:0.056731176 191:0.0056522328 193:0.072340863 195:0.07249692 198:0.015174023 203:0.093720246 207:0.013136326 209:0.0014640609 212:0.038629698 220:0.042094843 225:0.0020399861 229:0.016327916 235:0.010208693 236:0.041391135 242:0.020490892 250:0.020149316 253:0.018410512 256:0.0059091002 272:0.00064721908 278:0.00044298077 279:0.049086651 280:0.033539595 282:0.0069111371 283:0.018688126 284:0.066416409 304:0.022880986 306:0.036634963 318:0.020558629 320:0.0060754567 326:0.02827323 328:0.000934541 331:0.044532672 333:0.030390745 334:0.03396582 336:0.083968879 337:0.036045173 339:0.0035056366 341:0.011370993 342:0.048914198 349:0.051790546 353:0.019814234 354:0.038331229 359:0.00471273 362:0.047055104 364:0.00062979802 372:0.014137839 377:0.014965631 385:0.033219955 386:0.017827168 389:0.0024331149 400:0.055757887 405:0.0019457339 406:0.025256781 408:0.12157704 411:0.018033457 414:0.038629661 415:0.00032038268 416:0.008152404 422:0.055481501 424:0.048774889 425:0.033692783 433:0.0030158888 435:0.0042811368 439:0.037873777 443:0.054501108 447:0.042457634 448:0.05197311 455:0.037232432 456:0.0068527997 457:0.018432387 459:0.024204911 467:0.0091477664 469:0.028703996 471:0.0021239124 474:0.013054176 477:0.021881014 478:0.0054282265 479:0.012142497 480:0.02739367 485:0.021787076 486:0.021369458 490:0.003130507 494:0.033600959 495:0.0099030699 496:0.012672679 503:0.030522071 504:0.0013479447 506:0.015066348 510:0.044698646 515:0.076412358 519:0.015288659 520:0.016507343 524:0.021133073 525:0.006592259 529:0.016152634 534:0.03336106 535:0.0091184635 545:0.013956551 549:0.0056497012 550:0.044153989 552:0.013335027 554:0.073642699 560:0.017558304 562:0.062168414 563:0.03281132 564:0.018588678 570:0.0020356192 571:0.0063422875 572:0.039518541 573:0.064342908 575:0.028507035 580:0.05082616 585:0.058387782 587:0.0066392361 588:0.01436579 590:0.0088245024 591:0.057708266 592:0.023193265 594:0.018334964 596:0.024292363 598:0.019064461 600:0.021088377 603:0.014809843 608:0.0075805616 610:0.0194017 612:0.0061801124 613:0.024390946 623:0.013587985 629:0.0234534 630:0.016154082 631:0.0063313686 638:0.044493824 640:0.020145531 642:0.0056972218 645:0.0024727911 654:0.031313931 656:0.012462764 664:0.054404869 668:0.026124305 669:0.013932763 671:0.006385089 672:0.0093784076 674:0.0071241363 675:0.0080529076 681:0.0074958527 682:0.061422223 690:0.001846352 691:0.013908554 700:0.013451147 718:0.070298981 722:0.058418306 723:0.044289501 724:0.022795162 731:0.022744644 732:0.036018382 733:0.0050829204 738:0.074892208 748:0.0067719032 751:0.059157818 754:0.062243404 756:0.010918634 757:0.015149193 758:0.0025976295 762:0.037291856 763:0.0067975643 768:0.020499916 770:0.00088913766 777:0.03397011 782:0.06250081 788:0.0090228156 789:0.069744696 790:0.0044210142 793:0.026283981 794:0.0056966164 795:0.022581887 796:0.045424683 797:0.021510512 798:0.0010463182 799:0.016731824 802:0.0035514621 803:0.066934709 804:0.0048499117 805:0.040070907 814:0.01914788 817:0.0045893096 820:0.025952667 828:0.025526972 831:0.017291279 836:0.0098863551 837:0.047279265 838:0.020998897 845:0.0090747998 846:0.057526643 853:0.0094446343 855:0.0016694165 861:0.01495966 863:0.042893253 867:0.026871714 868:0.017404359 874:0.024078554 877:0.0094585492 881:0.00011403357 883:0.010470847 887:0.037321826 891:0.05904942 892:0.018935889 900:0.016430548 902:0.012844579 906:0.009089452 909:0.017917743 910:0.030918501 916:0.019202322 919:0.029604795 923:0.010101403 931:0.02087372 932:0.031598927 942:0.0078583753 944:0.0011803009 946:0.008116748 947:0.029381339 948:0.0058100666 951:0.0033470416 956:0.062469235 958:0.014851323 961:0.0030155723 965:0.035609873 966:0.0060924495 970:0.0099984664 972:0.016812985 974:0.00033289159 975:0.041295609 981:0.039847594 984:0.052344432 991:0.00051435368 994:0.0033255611 995:0.01493079 1001:0.014513128 1005:0.02257665 1007:0.015667796 1010:0.017568103 1011:0.049245211 1016:0.020621286 1036:0.027054026 1043:0.0093194506 1051:0.040023544 1064:0.0057027843 1070:0.049079059 1087:0.015347039 1109:0.028532749 1110:0.039310635 1122:0.00032153825 1125:0.018508923 1127:0.039399764 1132:0.011043406 1136:0.00098658555 1138:0.029813021 1144:0.011987426 1160:0.026072308 1162:0.03040958 1164:0.068129204 1168:0.010793534 1171:0.015393344 1183:0.028669902 1188:0.056731176 1195:0.07249692 1198:0.015174023 1203:0.093720246 1209:0.0014640609 1225:0.0020399861 1250:0.0048459929 1253:0.018410512 1256:0.0059091002 1272:0.00064721908 1278:0.00044298077 1279:0.017533788 1326:0.011909841 1328:0.000934541 1333:0.030390745 1334:0.012584167 1336:0.083968879 1337:0.036045173 1339:0.0035056366 1353:0.019814234 1354:0.038331229 1359:0.00471273 1362:0.0074780239 1372:0.014137839 1377:0.014965631 1408:0.12157704 1414:0.038629661 1422:0.055481501 1443:0.054501108 1455:0.037232432 1456:0.0068527997 1457:0.018432387 1459:0.0076088559 1469:0.028703996 1477:0.021881014 1478:0.0035110692 1480:0.02739367 1485:0.021787076 1503:0.030522071 1504:0.0013479447 1506:0.015066348 1515:0.076412358 1525:0.006592259 1535:0.0091184635 1545:0.013956551 1554:0.073642699 1560:0.017558304 1563:0.03281132 1564:0.018588678 1571:0.0063422875 1573:0.05480931 1591:0.057708266 1596:0.024292363 1598:0.019064461 1600:0.021088377 1603:0.014809843 1608:0.0075805616 1610:0.0194017 1630:0.016154082 1638:0.044493824 1640:0.020145531 1654:0.031313931 1656:0.012462764 1664:0.054404869 1668:0.026124305 1674:0.0071241363 1675:0.0080529076 1681:0.0074958527 1690:0.001846352 1700:0.013451147 1718:0.070298981 1723:0.029546608 1732:0.036018382 1733:0.0050829204 1748:0.0067719032 1756:0.00099904807 1768:0.020499916 1770:0.00088913766 1782:0.06250081 1789:0.069744696 1790:0.0044210142 1793:0.026283981 1802:0.0035514621 1803:0.066934709 1804:0.0048499117 1837:0.039960202 1838:0.020998897 1845:0.0090747998 1846:0.057526643 1861:0.013428291 1863:0.03222747 1874:0.024078554 1883:0.010470847 1891:0.0028775907 1906:0.009089452 1919:0.01903151 1942:0.0078583753 1944:0.0011803009 1948:0.00092718674 1956:0.062469235 1961:0.0030155723 1965:0.035609873 1966:0.0060924495 1970:0.0099984664 1972:0.016812985 1974:0.00033289159 1975:0.041295609 1994:0.0033255611 1995:0.01493079 2010:0.013237702 2017:0.034781647 2026:0.044668448 2042:0.018143253 2059:0.0068356213 2064:0.0044875245 2077:0.01116446 2085:0.0072631981 2087:0.013908959 2104:0.025905667 2163:0.032977004 2207:0.013136326 2253:0.017444592 2279:0.049086651 2304:0.022880986 2331:0.0037034063 2342:0.048914198 2349:0.014727623 2353:0.014730975 2362:0.017179011 2405:0.0019457339 2425:0.033692783 2433:0.0030158888 2435:0.0042811368 2447:0.012008156 2448:0.05197311 2457:0.0075565326 2459:0.024204911 2471:0.0021239124 2490:0.003130507 2515:0.044176613 2524:0.021133073 2534:0.03336106 2549:0.0056497012 2563:0.012406136 2572:0.039518541 2573:0.023665939 2575:0.028507035 2585:0.013716658 2590:0.0034366296 2600:0.020987907 2623:0.013587985 2629:0.0234534 2645:0.0024727911 2691:0.0091075138 2722:0.058418306 2724:0.022795162 2731:0.022744644 2732:0.017818935 2738:0.074892208 2756:0.010918634 2762:0.032313457 2799:0.016731824 2803:0.021326151 2820:0.025952667 2836:0.002199353 2853:0.0094446343 2867:0.026871714 2892:0.018935889 2919:0.029604795 2923:0.010101403 2932:0.031598927 2946:0.0010651158 2981:0.039847594 3010:0.057180575 3019:0.058722903 3025:0.034188659 3027:0.036271729 3033:0.0015463474 3035:0.0097174108 3042:0.0099412245 3053:0.024456143 3058:0.0044739228 3060:0.050526507 3066:0.03590797 3075:0.028481133 3080:0.0063739871 3090:0.0007326961 3103:0.010622436 3109:0.011198398 3110:0.031919949 3117:0.0034536773 3129:0.003980455 3131:0.0029048161 3135:0.028377234 3136:0.017846285 3140:0.030092175 3159:0.00095733728 3163:0.041939989 3168:0.039779702 3174:0.0065171998 3185:0.0577139 3186:0.011834929 3191:0.0056522328 3193:0.072340863 3212:0.038629698 3229:0.016327916 3236:0.0083929479 3242:0.020490892 3250:0.020149316 3279:0.035021971 3282:0.0069111371 3283:0.018688126 3306:0.036634963 3318:0.020558629 3320:0.0060754567 3326:0.02827323 3341:0.011370993 3349:0.051790546 3362:0.047055104 3364:0.00062979802 3385:0.033219955 3386:0.017827168 3389:0.0024331149 3400:0.055757887 3406:0.025256781 3408:0.074464728 3414:0.0018415381 3415:0.00032038268 3424:0.048774889 3439:0.0037561835 3467:0.0091477664 3474:0.013054176 3479:0.012142497 3485:0.016172287 3486:0.021369458 3494:0.033600959 3496:0.012672679 3515:0.056279059 3519:0.015288659 3520:0.016507343 3529:0.016152634 3534:0.024155103 3550:0.044153989 3554:0.018494569 3562:0.062168414 3570:0.0020356192 3573:0.064342908 3580:0.05082616 3585:0.0095157473 3587:0.0066392361 3588:0.01436579 3592:0.023193265 3612:0.0061801124 3642:0.0056972218 3672:0.0093784076 3682:0.061422223 3691:0.013908554 3722:0.0066606436 3723:0.044289501 3724:0.016012026 3751:0.059157818 3754:0.062243404 3757:0.015149193 3758:0.0025976295 3777:0.03397011 3788:0.0090228156 3794:0.0056966164 3795:0.022581887 3796:0.045424683 3797:0.021510512 3805:0.040070907 3814:0.01914788 3817:0.0045893096 3836:0.0098863551 3837:0.047279265 3838:0.00029981017 3863:0.042893253 3868:0.017404359 3877:0.0094585492 3881:0.00011403357 3891:0.05904942 3900:0.016430548 3902:0.012844579 3910:0.030918501 3916:0.019202322 3919:0.022409617 3931:0.02087372 3947:0.0046632905 3948:0.0058100666 3951:0.0033470416 3958:0.014851323 3961:0.0014474953 3972:0.0094121856 3984:0.052344432 3991:0.00051435368 4026:0.014382582 4028:0.036487083 4045:0.025660423 4064:0.021633994 4077:0.065139999 4115:0.00038115583 4120:0.033222387 4181:0.021716825 4220:0.042094843 4235:0.010208693 4236:0.041391135 4280:0.033539595 4284:0.066416409 4326:0.00094347385 4331:0.044532672 4334:0.03396582 4400:0.041814001 4411:0.018033457 4416:0.008152404 4439:0.037873777 4447:0.042457634 4478:0.0054282265 4495:0.0099030699 4510:0.044698646 4552:0.013335027 4554:0.0020802808 4585:0.058387782 4590:0.0088245024 4594:0.018334964 4613:0.024390946 4631:0.0063313686 4669:0.013932763 4671:0.006385089 4738:0.040343474 4756:0.008478913 4762:0.037291856 4763:0.0067975643 4798:0.0010463182 4828:0.025526972 4831:0.017291279 4855:0.0016694165 4861:0.01495966 4868:0.016925636 4887:0.037321826 4909:0.017917743 4946:0.008116748 4947:0.029381339 5043:0.0093194506 5070:0.049079059 5136:0.00098658555 5144:0.011987426 5162:0.026036507 5168:0.010793534 5203:0.093720246 5278:0.00044298077 5334:0.012584167 5362:0.0040408243 5408:0.12157704 5455:0.037232432 5456:0.0068527997 5477:0.021881014 5485:0.021787076 5503:0.030522071 5525:0.006592259 5535:0.0091184635 5591:0.057708266 5598:0.019064461 5610:0.0041343814 5700:0.013451147 5732:0.036018382 5748:0.0067719032 5768:0.020499916 5782:0.06250081 5803:0.054843708 5846:0.057526643 5919:0.01903151 5948:0.00092718674 5965:0.035609873 5966:0.0060924495 5974:0.00033289159 6010:0.017568103 6036:0.027054026 6087:0.015347039 6256:0.0059091002 6353:0.019814234 6372:0.014137839 6422:0.055481501 6563:0.03281132 6571:0.0063422875 6573:0.05480931 6610:0.0194017 6654:0.031313931 6790:0.0044210142 6863:0.014576853 6944:0.0011803009 6972:0.016812985 6995:0.01493079 8010:0.013237702 8017:0.034781647 8042:0.018143253 8059:0.0068356213 8085:0.0072631981 8104:0.025905667 8253:0.017444592 8279:0.0029989166 8304:0.022880986 8342:0.048914198 8349:0.014727623 8405:0.0019457339 8435:0.0042811368 8448:0.011094703 8457:0.0075565326 8471:0.0021239124 8490:0.003130507 8515:0.044176613 8563:0.012406136 8572:0.0029483691 8573:0.013262629 8575:0.028507035 8585:0.0035780411 8629:0.0234534 8691:0.0091075138 8724:0.022795162 8731:0.022744644 8732:0.017818935 8799:0.016731824 8803:0.021326151 8820:0.025952667 8867:0.026871714 8919:0.029604795 8923:0.010101403 8981:0.039847594 9001:0.014513128 9005:0.02257665 9007:0.015667796 9011:0.049245211 9016:0.020621286 9051:0.040023544 9109:0.028532749 9110:0.039310635 9122:0.00032153825 9125:0.018508923 9127:0.039399764 9132:0.011043406 9138:0.029813021 9160:0.026072308 9162:0.03040958 9164:0.068129204 9183:0.028669902 9188:0.056731176 9195:0.07249692 9198:0.015174023 9209:0.0014640609 9225:0.0020399861 9272:0.00064721908 9326:0.011909841 9328:0.000934541 9333:0.030390745 9336:0.083968879 9337:0.036045173 9339:0.0035056366 9354:0.038331229 9359:0.00471273 9362:0.0074780239 9377:0.014965631 9414:0.038629661 9443:0.054501108 9457:0.018432387 9459:0.0076088559 9469:0.028703996 9478:0.0035110692 9480:0.02739367 9485:0.0016474244 9504:0.0013479447 9506:0.015066348 9545:0.013956551 9554:0.073642699 9560:0.017558304 9564:0.018588678 9596:0.024292363 9603:0.014809843 9608:0.0075805616 9630:0.016154082 9638:0.044493824 9640:0.020145531 9656:0.012462764 9664:0.054404869 9674:0.0071241363 9675:0.0080529076 9681:0.0074958527 9690:0.001846352 9718:0.070298981 9733:0.0050829204 9770:0.00088913766 9789:0.069744696 9793:0.026283981 9802:0.0035514621 9803:0.066934709 9804:0.0048499117 9837:0.039960202 9838:0.020998897 9845:0.0090747998 9861:0.013428291 9863:0.03222747 9874:0.024078554 9883:0.010470847 9891:0.0028775907 9906:0.009089452 9942:0.0078583753 9956:0.062469235 9961:0.0030155723 9972:0.00022815951 9975:0.041295609 9994:0.0033255611 10064:0.0057027843 10171:0.015393344 10250:0.0048459929 10253:0.018410512 10279:0.017533788 10515:0.076412358 10563:0.0089936742 10573:0.044130178 10600:0.021088377 10668:0.026124305 10723:0.029546608 10756:0.00099904807 10789:0.047858816 10970:0.0099984664 12026:0.044668448 12064:0.0044875245 12077:0.01116446 12087:0.013908959 12163:0.032977004 12207:0.013136326 12279:0.049086651 12331:0.0037034063 12349:0.0019175429 12353:0.014730975 12362:0.017179011 12425:0.033692783 12433:0.0030158888 12447:0.012008156 12448:0.05197311 12459:0.024204911 12515:0.0049167884 12524:0.021133073 12534:0.03336106 12549:0.0056497012 12572:0.039518541 12573:0.023665939 12585:0.013716658 12590:0.0034366296 12600:0.020987907 12623:0.013587985 12645:0.0024727911 12722:0.058418306 12738:0.074892208 12756:0.010918634 12762:0.032313457 12836:0.002199353 12853:0.0094446343 12892:0.018935889 12932:0.031598927 12946:0.0010651158 13025:0.034188659 13035:0.0097174108 13042:0.0099412245 13053:0.024456143 13060:0.0022824794 13066:0.03590797 13075:0.028481133 13080:0.0063739871 13090:0.0007326961 13103:0.010622436 13109:0.011198398 13110:0.0038043733 13117:0.0034536773 13129:0.003980455 13131:0.0029048161 13135:0.028377234 13136:0.017846285 13168:0.039779702 13174:0.0065171998 13185:0.0577139 13186:0.011834929 13191:0.0056522328 13193:0.072340863 13212:0.038629698 13250:0.020149316 13282:0.0069111371 13283:0.018688126 13306:0.036634963 13318:0.020558629 13320:0.0060754567 13341:0.011370993 13349:0.033257819 13362:0.047055104 13364:0.00062979802 13385:0.033219955 13386:0.017827168 13389:0.0024331149 13406:0.025256781 13414:0.0018415381 13424:0.048774889 13467:0.0091477664 13486:0.021369458 13494:0.033600959 13496:0.012672679 13519:0.015288659 13520:0.016507343 13529:0.016152634 13534:0.024155103 13550:0.044153989 13570:0.0020356192 13573:0.022881767 13580:0.05082616 13587:0.0066392361 13588:0.01436579 13612:0.0061801124 13642:0.0056972218 13672:0.0093784076 13682:0.061422223 13691:0.013908554 13723:0.044289501 13754:0.062243404 13757:0.015149193 13777:0.03397011 13788:0.0090228156 13794:0.0056966164 13795:0.022581887 13796:0.045424683 13797:0.021510512 13805:0.040070907 13814:0.01914788 13817:0.0045893096 13836:0.0098863551 13837:0.047279265 13863:0.042893253 13868:0.017404359 13877:0.0094585492 13881:0.00011403357 13900:0.016430548 13902:0.012844579 13919:0.022409617 13948:0.0058100666 13951:0.0033470416 13958:0.014851323 13961:0.0014474953 13972:0.0094121856 13984:0.052344432 14010:0.057180575 14033:0.0015463474 14140:0.030092175 14163:0.041939989 14279:0.018811606 14474:0.013054176 14515:0.056279059 14573:0.064342908 14585:0.0095157473 14722:0.0066606436 14724:0.016012026 14751:0.059157818 14758:0.0025976295 14947:0.0046632905 16028:0.036487083 16077:0.065139999 16120:0.033222387 16181:0.021716825 16220:0.042094843 16280:0.033539595 16284:0.066416409 16326:0.00094347385 16331:0.010605055 16334:0.03396582 16416:0.008152404 16447:0.042457634 16478:0.0054282265 16495:0.0099030699 16552:0.013335027 16590:0.0088245024 16594:0.018334964 16631:0.0063313686 16669:0.013932763 16671:0.006385089 16738:0.040343474 16798:0.0010463182 16828:0.025526972 16855:0.0016694165 16861:0.01495966 16868:0.016925636 16909:0.017917743 16946:0.008116748 17019:0.058722903 17027:0.036271729 17058:0.0044739228 17060:0.050526507 17110:0.031919949 17168:0.0099930704 17229:0.016327916 17236:0.0083929479 17242:0.020490892 17326:0.02827323 17362:0.0084870068 17400:0.055757887 17408:0.074464728 17415:0.00032038268 17479:0.012142497 17485:0.016172287 17562:0.062168414 17592:0.023193265 17682:0.048148117 17838:0.00029981017 17891:0.05904942 17916:0.019202322 17931:0.02087372 17991:0.00051435368 18159:0.00095733728 18279:0.035021971 18349:0.051790546 18439:0.0037561835 18554:0.018494569 18910:0.030918501 19064:0.021633994 19563:-0.0092708498 19573:-0.02763782 19585:0.058387782 19756:0.008478913 20026:0.014382582 20045:0.025660423 20115:0.00038115583 20235:0.010208693 20236:0.041391135 20331:0.044532672 20400:0.041814001 20411:0.018033457 20416:0.0074183511 20439:0.037873777 20510:0.044698646 20554:0.0020802808 20613:0.024390946 20762:0.037291856 20763:0.0067975643 20831:0.017291279 20887:0.037321826 20947:0.029381339 
