svm_type c_svc
kernel_type rbf
gamma 4.7619e-05
nr_class 2
total_sv 346
rho 2.00888
label 1 -1
probA -6.17336
probB 0.380195
nr_sv 144 202
SV
15286.32112535442 10:0.041515583 16:0.054062937 33:0.052184986 64:0.072953213 66:0.080640365 75:0.076978304 87:0.02307296 91:0.094200562 101:0.12751072 111:0.053567901 144:0.053417502 163:0.028923248 180:0.025420157 193:0.055575774 206:0.059319841 253:0.019332727 261:0.085662681 281:0.014495941 314:0.029093616 326:0.03658717 353:0.047227888 362:0.010443723 402:0.027899697 418:0.031788548 425:0.0051511652 430:0.004195903 432:0.054170695 447:0.035052647 467:0.016652793 472:0.05294073 485:0.02527204 516:0.033739871 523:0.015041464 525:0.23200468 526:0.039674124 537:0.030018866 538:0.057976368 555:0.19113798 560:0.013277565 563:0.011152574 573:0.12655712 576:0.057681916 585:0.047046162 590:0.046997277 595:0.042755797 608:0.059195937 623:0.11199343 627:0.02711435 638:0.11010905 640:0.039975734 691:0.046232749 742:0.082112306 755:0.034873931 791:0.015030301 798:0.024735734 799:0.039084146 801:0.03740706 812:0.091296177 834:0.048596661 835:0.076919169 840:0.14762872 852:0.0087779144 855:0.028249226 892:0.013378177 903:0.088967464 919:0.052600047 923:0.045213757 970:0.119122 1075:0.076978304 1193:0.055575774 1430:0.004195903 1893:-0.01202693 1958:-0.0024211862 2010:0.041515583 2033:0.052184986 2101:0.12751072 2206:0.059319841 2253:0.019332727 2353:0.047227888 2525:0.23200468 2538:0.057976368 2555:0.19113798 2573:0.12655712 2585:0.0090432142 2623:0.11199343 2755:0.034873931 2801:0.03740706 2835:0.076919169 2840:0.084604164 2855:0.028249226 3016:0.054062937 3064:0.072953213 3066:0.080640365 3091:0.094200562 3111:0.053567901 3144:0.053417502 3163:0.028923248 3180:0.025420157 3281:0.014495941 3314:0.029093616 3362:0.010443723 3402:0.027899697 3418:0.031788548 3432:0.054170695 3447:0.035052647 3467:0.016652793 3472:0.05294073 3485:0.02527204 3516:0.033739871 3526:0.039674124 3537:0.030018866 3560:0.013277565 3563:0.011152574 3573:0.066440521 3576:0.057681916 3585:0.047046162 3595:0.042755797 3608:0.059195937 3627:0.02711435 3638:0.11010905 3640:0.039975734 3691:0.046232749 3742:0.082112306 3791:0.015030301 3798:0.024735734 3799:0.039084146 3812:0.091296177 3852:0.0087779144 3903:0.088967464 3919:0.052600047 3923:0.045213757 3970:0.119122 4087:0.02307296 4261:0.085662681 4326:0.03658717 4353:0.01852478 4425:0.0051511652 4523:0.015041464 4590:0.046997277 4834:0.048596661 4840:0.14762872 4892:0.013378177 8010:0.041515583 8033:0.030814819 8101:0.12751072 8253:0.012679003 8525:0.23200468 8538:0.057976368 8555:0.19113798 8585:0.0090432142 8623:0.11199343 8801:0.03740706 8855:0.028249226 9075:0.076978304 9193:0.055575774 9430:0.004195903 9893:-0.01202693 9958:-0.0024211862 12033:0.052184986 12206:0.059319841 12253:0.019332727 12353:0.047227888 12573:0.12655712 12623:0.089847403 12755:0.034873931 12835:0.076919169 12840:0.084604164 13066:0.080640365 13163:0.028923248 13314:0.029093616 13362:0.010443723 13418:0.031788548 13432:0.054170695 13485:0.00087983973 13516:0.033739871 13537:0.030018866 13640:0.039975734 13742:0.082112306 14066:0.05549255 14144:0.053417502 14362:0.002910198 14467:0.016652793 14485:0.02527204 14595:0.042755797 14798:0.024735734 14919:0.052600047 15087:0.02307296 15261:0.085662681 15834:0.048596661 15840:0.14762872 15892:0.013378177 16326:0.03658717 16353:0.01852478 16425:0.0051511652 16523:0.015041464 16590:0.046997277 17402:0.027899697 17447:0.035052647 17560:0.013277565 17563:0.011152574 17576:0.057681916 17585:0.047046162 17627:0.023632808 17799:0.039084146 18016:0.054062937 18064:0.072953213 18091:0.094200562 18111:0.053567901 18180:0.025420157 18281:0.014495941 18472:0.05294073 18526:0.039674124 18573:0.066440521 18608:0.059195937 18627:0.02711435 18638:0.11010905 18691:0.046232749 18791:0.015030301 18812:0.091296177 18852:0.0087779144 18903:0.088967464 18923:0.045213757 18970:0.119122 
1085.542968285254 10:0.029261429 16:0.038105181 19:0.079810032 33:0.036781545 64:0.051419614 66:0.05683775 87:0.03801413 91:0.066395384 94:0.013842526 101:0.089873383 110:0.026298555 111:0.037756264 138:0.0080328872 144:0.037650259 163:0.037414687 171:0.07052102 180:0.01791689 183:0.071490039 206:0.041810405 213:0.044473934 214:0.029112107 215:0.063715598 225:0.0040268468 234:0.041831265 236:0.022366798 249:0.0057208729 250:0.040313629 253:0.043554117 256:0.011748328 261:0.060377629 281:0.010217174 287:0.024995969 297:0.077894 302:0.12615761 308:0.063334104 314:0.020506054 326:0.025787736 333:0.084236624 338:0.05407464 353:0.033287633 362:0.0274271 376:0.010385888 377:0.033845036 395:0.057030483 402:0.019664544 412:0.0038187681 414:0.011615101 425:0.071721662 432:0.038181132 447:0.029518429 457:0.01358879 465:0.010742245 467:0.023987801 472:0.037314216 482:0.073896009 485:0.06681266 496:0.039678328 504:0.078843896 516:0.023780874 523:0.010601676 525:0.16352387 526:0.027963514 537:0.021158198 538:0.040863484 552:0.049147552 555:0.13471978 560:0.0093584265 563:0.007860669 570:0.071601242 573:0.089201255 576:0.040655946 579:0.014272584 583:0.046904813 585:0.033159547 590:0.033125092 592:0.020441346 595:0.058210789 602:0.0063313621 608:0.041723073 614:0.0055754221 623:0.078936329 627:0.019111007 630:0.026043215 638:0.077608166 640:0.033369413 682:0.073966282 687:0.039718256 688:0.1163591 690:0.017945245 691:0.032586229 705:0.044536007 723:0.060359522 734:0.030973034 742:0.045012401 755:0.024580194 789:0.0037460224 791:0.010593807 798:0.017434488 799:0.027547679 801:0.026365619 810:0.034796363 812:0.064348286 822:0.014930743 831:0.029509763 834:0.091043839 835:0.05421494 840:0.10405315 852:0.0061869375 855:0.019910903 856:0.049755264 861:0.048462492 877:0.0067409095 879:0.01329315 885:0.017437928 891:0.040892404 892:0.050959051 900:0.046155229 903:0.062706939 910:0.00099649519 919:0.037074092 923:0.035596761 956:0.075742184 970:0.083960762 972:0.021110626 980:0.01393097 1087:0.016262515 1467:0.011737389 1595:0.030135569 1798:0.017434488 1840:0.10405315 1919:0.037074092 2010:0.029261429 2033:0.036781545 2101:0.089873383 2206:0.041810405 2253:0.013626287 2326:0.025787736 2353:0.033287633 2425:0.0036306959 2523:0.010601676 2525:0.16352387 2538:0.040863484 2555:0.13471978 2573:0.089201255 2585:0.0063739288 2590:0.033125092 2623:0.078936329 2755:0.024580194 2801:0.026365619 2835:0.05421494 2840:0.059631554 2855:0.019910903 3010:0.013940985 3016:0.038105181 3019:0.029545473 3064:0.051419614 3066:0.05683775 3087:0.03801413 3091:0.066395384 3111:0.037756264 3138:0.0080328872 3144:0.037650259 3163:0.037414687 3180:0.01791689 3183:0.071490039 3213:0.044473934 3214:0.029112107 3234:0.041831265 3236:0.022366798 3249:0.0057208729 3281:0.010217174 3287:0.024995969 3297:0.077894 3314:0.020506054 3333:0.084236624 3338:0.05407464 3362:0.0274271 3395:0.006835628 3402:0.019664544 3432:0.038181132 3447:0.024706158 3457:0.01358879 3467:0.01403637 3472:0.037314216 3485:0.06681266 3504:0.078843896 3516:0.023780874 3526:0.027963514 3537:0.021158198 3560:0.0093584265 3563:0.007860669 3573:0.046829273 3576:0.040655946 3579:0.014272584 3583:0.010573553 3585:0.033159547 3592:0.020441346 3595:0.058210789 3602:0.0063313621 3608:0.041723073 3627:0.019111007 3630:0.026043215 3638:0.077608166 3640:0.028176097 3690:0.017945245 3691:0.032586229 3742:0.045012401 3791:0.010593807 3799:0.027547679 3812:0.064348286 3834:0.091043839 3852:0.0061869375 3903:0.062706939 3923:0.031868013 3970:0.083960762 3980:0.01393097 4019:0.079810032 4094:0.013842526 4110:0.026298555 4171:0.07052102 4183:0.021033924 4215:0.063715598 4225:0.0040268468 4250:0.040313629 4253:0.043554117 4256:0.011748328 4261:0.060377629 4302:0.12615761 4308:0.063334104 4333:0.01023909 4376:0.010385888 4377:0.033845036 4395:0.057030483 4412:0.0038187681 4414:0.011615101 4425:0.071721662 4432:0.031951134 4447:0.029518429 4457:0.0047826548 4465:0.010742245 4467:0.023987801 4482:0.073896009 4485:0.024056604 4496:0.039678328 4516:0.0016373574 4552:0.049147552 4570:0.071601242 4583:0.046904813 4614:0.0055754221 4640:0.033369413 4682:0.073966282 4687:0.039718256 4688:0.1163591 4705:0.044536007 4723:0.060359522 4734:0.030973034 4789:0.0037460224 4810:0.034796363 4822:0.014930743 4831:0.029509763 4834:0.034252385 4856:0.049755264 4861:0.048462492 4877:0.0067409095 4879:0.01329315 4885:0.017437928 4891:0.040892404 4892:0.050959051 4900:0.046155229 4910:0.00099649519 4923:0.035596761 4956:0.075742184 4970:0.018707639 4972:0.021110626 8010:0.029261429 8033:0.021719209 8101:0.089873383 8253:0.008936542 8525:0.16352387 8538:0.040863484 8555:0.13471978 8585:0.0063739288 8801:0.026365619 8855:0.019910903 9467:0.011737389 9594:-0.010179525 9595:0.030135569 9798:0.017434488 9919:0.037074092 10033:-0.018342218 10087:0.016262515 10253:-0.0052237052 10478:-0.01054773 10840:0.10405315 12033:0.036781545 12206:0.041810405 12253:0.013626287 12326:0.025787736 12353:0.033287633 12425:0.0036306959 12523:0.010601676 12538:0.002264035 12555:0.040180752 12573:0.089201255 12590:0.033125092 12623:0.078936329 12755:0.024580194 12835:0.05421494 12840:0.059631554 13066:0.05683775 13091:0.066395384 13144:0.037650259 13314:0.020506054 13362:0.0073610498 13432:0.038181132 13472:0.037314216 13485:0.017812492 13516:0.023780874 13537:0.021158198 13560:0.0093584265 13563:0.007860669 13576:0.040655946 13585:0.033159547 13627:0.019111007 13640:0.028176097 13691:0.032586229 13923:0.031868013 14016:0.038105181 14111:0.037756264 14180:0.01791689 14281:0.010217174 14526:0.027963514 14573:0.046829273 14608:0.041723073 14638:0.077608166 14791:0.010593807 14812:0.064348286 14852:0.0061869375 14903:0.062706939 14970:0.020101936 15261:0.060377629 15516:-0.0045171135 15772:-0.013340216 15834:0.034252385 15892:0.0094293404 17019:0.029545473 17138:0.0080328872 17163:0.037414687 17183:0.071490039 17236:0.022366798 17287:0.024995969 17362:0.0274271 17402:0.019664544 17447:0.024706158 17457:0.01358879 17467:0.01403637 17504:0.078843896 17592:0.020441346 17595:0.058210789 17602:0.0063313621 17627:0.016657113 17690:0.017945245 17742:0.045012401 17799:0.027547679 18010:0.013940985 18064:0.051419614 18087:0.03801413 18213:0.044473934 18214:0.029112107 18234:0.041831265 18249:0.0057208729 18297:0.077894 18333:0.084236624 18338:0.05407464 18395:0.006835628 18485:0.06681266 18573:0.024385341 18579:0.014272584 18583:0.010573553 18630:0.026043215 18834:0.091043839 18970:0.083960762 18980:0.01393097 19019:0.079810032 19094:0.013842526 19171:0.07052102 19302:0.12615761 19308:0.063334104 19333:0.01023909 19376:0.010385888 19395:0.057030483 19412:0.0038187681 19414:0.011615101 19425:0.071721662 19432:0.031951134 19447:0.029518429 19457:0.0047826548 19485:0.024056604 19496:0.039678328 19552:0.049147552 19570:0.071601242 19583:0.046904813 19614:0.0055754221 19682:0.073966282 19687:0.039718256 19688:0.1163591 19705:0.044536007 19723:0.060359522 19789:0.0037460224 19822:0.014930743 19834:0.0035306486 19861:0.048462492 19877:0.0067409095 19885:0.017437928 19892:0.050959051 19900:0.046155229 19910:0.00099649519 19923:0.035596761 19956:0.065449471 19972:0.0088000859 20110:0.026298555 20171:0.035024407 20183:0.021033924 20215:0.063715598 20225:0.0040268468 20250:0.040313629 20253:0.043554117 20256:0.011748328 20377:0.033845036 20432:0.00045165825 20465:0.010742245 20467:0.023987801 20482:0.073896009 20516:0.0016373574 20640:0.033369413 20734:0.030973034 20810:0.034796363 20831:0.029509763 20856:0.049755264 20879:0.01329315 20891:0.040892404 20956:0.075742184 20970:0.018707639 20972:0.021110626 
5331.087091308063 10:0.026354954 18:0.027311611 22:0.075120441 26:0.0020369562 33:0.033128113 40:0.040601228 64:0.016652075 66:0.051192178 75:0.048867426 83:0.067625083 87:0.023581276 97:0.032615869 101:0.080946453 111:0.020834608 142:0.068452828 143:0.020694169 144:0.03391054 163:0.018361079 168:0.014437606 177:0.022717159 180:0.0070247953 183:0.015223757 193:0.035280655 198:0.020394721 203:0.092342751 206:0.037657467 215:0.060866378 222:0.024320603 242:0.0013990907 249:0.012229925 253:0.049588406 261:0.054380449 279:0.0416156 282:0.06689879 292:0.012546196 296:0.004632395 306:0.018016258 314:0.018469231 320:0.013821774 324:0.028614232 326:0.023226295 342:0.027268252 347:0.028151948 349:0.035651215 353:0.029981244 355:0.011094215 358:0.086319275 362:0.0066298925 367:0.043484131 377:0.031390753 400:0.00037269828 413:0.017126788 418:0.02018003 425:0.0032700666 429:0.035175257 430:0.0026636463 432:0.034388682 442:0.025615727 456:0.0021614963 462:0.0050928793 467:0.010571539 468:0.0068375052 469:0.025207199 474:0.054790078 477:0.050722912 482:0.02516996 485:0.016043216 490:0.0061969322 501:0.012145617 502:0.009619238 510:0.081749746 515:0.11612621 516:0.021418771 519:0.03731188 520:0.013218499 523:0.02244441 525:0.14728139 532:0.10446336 534:0.0039415442 537:0.0190566 538:0.036804602 544:0.089329847 546:0.054609547 548:0.050231345 555:0.12133836 560:0.02015076 563:0.041775509 573:0.080341086 583:0.01467059 585:0.0057408202 590:0.031995238 592:0.047275061 594:0.018257321 595:0.027142268 600:0.044079807 602:0.022513393 623:0.071095753 627:0.0051927229 629:0.012972006 638:0.049284131 640:0.025377426 661:0.0099215187 666:0.0077101423 667:0.044330184 668:0.1088773 691:0.047047971 692:0.031703039 695:0.039675899 698:0.028981369 700:0.021866245 707:0.023397002 722:0.068268456 724:0.047508426 727:0.038861532 730:0.022655183 731:0.045946581 734:0.016700938 742:0.052126597 755:0.022138696 756:0.012840086 768:0.080814869 774:0.079194437 776:0.031646264 787:0.0075073234 798:0.015702758 799:0.018286242 801:0.11636238 811:0.053441837 822:0.025280999 834:0.035451819 835:0.048829886 840:0.093717776 843:0.016253422 851:0.00042354969 855:0.017933196 877:0.018386518 892:0.0084927443 899:0.016119387 905:0.0083878322 910:0.052743394 919:0.033391602 939:0.13818888 948:0.030058747 951:0.014726935 959:0.085009731 972:0.022924403 973:0.036158896 981:0.017976751 986:0.03070095 992:0.052478857 994:0.016119421 995:0.033162256 2010:0.026354954 2018:0.027311611 2022:0.075120441 2026:0.0020369562 2033:0.019561887 2064:0.016652075 2083:0.067625083 2087:0.023581276 2097:0.032615869 2101:0.080946453 2111:0.020834608 2142:0.068452828 2143:0.020694169 2168:0.014437606 2177:0.022717159 2180:0.0070247953 2198:0.020394721 2203:0.026839378 2206:0.020479819 2222:0.024320603 2242:0.0013990907 2249:0.012229925 2253:0.018293206 2279:0.0416156 2282:0.06689879 2296:0.004632395 2306:0.018016258 2320:0.013821774 2324:0.028614232 2342:0.027268252 2347:0.028151948 2349:0.035651215 2355:0.011094215 2358:0.086319275 2367:0.043484131 2377:0.031390753 2413:0.017126788 2429:0.035175257 2442:0.025615727 2456:0.0021614963 2462:0.0050928793 2468:0.0068375052 2469:0.025207199 2474:0.054790078 2477:0.050722912 2482:0.02516996 2490:0.0061969322 2501:0.012145617 2502:0.009619238 2515:0.11612621 2519:0.03731188 2520:0.013218499 2523:0.02244441 2525:0.14728139 2532:0.10446336 2534:0.0039415442 2538:0.036804602 2544:0.089329847 2546:0.054609547 2548:0.050231345 2555:0.12133836 2560:0.02015076 2563:0.041775509 2573:0.034949558 2585:0.0057408202 2592:0.047275061 2594:0.018257321 2600:0.044079807 2623:0.036851356 2627:0.0051927229 2629:0.012972006 2638:0.049284131 2666:0.0077101423 2667:0.044330184 2668:0.1088773 2691:0.047047971 2695:0.039675899 2722:0.068268456 2724:0.047508426 2727:0.038861532 2730:0.022655183 2731:0.045946581 2734:0.016700938 2756:0.012840086 2768:0.0085922165 2774:0.079194437 2776:0.031646264 2787:0.0075073234 2801:0.11636238 2811:0.053441837 2822:0.025280999 2834:0.035451819 2835:0.032531025 2843:0.016253422 2851:0.00042354969 2855:0.017933196 2877:0.018386518 2899:0.016119387 2905:0.0083878322 2948:0.030058747 2951:0.014726935 2959:0.085009731 2981:0.017976751 2986:0.03070095 2992:0.052478857 2994:0.016119421 2995:0.033162256 3066:0.051192178 3075:0.048867426 3087:0.014647194 3144:0.03391054 3163:0.018361079 3193:0.035280655 3261:0.054380449 3314:0.018469231 3362:0.0066298925 3400:0.00037269828 3418:0.02018003 3430:0.0026636463 3432:0.034388682 3467:0.010571539 3485:0.016043216 3516:0.021418771 3537:0.0190566 3595:0.027142268 3640:0.025377426 3742:0.052126597 3798:0.015702758 3834:0.030850169 3840:0.093717776 3892:0.0084927443 3919:0.033391602 3939:0.13818888 4033:0.033128113 4040:0.040601228 4183:0.015223757 4203:0.092342751 4206:0.037657467 4215:0.060866378 4253:0.049588406 4292:0.012546196 4326:0.023226295 4353:0.029981244 4425:0.0032700666 4510:0.081749746 4523:0.0095486339 4525:0.040057081 4538:0.010736564 4555:0.036189684 4573:0.080341086 4583:0.01467059 4590:0.031995238 4592:0.017899338 4602:0.022513393 4623:0.071095753 4661:0.0099215187 4692:0.031703039 4698:0.028981369 4700:0.021866245 4707:0.023397002 4755:0.022138696 4768:0.080814869 4799:0.018286242 4835:0.048829886 4840:0.068023527 4910:0.052743394 4972:0.022924403 4973:0.036158896 7033:0.012925197 7064:0.016652075 7087:0.023581276 7253:0.018293206 7324:0.028614232 7515:0.11612621 7523:0.02244441 7573:0.034949558 7594:0.0029635794 7600:0.044079807 7623:0.036851356 7668:0.1088773 7855:0.014734594 7877:0.008882932 8064:0.016107469 8111:0.0098705841 8142:0.068452828 8168:0.014437606 8180:0.0070247953 8198:0.020394721 8206:0.020479819 8249:0.012229925 8279:0.0416156 8282:0.06689879 8306:0.018016258 8320:0.013821774 8342:0.027268252 8349:0.035651215 8367:0.043484131 8429:0.011464829 8469:0.025207199 8474:0.054790078 8482:0.02516996 8490:0.0061969322 8502:0.009619238 8519:0.03731188 8532:0.10446336 8534:0.0039415442 8546:0.054609547 8548:0.050231345 8560:0.0078017151 8563:0.041775509 8592:0.047275061 8638:0.049284131 8695:0.039675899 8722:0.068268456 8724:0.047508426 8756:0.012840086 8787:0.0075073234 8822:0.025280999 8951:0.014726935 8959:0.085009731 11010:0.026354954 11033:0.019561887 11101:0.080946453 11111:0.020834608 11203:0.026839378 11242:0.0013990907 11253:0.0080488944 11358:0.086319275 11413:0.017126788 11456:0.0021614963 11501:0.012145617 11520:0.013218499 11525:0.14728139 11538:0.036804602 11555:0.12133836 11560:0.02015076 11585:0.0057408202 11623:0.0083893524 11768:0.0085922165 11801:0.11636238 11855:0.017933196 11994:0.016119421 12018:0.027311611 12022:0.075120441 12026:0.0020369562 12083:0.067625083 12097:0.032615869 12143:0.020694169 12177:0.022717159 12222:0.024320603 12296:0.004632395 12347:0.028151948 12355:0.011094215 12377:0.031390753 12429:0.035175257 12442:0.025615727 12462:0.0050928793 12468:0.0068375052 12477:0.050722912 12544:0.089329847 12594:0.018257321 12627:0.0051927229 12629:0.012972006 12666:0.0077101423 12667:0.044330184 12691:0.047047971 12727:0.038861532 12730:0.022655183 12731:0.045946581 12734:0.016700938 12774:0.079194437 12776:0.031646264 12811:0.053441837 12834:0.035451819 12835:0.032531025 12843:0.016253422 12851:0.00042354969 12877:0.018386518 12899:0.016119387 12905:0.0083878322 12948:0.030058747 12981:0.017976751 12986:0.03070095 12992:0.052478857 12995:0.033162256 13075:0.048867426 13193:0.035280655 13400:0.00037269828 13430:0.0026636463 13939:0.13818888 15033:0.033128113 15203:0.092342751 15206:0.037657467 15253:0.037236278 15292:0.012546196 15353:0.029981244 15525:0.040057081 15538:0.010736564 15555:0.036189684 15573:0.080341086 15592:0.017899338 15623:0.071095753 15692:0.031703039 15698:0.028981369 15700:0.021866245 15755:0.022138696 15768:0.080814869 15835:0.048829886 15840:0.05370848 15972:0.022924403 16159:-0.0086507174 16583:0.01467059 16707:0.023397002 16832:-0.0045205104 16910:0.052743394 17066:0.051192178 17144:0.03391054 17163:0.018361079 17314:0.018469231 17362:0.0066298925 17418:0.02018003 17432:0.034388682 17467:0.010571539 17485:0.016043216 17516:0.021418771 17537:0.0190566 17595:0.027142268 17640:0.025377426 17742:0.052126597 17798:0.015702758 17919:0.033391602 18087:0.014647194 18261:0.054380449 18834:0.030850169 18840:0.093717776 18892:0.0084927443 19253:0.049588406 19326:0.023226295 19353:0.011759915 19425:0.0032700666 19523:0.0095486339 19590:0.029834847 19602:0.022513393 19661:0.0099215187 19840:0.0576728 19973:0.036158896 20040:0.040601228 20183:0.015223757 20215:0.060866378 20353:0.026155105 20510:0.081749746 20590:0.031995238 20602:0.014740174 20661:0.0063706939 20799:0.018286242 20840:0.068023527 
6251.739853504738 10:0.033053375 22:0.094213182 33:0.041548011 64:0.020884395 66:0.064203271 83:0.08481279 87:0.029574734 101:0.10151994 111:0.026129968 142:0.085850917 144:0.042529301 198:0.025578278 203:0.11581274 206:0.047228554 242:0.001754686 253:0.062191881 261:0.068201877 292:0.015734959 320:0.01733474 324:0.035886874 326:0.029129531 347:0.035307096 353:0.037601329 358:0.10825833 362:0.0083149575 367:0.054536133 413:0.021479762 425:0.0041011924 432:0.043128969 456:0.0027108659 462:0.0063872943 467:0.01325842 477:0.063614735 485:0.020120787 501:0.015232568 510:0.1025274 515:0.14564105 519:0.046795132 520:0.016578136 523:0.02814892 525:0.18471468 534:0.0049433339 538:0.046158923 546:0.068489204 555:0.15217792 560:0.025272312 573:0.10076072 585:0.0071999169 590:0.040127203 592:0.022448665 594:0.0037168078 595:0.034040793 600:0.055283208 602:0.028235436 623:0.089165572 629:0.016268994 661:0.012443189 667:0.05559722 668:0.12073064 692:0.039760738 695:0.049759994 698:0.036347324 700:0.027423808 731:0.057624443 755:0.027765505 768:0.10135492 798:0.019693798 799:0.022933905 801:0.14593724 822:0.031706461 834:0.038691102 835:0.061240574 840:0.11753725 855:0.022491128 877:0.011140633 892:0.010651275 919:0.041878469 948:0.03769853 972:0.028750909 973:0.045349103 994:0.020216361 995:0.041590832 2010:0.033053375 2022:0.094213182 2033:0.02453377 2064:0.020884395 2083:0.08481279 2087:0.029574734 2101:0.10151994 2111:0.026129968 2142:0.085850917 2198:0.025578278 2203:0.11581274 2242:0.001754686 2253:0.022942638 2320:0.01733474 2324:0.035886874 2347:0.035307096 2358:0.10825833 2367:0.054536133 2413:0.021479762 2456:0.0027108659 2462:0.0063872943 2477:0.063614735 2501:0.015232568 2515:0.14564105 2519:0.046795132 2520:0.016578136 2523:0.02814892 2525:0.18471468 2534:0.0049433339 2538:0.046158923 2546:0.068489204 2555:0.15217792 2560:0.025272312 2573:0.043832398 2585:0.0071999169 2594:0.0037168078 2600:0.055283208 2623:0.089165572 2629:0.016268994 2667:0.05559722 2668:0.12073064 2695:0.049759994 2698:0.019584644 2731:0.057624443 2768:0.010776029 2801:0.14593724 2822:0.031706461 2855:0.022491128 2877:0.011140633 2948:0.03769853 2994:0.020216361 2995:0.041590832 3066:0.064203271 3087:0.018369951 3144:0.042529301 3261:0.068201877 3362:0.0083149575 3432:0.043128969 3467:0.01325842 3485:0.020120787 3595:0.034040793 3798:0.019693798 3834:0.038691102 3840:0.11753725 3892:0.010651275 3919:0.041878469 4033:0.041548011 4203:0.099036606 4206:0.047228554 4253:0.062191881 4292:0.015734959 4326:0.029129531 4353:0.037601329 4425:0.0041011924 4510:0.1025274 4523:0.011975531 4525:0.050238058 4538:0.013465387 4573:0.10076072 4590:0.040127203 4592:0.022448665 4602:0.028235436 4623:0.071533619 4661:0.012443189 4692:0.039760738 4698:0.036347324 4700:0.027423808 4755:0.027765505 4768:0.10135492 4799:0.022933905 4835:0.061240574 4840:0.085312504 4972:0.028750909 4973:0.045349103 8010:0.033053375 8022:0.094213182 8033:0.02453377 8064:0.020884395 8083:0.08481279 8087:0.029574734 8111:0.026129968 8142:0.085850917 8198:0.025578278 8253:0.022942638 8320:0.01733474 8324:0.035886874 8347:0.035307096 8367:0.054536133 8462:0.0063872943 8477:0.063614735 8501:0.015232568 8515:0.14564105 8519:0.046795132 8523:0.02814892 8534:0.0049433339 8546:0.068489204 8560:0.025272312 8573:0.043832398 8585:0.0071999169 8594:0.0037168078 8600:0.055283208 8623:0.010521605 8629:0.016268994 8667:0.05559722 8668:0.12073064 8695:0.049759994 8731:0.057624443 8822:0.031706461 8855:0.022491128 8877:0.011140633 8948:0.03769853 8994:0.020216361 8995:0.041590832 12101:0.10151994 12203:0.11581274 12242:0.001754686 12358:0.10825833 12413:0.021479762 12456:0.0027108659 12520:0.016578136 12525:0.18471468 12538:0.046158923 12555:0.15217792 12623:0.089165572 12698:0.019584644 12768:0.010776029 12801:0.14593724 15206:0.047228554 15314:-0.015193521 15755:0.027765505 15831:-0.023668304 15835:0.061240574 16203:0.099036606 16253:0.046700314 16292:0.015734959 16525:0.050238058 16538:0.013465387 16573:0.10076072 16592:0.022448665 16623:0.071533619 16692:0.039760738 16698:0.036347324 16700:0.027423808 16768:0.10135492 16840:0.06735912 16972:0.028750909 17066:0.064203271 17144:0.042529301 17362:0.0083149575 17432:0.043128969 17467:0.01325842 17485:0.020120787 17595:0.034040793 17798:0.019693798 17919:0.041878469 18087:0.018369951 18261:0.068201877 18834:0.038691102 18840:0.11753725 18892:0.010651275 20033:0.041548011 20253:0.062191881 20326:0.029129531 20353:0.037601329 20425:0.0041011924 20510:0.1025274 20523:0.011975531 20590:0.040127203 20602:0.028235436 20661:0.012443189 20799:0.022933905 20840:0.085312504 20973:0.045349103 
16384 11:0.019780808 15:0.0034470393 20:0.022958864 28:0.063798438 53:0.01750598 58:0.030824728 63:0.11043812 69:0.062257785 74:0.04279898 89:0.052935499 135:0.01931474 158:0.04511995 170:0.082558293 176:0.029720742 184:0.043976308 186:0.099876498 189:0.026313362 194:0.048490119 196:0.0037185497 197:0.0046256478 207:0.080636771 208:0.0099007277 209:0.060763155 210:0.013426119 221:0.06626292 226:0.026520053 240:0.026854523 263:0.024989971 264:0.054158658 268:0.032403385 279:0.00065748342 280:0.032384058 282:0.033297508 289:0.069285024 295:0.014986993 317:0.055267154 341:0.036040486 350:0.057137916 352:0.016962145 357:0.014904972 366:0.068718059 367:0.0029674675 370:0.038128845 375:0.085681695 399:0.040649932 401:0.03365789 408:0.049846477 413:0.010486358 444:0.014077276 456:0.0035413986 464:0.10236847 477:0.026855616 481:0.030295452 484:0.0426602 493:0.017446047 494:0.027563991 497:0.018055904 501:0.069106337 502:0.079498884 515:0.031294923 521:0.074347438 530:0.091863125 531:0.0035033713 538:0.041366851 550:0.008467145 552:0.06252976 560:0.011769518 567:0.020670055 569:0.014660679 611:0.010354674 643:0.072828214 644:0.08532363 659:0.0060020857 667:0.078342384 669:0.065203983 674:0.012879321 692:0.030260639 704:0.031048519 719:0.03588263 724:0.022819604 733:0.037697516 737:0.031262361 740:0.08537346 754:0.016971488 756:0.071661909 758:0.049065493 778:0.086065043 784:0.042944139 787:0.0016755791 797:0.021837332 812:0.15008812 814:0.025182638 828:0.039896505 830:0.04184878 833:0.031401396 836:0.032320788 837:0.060218219 849:0.035218528 868:0.03212549 878:0.10157374 879:0.079362251 880:0.046391213 881:0.098421869 889:0.1279357 937:0.0014867275 948:0.074415413 951:0.032731197 965:0.03330964 966:0.025784061 970:0.086514 994:0.02757681 1058:0.030824728 1069:0.062257785 1170:0.026302653 1194:0.048490119 1208:0.0056159403 1263:0.024989971 1350:0.057137916 1531:0.0035033713 1740:0.08537346 1784:0.042944139 1830:0.04184878 1849:0.035218528 2028:0.063798438 2063:0.11043812 2135:0.01931474 2158:0.04511995 2176:0.029720742 2184:0.043976308 2186:0.0039018314 2189:0.026313362 2196:0.0037185497 2197:0.0046256478 2207:0.080636771 2208:0.0099007277 2210:0.0018693806 2221:0.06626292 2264:0.023966639 2280:0.032384058 2282:0.033297508 2295:0.014986993 2341:0.036040486 2352:0.016962145 2357:0.014904972 2367:0.0029674675 2375:0.085681695 2401:0.03365789 2456:0.0035413986 2481:0.030295452 2484:0.0426602 2493:0.017446047 2497:0.018055904 2501:0.069106337 2538:0.041366851 2550:0.008467145 2552:0.06252976 2560:0.011769518 2567:0.020670055 2569:0.014660679 2643:0.072828214 2659:0.0060020857 2669:0.065203983 2692:0.030260639 2719:0.03588263 2724:0.022819604 2737:0.031262361 2787:0.0016755791 2812:0.15008812 2828:0.039896505 2836:0.032320788 2837:0.0481504 2868:0.03212549 2881:0.098421869 2889:0.1279357 2966:0.025784061 3058:0.016389787 3074:0.04279898 3289:0.069285024 3350:0.054509109 3408:0.049846477 3413:0.010486358 3444:0.014077276 3521:0.074347438 3530:0.087753906 3644:0.08532363 3778:0.086065043 3878:0.10157374 3879:0.079362251 3951:0.032731197 3965:0.03330964 3970:0.086514 4011:0.019780808 4015:0.0034470393 4020:0.022958864 4053:0.01750598 4074:0.020786679 4089:0.052935499 4170:0.082558293 4186:0.099876498 4189:0.013905947 4194:0.0083451593 4209:0.060763155 4210:0.013426119 4226:0.026520053 4240:0.026854523 4264:0.054158658 4268:0.032403385 4279:0.00065748342 4317:0.055267154 4341:0.0063665721 4366:0.068718059 4370:0.038128845 4399:0.040649932 4464:0.10236847 4477:0.026855616 4494:0.027563991 4502:0.079498884 4515:0.031294923 4521:0.0072903467 4530:0.091863125 4611:0.010354674 4667:0.078342384 4674:0.012879321 4704:0.031048519 4733:0.037697516 4754:0.016971488 4756:0.071661909 4758:0.049065493 4778:0.076197539 4797:0.021837332 4814:0.025182638 4833:0.031401396 4836:0.016998327 4837:0.060218219 4880:0.046391213 4881:0.025554692 4937:0.0014867275 4948:0.074415413 4994:0.02757681 7063:0.11043812 7196:0.0037185497 7501:0.069106337 7550:0.008467145 7560:0.011769518 7724:0.022819604 7737:0.031262361 7812:0.15008812 7868:0.03212549 8028:0.063798438 8135:0.0045960464 8158:0.04511995 8176:0.029720742 8207:0.038491749 8280:0.032384058 8295:0.014986993 8357:0.014904972 8367:0.0029674675 8401:0.03365789 8456:0.0035413986 8481:0.030295452 8484:0.028138401 8497:0.018055904 8552:0.06252976 8567:0.020670055 8659:0.0060020857 8669:0.065203983 8692:0.030260639 8719:0.03588263 8787:0.0016755791 8828:0.039896505 8881:0.098421869 8889:0.1279357 8966:0.025784061 9058:0.030824728 9194:0.048490119 9263:0.024989971 9350:0.057137916 9531:0.0035033713 9740:0.08537346 9784:0.042944139 9830:0.04184878 9849:0.035218528 12135:0.01931474 12184:0.043976308 12186:0.0039018314 12189:0.026313362 12197:0.0046256478 12207:0.080636771 12208:0.0099007277 12210:0.0018693806 12221:0.06626292 12264:0.023966639 12282:0.033297508 12341:0.036040486 12352:0.016962145 12357:0.0096940436 12375:0.085681695 12484:0.0426602 12493:0.017446047 12538:0.041366851 12569:0.014660679 12643:0.072828214 12836:0.032320788 12837:0.0481504 12881:0.080223527 13058:0.016389787 13289:0.027256515 13350:0.054509109 13408:0.049846477 13444:0.014077276 13521:0.022799763 13644:0.08532363 13878:0.05958044 13965:0.03330964 16011:0.019780808 16053:0.01750598 16186:0.099876498 16189:0.013905947 16194:0.0083451593 16209:0.060763155 16210:0.013426119 16264:0.054158658 16268:0.025328283 16317:0.055267154 16370:0.0073340728 16399:0.040649932 16494:0.027563991 16754:0.016971488 16797:0.021837332 16833:0.030169383 16837:0.060218219 16881:0.025554692 16937:0.0014867275 16948:0.074415413 17289:0.069285024 17521:0.074347438 17531:-0.010963912 17778:0.00093123361 17878:0.10157374 18074:0.04279898 18289:0.042585765 18413:0.010486358 18521:0.029301677 18530:0.087753906 18778:0.086065043 18878:0.015756751 18879:0.079362251 18951:0.032731197 18970:0.086514 19015:0.0034470393 19020:0.022958864 19074:0.020786679 19170:0.082558293 19186:0.038214409 19226:0.026520053 19240:0.026854523 19264:0.024272922 19279:0.00065748342 19464:0.10236847 19515:0.031294923 19521:0.0072903467 19530:0.091863125 19674:0.012879321 19704:0.031048519 19733:0.037697516 19756:0.071661909 19758:0.049065493 19778:0.076197539 19814:0.025182638 19880:0.046391213 19994:0.02757681 20020:0.010752774 20089:0.052935499 20186:0.070389965 20264:0.027238328 20268:0.032403385 20341:0.0063665721 20366:0.068718059 20370:0.038128845 20464:0.090373868 20477:0.026855616 20494:0.015696066 20502:0.079498884 20530:0.039909768 20611:0.010354674 20667:0.078342384 20758:0.0058412572 20778:0.069582734 20833:0.031401396 20836:0.016998327 20837:0.0072749533 20881:0.020609595 20948:0.053260786 
8446.035649860432 9:0.0056473126 11:0.012135697 15:0.019601833 16:0.025405098 17:0.038939587 20:0.014085461 21:0.048231144 28:0.039140892 32:0.010873088 33:0.0013572309 37:0.052372484 39:0.053670378 43:0.011111318 46:0.014191166 53:0.01074007 58:0.021487305 61:0.04439718 63:0.067754739 65:0.051059573 69:0.038195688 72:0.000424915 74:0.026257543 76:0.039605786 79:0.013023058 81:0.016897339 83:0.068949663 84:0.0443234 87:0.0024888848 89:0.032476385 92:0.0086088476 93:0.0036626859 94:0.025184081 95:0.01418246 104:0.013551156 105:0.014133558 106:0.015721676 107:0.029088164 109:0.027705518 115:0.037315766 118:0.011310705 127:0.00092838738 132:0.011341122 135:0.01184976 146:0.024944858 148:0.01796516 157:0.020097041 158:0.027681479 166:0.026587169 170:0.050650225 176:0.018233931 179:0.015026122 181:0.017777339 182:0.045381302 184:0.026979845 186:0.061275093 187:0.034092466 189:0.016143474 190:0.022674198 194:0.029749106 196:0.0022813623 197:0.0028378748 200:0.01961304 202:0.02779945 204:0.014467259 205:0.061014581 207:0.049471355 208:0.0060741819 209:0.03727872 210:0.00823704 213:0.00048272836 215:0.015008455 221:0.040652873 226:0.017052087 230:0.030787082 240:0.027404697 247:0.055630481 250:0.013026579 254:0.022274999 255:0.031817093 257:0.13050131 259:0.050464056 263:0.015331563 264:0.033226804 268:0.019879757 271:0.041173132 275:0.0021101329 279:0.00040337175 280:0.019867899 282:0.030962434 284:0.01953903 289:0.04250696 295:0.0091946497 317:0.033906876 326:0.037795509 327:0.030321926 328:0.039712141 331:0.04023278 332:0.02227983 337:0.051959806 341:0.022111149 350:0.035054604 352:0.010406422 353:0.01137693 356:0.0085670407 357:0.0091443289 361:0.019690817 364:0.012287552 366:0.042159122 367:0.0018205669 370:0.023392375 373:0.021381187 374:0.0073973474 375:0.052566459 376:0.020694402 389:0.014961293 391:0.06561421 392:0.0068388381 395:0.026778619 399:0.024939084 401:0.020649406 404:0.031594345 405:0.0080990516 408:0.030581244 410:0.034429618 411:0.019836028 413:0.092622681 426:0.017660517 431:0.059320649 432:0.004745622 433:0.001815354 435:0.0068616184 437:0.023216769 440:0.0098405306 443:0.019448867 444:0.0086365304 447:0.017443817 451:0.032200195 455:0.0034755253 456:0.0021726786 460:0.020332299 464:0.062803938 477:0.016476152 478:0.011131929 481:0.029737037 482:0.037707079 484:0.026172401 486:0.0070755379 492:0.017441624 493:0.0107033 494:0.016910746 495:0.013768289 496:0.068274741 497:0.033785267 501:0.042397334 502:0.048773251 504:0.017348591 511:0.019185311 515:0.019199705 516:0.07800282 520:0.0085371081 521:0.045612795 522:0.024637128 523:0.030275943 528:0.0017443197 529:0.025616703 530:0.056358819 531:0.0048256488 532:0.031373866 535:0.017210595 536:0.018220506 538:0.02537892 541:0.079973171 543:0.030451812 545:0.013109695 546:0.018258925 548:0.0038651374 550:0.0051946665 552:0.038362547 555:0.0053074554 559:0.020134184 560:0.060347081 566:0.013925567 567:0.016432038 569:0.0089944533 576:0.0053093083 579:0.025017089 585:0.023914151 588:0.035959866 590:0.016259552 594:0.00059166546 595:0.030185327 596:0.062949222 600:0.025129325 602:0.0089229523 603:0.0096072392 611:0.007387722 626:0.01221908 628:0.0072830786 630:0.02662435 631:0.015010993 632:0.0071939752 636:0.015305758 643:0.044680738 644:0.052346783 649:0.016036915 655:0.0033649839 659:0.025065609 667:0.048063728 668:0.016070692 669:0.040003206 674:0.0079015746 679:0.0058304325 680:0.038726199 692:0.018565163 704:0.019048534 707:0.014638359 711:0.0070014777 717:0.0043874127 719:0.06909701 724:0.014000024 731:0.023545305 733:0.023127752 737:0.019179728 739:0.019585789 740:0.052377354 741:0.04274568 745:0.01958566 749:0.0016519008 753:0.015009404 754:0.010412154 756:0.0439652 758:0.030102103 769:0.033354605 775:0.075204903 778:0.052801647 784:0.0263466 787:0.028177264 790:0.025120553 797:0.013397391 799:0.039056079 801:0.036270517 802:0.010730906 809:0.029287992 810:0.014773762 812:0.092080356 814:0.015449766 816:0.0091081249 817:0.032504665 822:0.0010356457 823:0.011673652 827:0.022054109 828:0.02447685 830:0.042080601 833:0.019265027 836:0.019829082 837:0.036944397 840:0.012813836 846:0.016717523 847:0.039224729 849:0.021606871 850:0.0017199601 854:0.021682865 861:0.066137829 863:0.01472983 868:0.019709265 877:0.028421215 878:0.062316368 879:0.048689426 880:0.028461409 881:0.060382665 884:0.011431617 885:0.020413811 886:0.08813558 889:0.078489654 890:0.0074064461 893:0.011163831 900:0.02229829 901:0.018966577 902:0.0077949803 906:0.014467751 911:0.03780474 912:0.0099106787 918:0.042075462 928:0.0046255915 937:0.024236361 944:0.0061118064 948:0.045654498 950:0.010343258 951:0.020080872 965:0.020435751 966:0.015818744 970:0.053077086 976:0.018357469 978:0.073848252 994:0.016918611 998:0.021423034 1009:0.0056473126 1015:0.017705916 1017:0.038939587 1020:0.0041398342 1021:0.048231144 1037:0.052372484 1043:0.011111318 1061:0.04439718 1079:0.013023058 1081:0.016897339 1083:0.068949663 1093:0.0036626859 1104:0.013551156 1107:0.029088164 1118:0.011310705 1158:0.017778309 1205:0.061014581 1226:0.013552266 1259:0.022256691 1271:0.041173132 1275:0.0021101329 1280:0.00022700278 1282:0.030962434 1331:0.025859165 1332:0.011108186 1352:0.007126349 1356:0.0085670407 1361:0.019690817 1364:0.012287552 1395:0.026778619 1404:0.031594345 1411:0.019836028 1413:0.092622681 1455:0.0034755253 1481:0.015101573 1495:0.013748366 1497:0.033785267 1501:0.042397334 1520:0.0085371081 1521:0.030372921 1522:0.024637128 1532:0.031373866 1535:0.012665381 1536:0.018220506 1543:0.030451812 1545:0.013109695 1548:0.0038651374 1555:0.0053074554 1560:0.0072207007 1590:0.0072669124 1600:0.025129325 1611:0.007387722 1636:0.015305758 1655:0.0033649839 1668:0.016070692 1669:0.010565569 1719:0.055334369 1724:0.014000024 1749:0.0016519008 1769:0.033354605 1775:0.026876264 1790:0.025120553 1801:0.036270517 1840:0.012813836 1846:0.016717523 1868:0.019709265 1877:0.028421215 1886:0.08813558 1889:0.0050680201 1902:0.0077949803 1912:0.0099106787 1978:0.011525903 2015:0.019601833 2016:0.025405098 2021:0.043204253 2032:0.010873088 2033:0.0013572309 2039:0.053670378 2058:0.021487305 2065:0.051059573 2072:0.000424915 2076:0.039605786 2084:0.0443234 2087:0.0024888848 2089:0.0078936649 2092:0.0086088476 2094:0.025184081 2095:0.01418246 2105:0.014133558 2106:0.015721676 2107:0.024545051 2109:0.027705518 2127:0.00092838738 2132:0.011341122 2146:0.024944858 2157:0.020097041 2166:0.026587169 2179:0.015026122 2182:0.045381302 2187:0.034092466 2190:0.022674198 2200:0.01961304 2202:0.02779945 2213:0.00048272836 2215:0.015008455 2226:0.017052087 2230:0.030787082 2240:0.027404697 2247:0.055630481 2250:0.013026579 2254:0.022274999 2255:0.031817093 2257:0.13050131 2259:0.050464056 2289:0.0083342171 2326:0.037795509 2327:0.030321926 2328:0.039712141 2337:0.051959806 2353:0.01137693 2374:0.0073973474 2375:0.019232508 2376:0.020694402 2389:0.014961293 2391:0.06561421 2404:0.014408029 2410:0.034429618 2413:0.023221475 2426:0.017660517 2431:0.059320649 2432:0.004745622 2435:0.0068616184 2437:0.023216769 2443:0.019448867 2451:0.032200195 2460:0.020332299 2481:0.029737037 2482:0.037707079 2486:0.0070755379 2495:0.013768289 2496:0.068274741 2497:0.0052665197 2511:0.019185311 2520:0.0023825166 2521:0.016261884 2523:0.030275943 2531:0.0048256488 2541:0.079973171 2546:0.018258925 2559:0.020134184 2560:0.060347081 2566:0.013925567 2567:0.016432038 2579:0.025017089 2585:0.023914151 2588:0.024851066 2595:0.030185327 2596:0.062949222 2603:0.0096072392 2626:0.01221908 2628:0.0072830786 2630:0.02662435 2632:0.0071939752 2659:0.025065609 2669:0.019688504 2674:0.0030424988 2679:0.0058304325 2680:0.038726199 2707:0.014638359 2711:0.0070014777 2717:0.0043874127 2719:0.06909701 2739:0.019585789 2741:0.04274568 2745:0.01958566 2753:0.015009404 2769:0.021867623 2775:0.075204903 2778:0.0041291764 2787:0.028177264 2802:0.010730906 2809:0.029287992 2810:0.014773762 2812:0.0042719813 2822:0.0010356457 2823:0.011673652 2827:0.022054109 2830:0.042080601 2847:0.039224729 2849:0.0042944102 2850:0.0017199601 2854:0.021682865 2861:0.066137829 2863:0.01472983 2884:0.011431617 2885:0.020413811 2886:0.027638367 2889:0.029560221 2900:0.02229829 2901:0.018966577 2906:0.014467751 2911:0.03780474 2918:0.042075462 2928:0.0046255915 2937:0.024236361 2950:0.010343258 2966:0.008739687 2976:0.018357469 2978:0.073848252 2998:0.021423034 3015:0.0021147883 3020:0.014085461 3058:0.018911237 3063:0.067754739 3069:0.038195688 3074:0.026257543 3158:0.027681479 3170:0.050650225 3186:0.043184851 3194:0.029749106 3196:0.0022813623 3208:0.0034454278 3226:0.016270281 3240:0.016475482 3263:0.015331563 3264:0.016710949 3279:0.00040337175 3280:0.019867899 3289:0.04250696 3350:0.035054604 3357:0.0091443289 3370:0.023392375 3401:0.020649406 3408:0.030581244 3413:0.0064334709 3444:0.0086365304 3464:0.062803938 3477:0.016476152 3481:0.018586521 3494:0.0096296718 3502:0.048773251 3515:0.019199705 3521:0.045612795 3530:0.056358819 3531:0.0021493485 3550:0.0051946665 3611:0.0063526821 3644:0.052346783 3659:0.0036823313 3669:0.040003206 3674:0.0079015746 3704:0.019048534 3719:0.022014303 3733:0.023127752 3737:0.019179728 3740:0.052377354 3756:0.0439652 3758:0.030102103 3778:0.052801647 3784:0.0263466 3812:0.092080356 3814:0.015449766 3830:0.025674588 3837:0.0044632466 3849:0.021606871 3878:0.062316368 3879:0.048689426 3880:0.028461409 3881:0.012644165 3889:0.078489654 3948:0.032675952 3951:0.020080872 3965:0.020435751 3970:0.053077086 3994:0.016918611 4011:0.012135697 4028:0.039140892 4046:0.014191166 4053:0.01074007 4089:0.032476385 4115:0.037315766 4135:0.01184976 4148:0.01796516 4176:0.018233931 4181:0.017777339 4184:0.026979845 4186:0.061275093 4189:0.016143474 4194:0.0051198272 4197:0.0028378748 4200:0.010728174 4204:0.014467259 4207:0.049471355 4208:0.0060741819 4209:0.03727872 4210:0.00823704 4221:0.040652873 4264:0.033226804 4268:0.019879757 4282:0.020428308 4284:0.01953903 4295:0.0091946497 4317:0.033906876 4331:0.04023278 4332:0.02227983 4341:0.022111149 4352:0.010406422 4357:0.0059473794 4366:0.042159122 4367:0.0018205669 4370:0.004499517 4373:0.021381187 4375:0.052566459 4392:0.0068388381 4399:0.024939084 4405:0.0080990516 4433:0.001815354 4440:0.0098405306 4447:0.017443817 4456:0.0021726786 4478:0.011131929 4481:0.011284037 4484:0.026172401 4492:0.017441624 4493:0.0107033 4494:0.016910746 4497:0.011077453 4502:0.033803383 4504:0.017348591 4516:0.07800282 4528:0.0017443197 4529:0.025616703 4535:0.017210595 4538:0.02537892 4552:0.038362547 4567:0.012681257 4569:0.0089944533 4576:0.0053093083 4588:0.035959866 4590:0.016259552 4594:0.00059166546 4595:0.0068228381 4602:0.0089229523 4631:0.015010993 4643:0.044680738 4649:0.016036915 4667:0.048063728 4692:0.018565163 4731:0.023545305 4754:0.010412154 4758:0.0035836617 4787:0.0059046267 4797:0.013397391 4799:0.039056079 4816:0.0091081249 4817:0.032504665 4827:0.014528224 4828:0.02447685 4833:0.019265027 4836:0.019829082 4837:0.036944397 4881:0.060382665 4890:0.0074064461 4893:0.011163831 4937:0.00091212012 4944:0.0061118064 4948:0.045654498 4966:0.015818744 6009:0.0056473126 6015:0.017705916 6017:0.038939587 6037:0.052372484 6043:0.011111318 6061:0.04439718 6081:0.016897339 6083:0.068949663 6093:0.0013527804 6104:0.013551156 6118:0.011310705 6158:0.0033887401 6271:0.041173132 6275:0.0021101329 6282:0.030962434 6332:0.011108186 6352:0.007126349 6356:0.0085670407 6395:0.026778619 6413:0.092622681 6501:0.034567152 6520:0.0085371081 6521:0.030372921 6532:0.031373866 6535:0.012665381 6543:0.030451812 6548:0.0038651374 6590:0.0072669124 6636:0.015305758 6749:0.0016519008 6775:0.026876264 6790:0.025120553 6840:0.012813836 6877:0.028421215 6889:0.0050680201 6902:0.0077949803 6978:0.011525903 7015:0.019601833 7016:0.025405098 7058:0.021487305 7089:0.0078936649 7107:0.018451785 7109:0.027705518 7146:0.024944858 7200:0.01961304 7213:0.00048272836 7226:0.017052087 7254:0.022274999 7259:0.038285717 7289:0.0083342171 7413:0.023221475 7431:0.059320649 7432:0.004745622 7443:0.019448867 7482:0.037707079 7511:0.019185311 7520:0.0023825166 7521:0.016261884 7523:0.030275943 7531:0.0048256488 7546:0.018258925 7559:0.020134184 7632:0.0071939752 7674:0.0030424988 7719:0.030475994 7739:0.0025489837 7778:0.0041291764 7812:0.0042719813 7830:0.042080601 7849:0.0042944102 7850:0.0017199601 7884:0.011431617 7901:0.018966577 7918:0.042075462 7937:0.024236361 7976:0.018357469 7978:0.073848252 8032:0.010873088 8084:0.0443234 8094:0.025184081 8105:0.014133558 8106:0.015721676 8190:0.022674198 8202:0.0083405991 8215:0.015008455 8240:0.027404697 8247:0.055630481 8250:0.013026579 8257:0.13050131 8337:0.051959806 8374:0.0073973474 8376:0.020694402 8389:0.014961293 8410:0.034429618 8435:0.0068616184 8437:0.023216769 8460:0.020332299 8496:0.068274741 8497:0.0052665197 8541:0.079973171 8567:0.016432038 8588:0.024851066 8595:0.030185327 8626:0.01221908 8707:0.014638359 8711:0.0070014777 8741:0.04274568 8745:0.01958566 8753:0.015009404 8787:0.028177264 8810:0.014773762 8822:0.0010356457 8823:0.011673652 8827:0.022054109 8847:0.039224729 8861:0.066137829 8863:0.01472983 8885:0.020413811 8900:0.02229829 8906:0.014467751 8928:0.0046255915 10020:0.0041398342 10021:0.048231144 10079:0.013023058 10093:0.0036626859 10104:0.013273737 10107:0.029088164 10158:0.017778309 10205:0.061014581 10226:0.013552266 10259:0.022256691 10280:0.00022700278 10331:0.025859165 10352:0.0017419906 10361:0.019690817 10364:0.012287552 10404:0.031594345 10411:0.019836028 10455:0.0034755253 10481:0.015101573 10495:0.013748366 10497:0.033785267 10501:0.042397334 10522:0.024637128 10536:0.018220506 10545:0.013109695 10555:0.0053074554 10560:0.0072207007 10600:0.025129325 10611:0.007387722 10655:0.0033649839 10668:0.016070692 10669:0.010565569 10719:0.055334369 10724:0.014000024 10769:0.033354605 10801:0.036270517 10846:0.016717523 10868:0.019709265 10886:0.08813558 10912:0.0099106787 11107:0.024545051 11187:0.034092466 11259:0.050464056 11404:0.014408029 11451:0.032200195 11630:0.02662435 11679:0.0058304325 11717:0.0043874127 11719:0.06909701 11739:0.019585789 11950:0.010343258 12021:0.043204253 12033:0.0013572309 12039:0.053670378 12065:0.051059573 12072:0.000424915 12076:0.039605786 12087:0.0024888848 12092:0.0086088476 12095:0.01418246 12106:0.014224912 12127:0.00092838738 12132:0.011341122 12157:0.020097041 12166:0.026587169 12179:0.015026122 12182:0.045381302 12190:0.014069827 12200:0.0091512165 12202:0.02779945 12215:0.0071244455 12230:0.030787082 12247:0.0093832923 12255:0.031817093 12326:0.037795509 12327:0.030321926 12328:0.039712141 12353:0.01137693 12375:0.019232508 12391:0.06561421 12426:0.017660517 12481:0.029737037 12486:0.0070755379 12495:0.013768289 12560:0.060347081 12566:0.013925567 12579:0.025017089 12585:0.023914151 12596:0.062949222 12603:0.0096072392 12628:0.0072830786 12659:0.025065609 12669:0.019688504 12680:0.038726199 12769:0.021867623 12775:0.075204903 12802:0.010730906 12809:0.029287992 12847:0.013879736 12854:0.021682865 12886:0.027638367 12889:0.029560221 12911:0.03780474 12966:0.008739687 12998:0.021423034 13058:0.018911237 13069:0.038195688 13170:0.016136905 13194:0.029749106 13208:0.0034454278 13263:0.015331563 13350:0.035054604 13408:0.030581244 13444:0.0086365304 13531:0.0021493485 13644:0.052346783 13740:0.052377354 13784:0.0263466 13830:0.025674588 13849:0.021606871 14063:0.067754739 14158:0.027681479 14196:0.0022813623 14280:0.019867899 14357:0.0091443289 14401:0.020649406 14481:0.018586521 14550:0.0051946665 14659:0.0036823313 14669:0.040003206 14719:0.022014303 14737:0.019179728 14812:0.092080356 14889:0.078489654 15011:0.012135697 15028:0.039140892 15135:0.01184976 15176:0.018233931 15184:0.026979845 15186:0.049500363 15189:0.016143474 15197:0.0028378748 15207:0.049471355 15208:0.0060741819 15210:0.0011468811 15221:0.040652873 15264:0.01470374 15282:0.020428308 15295:0.0091946497 15341:0.022111149 15352:0.010406422 15357:0.0059473794 15367:0.0018205669 15375:0.052566459 15456:0.0021726786 15481:0.011284037 15484:0.026172401 15493:0.0107033 15497:0.011077453 15538:0.02537892 15552:0.038362547 15567:0.012681257 15569:0.0089944533 15643:0.044680738 15692:0.018565163 15787:0.0010279823 15828:0.02447685 15833:0.014801964 15836:0.019829082 15837:0.029540686 15881:0.060382665 15966:0.015818744 16046:0.014191166 16200:0.010728174 16284:0.01953903 16331:0.04023278 16332:0.02227983 16516:0.07800282 16535:0.017210595 16588:0.035959866 16594:0.00059166546 16631:0.015010993 16649:0.016036915 16816:0.0091081249 16828:0.0055132298 16893:0.011163831 17058:0.010055276 17074:0.026257543 17289:0.04250696 17350:0.033441809 17521:0.045612795 17530:0.053837778 17778:0.041606306 17878:0.062316368 17879:0.048689426 17951:0.020080872 17965:0.020435751 17970:0.053077086 18015:0.0021147883 18020:0.014085461 18074:0.012752807 18170:0.050650225 18186:0.043184851 18226:0.016270281 18240:0.016475482 18264:0.016710949 18279:0.00040337175 18370:0.023392375 18413:0.0064334709 18464:0.062803938 18477:0.016476152 18494:0.0096296718 18502:0.048773251 18515:0.019199705 18521:0.0044726906 18530:0.056358819 18611:0.0063526821 18674:0.0079015746 18704:0.019048534 18733:0.023127752 18756:0.0439652 18758:0.030102103 18778:0.052801647 18814:0.015449766 18837:0.0044632466 18880:0.028461409 18881:0.012644165 18948:0.032675952 18994:0.016918611 19053:0.01074007 19089:0.032476385 19186:0.061275093 19189:0.0085314187 19194:0.0051198272 19209:0.03727872 19210:0.00823704 19264:0.033226804 19268:0.019879757 19317:0.033906876 19341:0.0039059469 19366:0.042159122 19370:0.004499517 19399:0.024939084 19494:0.016910746 19502:0.033803383 19667:0.048063728 19754:0.010412154 19758:0.0035836617 19797:0.013397391 19833:0.019265027 19836:0.01042862 19837:0.036944397 19881:0.015678024 19937:0.00091212012 19948:0.045654498 20115:0.037315766 20148:0.01796516 20181:0.017777339 20204:0.014467259 20373:0.021381187 20392:0.0068388381 20405:0.0080990516 20433:0.001815354 20440:0.0098405306 20447:0.017443817 20478:0.011131929 20492:0.017441624 20504:0.017348591 20528:0.0017443197 20529:0.025616703 20552:0.019815386 20576:0.0053093083 20590:0.016259552 20595:0.0068228381 20602:0.0089229523 20731:0.023545305 20787:0.0059046267 20799:0.039056079 20817:0.032504665 20827:0.014528224 20890:0.0074064461 20944:0.0061118064 
14601.93842034806 9:0.009102991 15:0.031596499 16:0.040950872 17:0.062767325 20:0.0066730631 21:0.07774453 28:0.063091812 37:0.084420021 43:0.017910506 58:0.03463572 61:0.071564505 63:0.10921492 69:0.061568223 79:0.020992069 81:0.027237084 83:0.11114103 93:0.0059039403 104:0.021843319 107:0.046887663 109:0.044658956 118:0.0182319 135:0.004545141 146:0.040209005 158:0.044620206 170:0.026011327 176:0.029391557 187:0.054954177 196:0.0036773633 205:0.098350351 207:0.038065418 208:0.0055537387 221:0.065528998 226:0.027486523 259:0.081343796 263:0.024713185 271:0.066367612 275:0.003401356 280:0.032025375 282:0.049908828 289:0.013434054 295:0.014820999 331:0.041682791 332:0.017905457 350:0.044891532 352:0.011487073 356:0.013809346 357:0.014739886 361:0.031739935 364:0.019806496 367:0.0029346001 375:0.084732692 395:0.043164872 401:0.033285098 404:0.050927416 411:0.031974001 413:0.14929994 431:0.095619875 432:0.0076495419 451:0.051903994 455:0.0056022532 456:0.0035021744 481:0.029959902 482:0.060780626 484:0.027826742 495:0.022161205 497:0.054458997 501:0.068340922 511:0.030925101 520:0.013761097 521:0.048958584 522:0.03971297 523:0.048802263 531:0.0077785384 532:0.050572023 535:0.020415524 536:0.029369917 543:0.04908575 545:0.021131721 546:0.029431845 548:0.006230275 550:0.0083733636 552:0.061837186 555:0.0085551699 559:0.02944405 560:0.01163916 567:0.020441116 590:0.011713649 600:0.04050635 611:0.011908384 630:0.042916204 632:0.01159608 636:0.024671589 655:0.0054240698 659:0.0059356071 668:0.025904599 669:0.06448179 679:0.0093981648 692:0.029925475 717:0.0070721388 719:0.11137854 724:0.022566856 737:0.030916102 739:0.031570637 740:0.084427871 749:0.0026627245 769:0.053764807 775:0.043322267 778:0.0066558836 784:0.042468493 787:0.0016570206 790:0.040492209 801:0.058465011 812:0.14842576 828:0.039454615 830:0.067830375 840:0.020654822 846:0.026947235 849:0.034828451 868:0.031769671 877:0.045812598 881:0.097331757 884:0.016281019 886:0.14206711 889:0.12651869 902:0.01256485 912:0.015975177 918:0.0462865 950:0.016672458 966:0.025498479 978:0.0576356 2009:0.009102991 2015:0.031596499 2016:0.040950872 2017:0.062767325 2020:0.0066730631 2037:0.084420021 2043:0.017910506 2058:0.03463572 2061:0.071564505 2081:0.027237084 2083:0.11114103 2093:0.0059039403 2104:0.021843319 2107:0.046887663 2109:0.044658956 2118:0.0182319 2146:0.040209005 2158:0.0054623628 2187:0.054954177 2205:0.098350351 2226:0.027486523 2259:0.081343796 2271:0.066367612 2275:0.003401356 2282:0.049908828 2289:0.013434054 2332:0.017905457 2352:0.011487073 2356:0.013809346 2395:0.043164872 2404:0.050927416 2411:0.031974001 2413:0.14929994 2431:0.095619875 2432:0.0076495419 2451:0.051903994 2482:0.060780626 2497:0.035618515 2501:0.055719329 2511:0.030925101 2520:0.013761097 2521:0.048958584 2523:0.048802263 2531:0.0077785384 2532:0.050572023 2535:0.020415524 2536:0.029369917 2543:0.04908575 2545:0.021131721 2546:0.029431845 2548:0.006230275 2559:0.02944405 2590:0.011713649 2611:0.011908384 2630:0.042916204 2632:0.01159608 2636:0.024671589 2655:0.0054240698 2679:0.0093981648 2717:0.0070721388 2719:0.11137854 2739:0.031570637 2749:0.0026627245 2769:0.053764807 2775:0.043322267 2778:0.0066558836 2790:0.040492209 2801:0.058465011 2812:0.006886073 2830:0.067830375 2840:0.020654822 2846:0.026947235 2877:0.045812598 2884:0.016281019 2889:0.0081692203 2902:0.01256485 2912:0.0069375148 2918:0.0462865 2950:0.016672458 2978:0.0576356 3069:0.061568223 3170:0.026011327 3208:0.0055537387 3263:0.024713185 3350:0.044891532 3531:0.0034645683 3740:0.084427871 3784:0.042468493 3830:0.041385267 3849:0.034828451 4020:0.0025463028 4021:0.07774453 4028:0.063091812 4063:0.10921492 4079:0.020992069 4104:0.021396143 4135:0.004545141 4158:0.044620206 4176:0.029391557 4196:0.0036773633 4207:0.038065418 4221:0.065528998 4226:0.021845108 4280:0.032025375 4295:0.014820999 4331:0.041682791 4352:0.0028079417 4357:0.014739886 4361:0.031739935 4364:0.019806496 4367:0.0029346001 4375:0.084732692 4401:0.033285098 4455:0.0056022532 4456:0.0035021744 4481:0.029959902 4484:0.027826742 4495:0.022161205 4497:0.054458997 4501:0.068340922 4522:0.03971297 4550:0.0083733636 4552:0.061837186 4555:0.0085551699 4560:0.01163916 4567:0.020441116 4600:0.04050635 4659:0.0059356071 4668:0.025904599 4669:0.06448179 4692:0.029925475 4719:0.069514539 4724:0.022566856 4737:0.030916102 4787:0.0016570206 4812:0.14842576 4828:0.039454615 4868:0.031769671 4881:0.097331757 4886:0.14206711 4889:0.12651869 4912:0.015975177 4966:0.025498479 7017:0.062767325 7037:0.084420021 7061:0.071564505 7093:0.0021805678 7104:0.021843319 7158:0.0054623628 7275:0.003401356 7332:0.017905457 7535:0.020415524 7543:0.04908575 7636:0.024671589 7749:0.0026627245 7775:0.043322267 7889:0.0081692203 8015:0.031596499 8016:0.040950872 8043:0.017910506 8058:0.03463572 8083:0.11114103 8118:0.0182319 8146:0.040209005 8226:0.027486523 8282:0.049908828 8289:0.013434054 8352:0.011487073 8395:0.043164872 8413:0.14929994 8431:0.095619875 8511:0.030925101 8520:0.013761097 8521:0.048958584 8531:0.0077785384 8546:0.029431845 8548:0.006230275 8559:0.02944405 8590:0.011713649 8778:0.0066558836 8790:0.040492209 8812:0.006886073 8840:0.020654822 8877:0.045812598 8884:0.016281019 8978:0.047940708 12009:0.009102991 12020:0.0066730631 12081:0.027237084 12093:0.0059039403 12107:0.046887663 12109:0.044658956 12118:0.013046204 12187:0.054954177 12205:0.098350351 12259:0.081343796 12271:0.066367612 12356:0.013809346 12404:0.050927416 12411:0.031974001 12432:0.0076495419 12451:0.051903994 12482:0.060780626 12497:0.035618515 12501:0.055719329 12523:0.048802263 12532:0.050572023 12536:0.029369917 12545:0.021131721 12611:0.011908384 12630:0.042916204 12632:0.01159608 12655:0.0054240698 12679:0.0093981648 12717:0.0070721388 12719:0.11137854 12739:0.031570637 12769:0.053764807 12801:0.058465011 12830:0.067830375 12846:0.026947235 12902:0.01256485 12912:0.0069375148 12918:0.0462865 12950:0.016672458 12978:0.0576356 16020:0.0025463028 16021:0.07774453 16079:0.020992069 16104:0.021396143 16158:0.028657133 16226:0.021845108 16280:0.0003659093 16331:0.041682791 16352:0.0028079417 16357:0.014739886 16361:0.031739935 16364:0.019806496 16401:0.033285098 16455:0.0056022532 16481:0.029959902 16495:0.022161205 16497:0.054458997 16501:0.068340922 16522:0.03971297 16555:0.0085551699 16560:0.01163916 16600:0.04050635 16659:0.0059356071 16668:0.025904599 16669:0.017030805 16719:0.069514539 16724:0.022566856 16868:0.031769671 16886:0.14206711 16889:0.12651869 16912:0.015975177 17263:0.024713185 17350:0.044891532 17531:0.0034645683 17639:-0.0082785709 17849:0.034828451 18069:0.061568223 18170:0.026011327 18208:0.0055537387 18740:0.084427871 18784:0.042468493 18830:0.041385267 19196:0.0036773633 19608:-0.0045978988 19660:-0.036522169 19773:-0.011363889 19812:0.14842576 20028:0.063091812 20063:0.10921492 20135:0.004545141 20158:0.044620206 20176:0.029391557 20207:0.038065418 20221:0.065528998 20280:0.032025375 20295:0.014820999 20367:0.0029346001 20375:0.084732692 20456:0.0035021744 20481:0.018188914 20484:0.027826742 20497:0.017855918 20550:0.0083733636 20552:0.061837186 20567:0.020441116 20669:0.06448179 20692:0.029925475 20737:0.030916102 20787:0.0016570206 20828:0.039454615 20881:0.097331757 20966:0.025498479 
16384 9:0.0081345908 11:0.017480691 15:0.0030462166 20:0.020289201 21:0.069473862 28:0.056379939 43:0.016005139 53:0.01547038 58:0.028831523 63:0.097596346 74:0.018369599 79:0.018758877 81:0.024339531 83:0.099317556 89:0.046780145 93:0.0052758635 104:0.019119965 107:0.04189963 109:0.039908018 118:0.016292343 135:0.017068817 158:0.039873391 170:0.072958392 176:0.026264806 184:0.038862732 186:0.088262833 187:0.049108006 189:0.023253637 194:0.0073747819 196:0.0032861557 197:0.0040877762 200:0.028251324 205:0.087887581 207:0.071260306 208:0.0087494685 209:0.053697599 210:0.011864927 221:0.05855785 226:0.023436294 240:0.023731872 259:0.072690228 264:0.047861075 268:0.028635511 271:0.05930725 279:0.00058103107 280:0.028618431 282:0.044599395 295:0.013244302 317:0.048840675 331:0.037248465 341:0.031849688 352:0.014989782 356:0.012340271 357:0.013171818 361:0.028363356 364:0.017699429 366:0.060727505 367:0.0026224096 370:0.033695213 372:0.024579536 375:0.075718605 399:0.035923147 401:0.029744142 404:0.045509623 411:0.028572523 432:0.0068357634 443:0.028014842 451:0.04638231 455:0.0050062707 456:0.0031296038 464:0.090465035 477:0.023732838 481:0.026772689 482:0.054314623 484:0.037699661 493:0.015417416 494:0.024358842 495:0.019803637 497:0.048665505 501:0.061070634 502:0.070254733 515:0.027655941 520:0.012297155 521:0.0064426233 522:0.035488199 523:0.043610549 530:0.081181256 532:0.045192037 536:0.026245468 538:0.036556702 545:0.018883673 548:0.0055674819 550:0.0074825831 552:0.055258783 555:0.0076450483 559:0.029001997 560:0.010400955 567:0.018266536 569:0.012955932 600:0.036197178 610:0.062779784 611:0.010641539 630:0.038350665 632:0.010362459 643:0.06435973 655:0.0048470429 659:0.0053041616 667:0.069232711 668:0.023148799 669:0.057622047 674:0.01138171 679:0.0083983632 692:0.026741924 704:0.027438189 717:0.006319786 719:0.0995298 724:0.020166135 733:0.033314039 737:0.027627166 739:0.028212069 754:0.014998039 756:0.063329044 758:0.043360144 769:0.048045164 778:0.067337269 787:0.0014807423 790:0.036184541 797:0.019298081 801:0.052245349 812:0.13263583 814:0.022254394 828:0.035257328 830:0.0606144 833:0.027750033 836:0.028562518 837:0.053216029 846:0.024080517 849:0.0061858218 868:0.028389929 880:0.04099683 881:0.086977347 884:0.01646651 886:0.12695364 889:0.1130593 902:0.011228168 912:0.014275696 918:0.060606998 937:0.03491092 948:0.065762369 950:0.014898798 966:0.022785884 978:0.10637366 994:0.024370171 1009:0.0081345908 1063:0.097596346 1081:0.024339531 1118:0.011658314 1196:0.0032861557 1205:0.087887581 1226:0.019521167 1271:0.05930725 1352:0.0025092254 1356:0.012340271 1501:0.061070634 1532:0.045192037 1550:0.0074825831 1555:0.0076450483 1560:0.010400955 1600:0.036197178 1668:0.023148799 1724:0.020166135 1737:0.027627166 1801:0.052245349 1812:0.13263583 1868:0.028389929 1902:0.011228168 2020:0.005963165 2021:0.069473862 2028:0.056379939 2043:0.016005139 2058:0.028831523 2079:0.018758877 2083:0.099317556 2089:0.011370317 2093:0.0052758635 2104:0.019119965 2107:0.04189963 2109:0.039908018 2118:0.016292343 2158:0.039873391 2187:0.049108006 2200:0.028251324 2207:0.03038335 2259:0.072690228 2280:0.028618431 2282:0.044599395 2295:0.013244302 2331:0.037248465 2352:0.010265048 2357:0.013171818 2361:0.028363356 2364:0.017699429 2367:0.0026224096 2401:0.029744142 2404:0.045509623 2411:0.028572523 2432:0.0068357634 2443:0.028014842 2451:0.04638231 2455:0.0050062707 2456:0.0031296038 2481:0.026772689 2482:0.054314623 2484:0.02486646 2495:0.019803637 2497:0.048665505 2520:0.012297155 2522:0.035488199 2523:0.043610549 2536:0.026245468 2545:0.018883673 2548:0.0055674819 2559:0.029001997 2611:0.010641539 2630:0.038350665 2632:0.010362459 2655:0.0048470429 2659:0.0053041616 2669:0.057622047 2674:0.0043825239 2679:0.0083983632 2717:0.006319786 2719:0.0995298 2739:0.028212069 2769:0.048045164 2790:0.036184541 2828:0.035257328 2830:0.0606144 2846:0.024080517 2849:0.0061858218 2884:0.01646651 2886:0.12695364 2889:0.1130593 2912:0.014275696 2918:0.060606998 2937:0.03491092 2950:0.014898798 2966:0.022785884 2978:0.10637366 3015:0.0030462166 3020:0.020289201 3074:0.018369599 3170:0.072958392 3186:0.033770827 3226:0.023436294 3240:0.023731872 3264:0.02145046 3279:0.00058103107 3464:0.090465035 3515:0.027655941 3521:0.0064426233 3530:0.081181256 3674:0.01138171 3704:0.027438189 3733:0.033314039 3756:0.063329044 3758:0.043360144 3778:0.067337269 3814:0.022254394 3880:0.04099683 3994:0.024370171 4011:0.017480691 4020:0.0095024384 4043:0.0044458375 4053:0.01547038 4083:0.013454256 4089:0.046780145 4135:0.017068817 4176:0.026264806 4184:0.038862732 4186:0.088262833 4189:0.023253637 4194:0.0073747819 4197:0.0040877762 4207:0.071260306 4208:0.0087494685 4209:0.053697599 4210:0.011864927 4221:0.05855785 4264:0.047861075 4268:0.028635511 4282:0.029425665 4317:0.048840675 4341:0.031849688 4352:0.014989782 4357:0.0085668176 4366:0.060727505 4370:0.033695213 4372:0.024579536 4375:0.075718605 4399:0.035923147 4464:0.079865171 4477:0.023732838 4481:0.016253929 4484:0.037699661 4493:0.015417416 4494:0.024358842 4497:0.015956358 4502:0.070254733 4530:0.03526905 4538:0.036556702 4552:0.055258783 4567:0.018266536 4569:0.012955932 4610:0.062779784 4611:0.0091506301 4643:0.06435973 4667:0.069232711 4692:0.026741924 4754:0.014998039 4758:0.0051620343 4778:0.061491635 4787:0.0014807423 4797:0.019298081 4833:0.027750033 4836:0.028562518 4837:0.053216029 4881:0.086977347 4937:0.0013138504 4948:0.065762369 4966:0.0059377017 6009:0.0081345908 6081:0.024339531 6118:0.011658314 6205:0.087887581 6271:0.05930725 6356:0.012340271 6501:0.049791759 6532:0.045192037 6801:0.052245349 6902:0.011228168 7020:0.005963165 7043:0.016005139 7083:0.099317556 7093:0.0052758635 7107:0.04189963 7118:0.016292343 7187:0.049108006 7259:0.072690228 7282:0.044599395 7352:0.010265048 7404:0.045509623 7411:0.028572523 7432:0.0068357634 7451:0.04638231 7482:0.054314623 7497:0.031829324 7520:0.012297155 7523:0.043610549 7536:0.026245468 7545:0.018883673 7548:0.0055674819 7611:0.010641539 7630:0.038350665 7655:0.0048470429 7679:0.0083983632 7717:0.006319786 7719:0.0995298 7739:0.028212069 7769:0.048045164 7790:0.036184541 7846:0.024080517 7912:0.0061994837 7950:0.014898798 8058:0.028831523 8089:0.011370317 8107:0.026578611 8109:0.039908018 8200:0.028251324 8259:0.055148114 8443:0.028014842 8559:0.029001997 8632:0.010362459 8674:0.0043825239 8719:0.04389871 8739:0.0036716471 8830:0.0606144 8849:0.0061858218 8884:0.01646651 8918:0.060606998 8937:0.03491092 8978:0.10637366 10063:0.097596346 10196:0.0032861557 10226:0.019521167 10352:0.0025092254 10501:0.061070634 10550:0.0074825831 10555:0.0076450483 10560:0.010400955 10600:0.036197178 10668:0.023148799 10724:0.020166135 10737:0.027627166 10812:0.13263583 10868:0.028389929 11020:0.0022754204 11021:0.069473862 11028:0.056379939 11079:0.018758877 11104:0.019119965 11158:0.039873391 11207:0.03038335 11280:0.028618431 11295:0.013244302 11331:0.037248465 11357:0.013171818 11361:0.028363356 11364:0.017699429 11367:0.0026224096 11401:0.029744142 11455:0.0050062707 11456:0.0031296038 11481:0.026772689 11484:0.02486646 11495:0.019803637 11497:0.048665505 11522:0.035488199 11659:0.0053041616 11669:0.057622047 11719:0.062119398 11828:0.035257328 11886:0.12695364 11889:0.1130593 11912:0.014275696 11966:0.022785884 15135:0.0040616169 15481:0.016253929 15497:0.015956358 15552:0.055258783 15567:0.018266536 15787:0.0014807423 15881:0.086977347 16011:0.017480691 16053:0.01547038 16135:0.017068817 16176:0.026264806 16184:0.038862732 16186:0.071302091 16189:0.023253637 16194:0.0073747819 16197:0.0040877762 16207:0.071260306 16208:0.0087494685 16209:0.053697599 16210:0.011864927 16221:0.05855785 16264:0.021179791 16268:0.022383104 16282:0.029425665 16317:0.048840675 16341:0.031849688 16352:0.014989782 16357:0.0085668176 16375:0.075718605 16399:0.035923147 16484:0.037699661 16493:0.015417416 16538:0.036556702 16569:0.012955932 16643:0.06435973 16692:0.026741924 16754:0.014998039 16797:0.019298081 16833:0.021321277 16836:0.028562518 16837:0.053216029 16881:0.070895114 16966:0.0059377017 17015:0.0030462166 17020:0.020289201 17074:0.018369599 17170:0.072958392 17186:0.033770827 17226:0.023436294 17279:0.00058103107 17515:0.027655941 17521:0.0064426233 17530:0.081181256 17674:0.010340362 17704:0.027438189 17756:0.01297798 17758:0.043360144 17778:0.067337269 17814:0.022254394 17994:0.024370171 18020:0.015439999 18074:0.0077527009 18170:0.057749918 18186:0.019273056 18240:0.023731872 18264:0.02145046 18464:0.090465035 18530:0.076644602 18674:0.01138171 18733:0.033314039 18756:0.063329044 18758:0.027040729 18778:0.015187922 18814:0.01204234 18880:0.04099683 19020:0.0095024384 19043:0.0044458375 19083:0.013454256 19186:0.062205001 19264:0.024071048 19366:0.060727505 19370:0.033695213 19372:0.024579536 19464:0.079865171 19477:0.023732838 19494:0.013870923 19502:0.070254733 19530:0.03526905 19610:0.062779784 19611:0.0091506301 19667:0.069232711 19758:0.0051620343 19778:0.061491635 19837:0.0064290198 19881:0.018213106 19948:0.047067608 20089:0.046780145 20186:0.088262833 20189:0.01228896 20264:0.047861075 20268:0.028635511 20341:0.0056262654 20370:0.0064812649 20399:0.02879121 20494:0.024358842 20502:0.0486916 20833:0.027750033 20836:0.015021757 20937:0.0013138504 20948:0.065762369 
2138.991385312639 1:0.013086415 5:0.049274871 10:0.011866153 15:0.034486511 21:1.3496532e-05 23:0.024372863 24:0.0061900336 25:0.014288047 26:0.012733896 27:0.023176372 28:0.019538753 31:0.017656229 33:0.03381126 36:0.026993912 37:0.0024949641 42:0.033139077 43:0.025750154 49:0.019644905 50:0.0031877078 53:0.033789369 54:0.01440168 60:0.016766567 69:0.0032625294 70:0.0040279534 72:0.005713578 77:0.0024001452 80:0.015022953 83:0.004119855 87:0.014020543 91:0.011882194 97:0.031716755 101:0.022254949 102:0.0013509601 105:0.035094595 109:0.022581434 111:0.015897589 112:0.026443277 113:0.016458537 114:0.018239695 115:0.016274899 118:0.018143222 125:0.030705706 129:0.046541546 131:0.027941925 132:0.0033841849 136:0.019789876 142:0.0013681311 155:0.018286828 159:0.032230996 161:0.021837038 163:0.050575628 167:0.0073646862 168:0.0088796494 170:0.0033028408 171:0.015650999 172:0.0066634824 174:0.010659135 176:0.01448049 179:0.035262109 180:0.027316902 181:0.011623223 186:0.00061611083 188:0.0019549362 192:0.019899815 193:0.044202264 194:0.0064734373 195:0.029597556 196:0.025513924 198:0.030447098 199:0.038201634 203:0.021600571 205:0.075706601 209:0.023189312 211:0.02111439 212:0.022860899 213:0.0079172691 214:0.027279296 215:0.016253932 217:0.0028689712 218:0.019513526 221:0.048120285 222:0.023955325 223:0.02552037 224:0.0034319525 225:0.01467932 226:0.014369142 229:0.015781242 232:0.020240691 234:0.054784628 236:0.022708108 238:0.019426638 240:0.0058878222 242:0.051386391 245:0.0032948962 249:0.032954716 250:0.039679011 251:0.038722548 252:0.062678572 253:0.038404322 254:0.015796319 256:0.029351974 257:0.064171173 258:0.012161497 261:0.022394071 262:0.029385813 265:0.010241233 266:0.02487013 267:0.0020420918 268:0.015256374 271:0.022336732 274:0.006884425 277:0.0092523058 279:0.024402212 283:0.010880347 287:0.019256435 289:0.0085538907 292:0.021790299 293:0.039220016 295:0.010759891 296:0.015927052 297:0.019078327 299:0.028798074 303:0.0088319723 306:0.022148991 310:0.0099337921 313:0.030018997 314:0.029766038 317:0.0074900295 318:0.0068346139 319:0.016580441 321:0.02205878 324:0.012802623 325:0.01871579 327:0.049877075 329:0.004580882 330:0.052184921 333:0.018427205 334:0.00026136562 336:0.045809109 337:0.006518457 338:0.021369654 339:0.011650716 346:0.029274799 347:0.0035918521 349:0.0048709896 350:0.012895209 351:0.0042409356 352:0.029274814 353:0.038327012 354:0.03148225 358:0.017904272 359:0.002519985 360:0.060754768 364:0.043648414 367:0.023848603 368:0.038229051 372:0.055619333 376:0.025543501 382:0.012478402 385:0.020240135 386:0.026252087 388:0.0061041088 391:0.044841972 392:0.013751685 393:0.050012823 395:0.031913052 397:0.03932968 400:0.011094921 401:0.0091672404 402:0.0074026419 405:0.0031025908 406:0.033679953 408:0.021238702 413:0.012355144 418:0.018041304 421:0.019519603 422:0.037322354 425:0.0074776146 431:0.036962577 435:0.024009077 437:0.02404107 439:0.013615088 440:0.0296709 445:0.014461102 447:0.025659766 449:0.018249207 451:0.017510834 452:0.02080411 456:0.0060374023 459:0.012399147 461:0.011972896 464:0.04055648 465:0.028420963 467:0.020683283 472:0.0052386198 474:0.046238726 478:0.019924154 479:0.031448762 484:0.0047455879 488:0.015054276 490:0.056258698 492:0.015508206 493:0.011659409 496:0.071757556 499:0.005097901 501:0.010339834 504:0.023550777 506:0.02367181 508:0.014714402 509:0.0097994793 510:0.064036758 511:0.030243963 514:0.016643852 520:0.019294008 521:0.0033678512 522:0.012023846 523:0.020977823 525:0.026564914 526:0.0079303516 528:0.0045578679 529:0.039443987 531:0.023059901 533:0.014889989 534:0.027648477 537:0.0073129321 538:0.0345248 539:0.0041341311 540:0.014042082 544:0.046645125 546:0.014206394 548:0.01464728 549:0.014608965 550:0.071389802 552:0.016997078 554:0.025618841 555:0.036988927 560:0.019010308 563:0.038686275 564:0.021298937 565:0.039054308 566:0.038931055 567:0.010893609 568:0.0073624289 570:0.0059275449 572:0.042040283 573:0.058892135 574:0.011890942 576:0.032068387 578:0.012633697 579:0.041326737 580:0.0028156182 582:0.016114627 583:0.025943236 585:0.018979259 589:0.0020083343 590:0.0054823426 591:0.02479844 592:0.034387803 595:0.023369458 600:0.024628597 602:0.019853932 603:0.031920296 606:0.013713515 609:0.028005909 610:0.030161159 612:0.00012071004 614:0.01922617 618:0.0036649766 620:0.026117411 621:0.00038819263 622:0.029632222 623:0.024484059 624:0.01292388 627:0.038091341 628:0.007180186 629:0.015590293 630:0.014059212 632:0.0017448186 633:0.0070541167 634:0.017569092 638:0.011251537 639:0.0432396 644:0.01547716 645:0.015993049 647:0.00018069822 654:0.029721278 659:0.029988189 661:0.05716754 665:0.014015554 667:0.019220981 668:0.046309977 672:0.058621175 674:0.0090217406 676:0.015463844 677:0.0053735703 679:0.0035631312 680:0.00075756486 690:0.033341381 692:0.021361334 694:0.0069491586 695:0.021167455 697:0.073074254 698:0.051491201 700:0.014271555 701:0.022147514 704:0.017558262 705:0.0030694865 708:0.042136727 712:0.015515395 713:0.041228389 717:0.001410277 720:0.012373097 722:0.020923781 724:0.063867868 726:0.044177552 728:0.0094373569 729:0.0092424525 731:0.046812584 733:0.012024647 734:0.015756682 736:0.025125324 738:0.037263561 739:0.034688631 740:0.0020062945 742:0.017392578 745:0.021436793 747:0.0069988133 750:0.0080114409 754:0.015820304 755:0.010411145 757:0.013489856 759:0.034542769 762:0.030848154 763:0.012993384 768:0.021379726 770:0.0040082745 772:0.0088947492 773:0.046949278 775:0.010578873 780:0.031208743 781:0.0081472792 784:0.010137776 787:0.0065209378 790:0.040746805 791:0.059445786 795:0.032406653 797:0.015807681 798:0.020042263 799:0.024732253 801:0.037858471 802:0.0042421518 805:0.022404554 806:0.0073674518 808:0.046656194 810:0.028253282 818:0.0077550552 821:0.0032415527 822:0.0088381834 823:0.01558459 826:0.013746091 827:0.0056052833 828:0.013181325 831:0.042240168 832:0.022344071 833:0.030951032 834:0.024090674 837:0.024509964 838:0.00753298 840:0.027994238 842:0.019186614 844:0.028399377 845:0.048104551 849:0.021018955 855:0.010688471 858:0.054003055 859:0.006855702 862:0.030591852 863:0.018954998 868:0.022911076 874:0.0044143031 878:0.0081971935 879:0.011793642 882:0.0095566419 883:0.050481343 884:0.0073051154 885:0.0072029107 886:0.00389792 889:0.021102302 890:0.021134829 892:0.024616144 898:0.022118627 900:0.016727456 901:0.033511115 902:0.020344194 903:0.019042473 905:0.042009339 906:0.04042926 915:0.010952579 916:0.040451428 918:0.025594738 920:0.026641711 923:0.01490843 928:0.00011320164 931:0.06403685 933:0.0022283034 939:0.037232802 943:0.00082531493 944:0.0084203025 948:0.0067780264 951:0.043059083 955:0.0032109205 957:0.041494363 961:0.03589001 965:0.012253497 970:0.0223816 971:0.003464807 972:0.004909455 973:0.024238373 975:0.020532944 976:0.0011341699 980:0.035691383 981:0.016284908 989:0.064289169 992:0.020857804 994:0.029719683 995:0.0058295751 999:0.017870436 1212:0.022860899 1236:0.016638426 1261:0.0055098793 1262:0.020500096 1297:0.019078327 1337:0.006518457 1338:0.021369654 1630:0.012291262 1679:0.0035631312 1734:0.010246001 1831:0.014660108 1939:0.037232802 2001:0.0018286104 2010:0.011866153 2021:1.3496532e-05 2028:0.019538753 2033:0.03381126 2036:0.026993912 2037:0.0024949641 2050:0.0031877078 2077:0.0024001452 2087:0.014020543 2097:0.031716755 2101:0.022254949 2111:0.015897589 2112:0.0047118311 2115:0.0050122826 2125:0.030705706 2132:0.0033841849 2136:0.019789876 2155:0.018286828 2163:0.050575628 2171:0.015650999 2176:0.01448049 2180:0.027316902 2181:0.0097008123 2196:0.025513924 2198:0.030447098 2203:0.021600571 2213:0.0079172691 2217:0.0028689712 2218:0.016599386 2221:0.048120285 2222:0.023955325 2224:0.0016856941 2226:0.014369142 2234:0.054784628 2236:0.022708108 2238:0.019426638 2250:0.039679011 2253:0.038404322 2254:0.015796319 2257:0.064171173 2265:0.010241233 2266:0.02487013 2271:0.022336732 2279:0.024402212 2283:0.010880347 2287:0.0068031656 2292:0.021790299 2295:0.010759891 2296:0.015927052 2306:0.008851281 2310:0.0099337921 2313:0.030018997 2314:0.029766038 2319:0.016580441 2324:0.011214162 2325:0.01871579 2333:0.00041826784 2334:0.00026136562 2336:0.045809109 2339:0.011650716 2346:0.029274799 2349:0.0048709896 2352:0.029274814 2358:0.017904272 2359:0.002519985 2367:0.023848603 2368:0.038229051 2376:0.011336748 2391:0.044841972 2392:0.013751685 2393:0.050012823 2402:0.0074026419 2405:0.0031025908 2413:0.012355144 2418:0.0080476079 2421:0.019519603 2422:0.030853405 2431:0.036962577 2437:0.015221729 2439:0.0035826116 2440:0.014608095 2447:0.025659766 2459:0.012399147 2461:0.011972896 2472:0.0052386198 2474:0.046238726 2488:0.015054276 2490:0.020644935 2496:0.071757556 2501:0.010339834 2504:0.0021308925 2506:0.02367181 2522:0.0081493772 2525:0.026564914 2528:0.0045578679 2538:0.0345248 2544:0.046645125 2546:0.014206394 2548:0.01464728 2549:0.014608965 2552:0.016997078 2555:0.036988927 2560:0.019010308 2563:0.038686275 2564:0.021298937 2566:0.038931055 2567:0.0096474562 2568:0.0073624289 2572:0.042040283 2573:0.058892135 2576:0.032068387 2578:0.011081699 2585:0.012398694 2591:0.02479844 2592:0.034387803 2600:0.024628597 2603:0.031920296 2606:0.013713515 2609:0.028005909 2612:0.00012071004 2614:0.01243572 2618:0.0036649766 2623:0.024484059 2624:0.01292388 2627:0.038091341 2629:0.015590293 2633:0.0070541167 2638:0.011251537 2654:0.0010101072 2659:0.029988189 2665:0.0013928707 2667:0.019220981 2668:0.046309977 2676:0.015463844 2677:0.0053735703 2680:0.00075756486 2690:0.031787458 2692:0.021361334 2695:0.0057902139 2700:0.010872815 2701:0.022147514 2717:0.001410277 2722:0.020923781 2724:0.063867868 2728:0.0094373569 2729:0.0017908213 2731:0.046812584 2733:0.0026954114 2738:0.037263561 2745:0.0069618843 2755:0.010411145 2762:0.030848154 2768:0.021379726 2770:0.0040082745 2772:0.0088947492 2773:0.046949278 2775:0.010578873 2780:0.031208743 2791:0.059445786 2799:0.024732253 2801:0.037858471 2805:0.012360996 2810:0.011846215 2821:0.0032415527 2822:0.0088381834 2823:5.355637e-05 2827:0.0044809234 2828:0.013181325 2834:0.0091131727 2838:0.00753298 2840:0.0096870701 2844:0.028399377 2855:0.002635113 2862:0.030591852 2863:0.018954998 2874:0.0044143031 2879:0.011793642 2882:0.0074948037 2883:0.050481343 2885:0.0072029107 2889:0.0026237125 2890:0.021134829 2892:0.01172875 2900:0.016727456 2902:0.020344194 2903:0.019042473 2905:0.042009339 2906:0.04042926 2915:0.010952579 2923:0.01490843 2928:0.00011320164 2944:0.0084203025 2951:0.000473425 2961:0.03589001 2970:0.0223816 2972:0.00093346636 2973:0.024238373 2980:0.035691383 2981:0.016284908 2989:0.064289169 2992:0.020857804 2994:0.029719683 3001:0.013086415 3005:0.049274871 3010:0.0096216112 3024:0.0037543141 3025:0.014288047 3026:0.012733896 3033:0.016566843 3042:0.033139077 3043:0.025750154 3060:0.010183531 3069:0.0032625294 3070:0.0040279534 3087:0.011363433 3102:0.0013509601 3105:0.035094595 3112:0.022946664 3115:0.00049388991 3118:0.0040968552 3129:0.0056023865 3131:0.0043605 3136:0.0081531969 3159:0.032230996 3168:0.0088796494 3170:0.0033028408 3174:0.010659135 3192:0.018986114 3214:0.027279296 3215:0.016253932 3218:0.019513526 3223:0.02552037 3224:0.0034319525 3225:0.014265972 3240:0.0058878222 3250:0.016483658 3253:0.032577008 3256:0.029351974 3261:0.022394071 3310:0.0076334386 3324:0.012802623 3333:0.018427205 3353:0.038327012 3354:0.01927229 3360:0.010885088 3368:0.010023245 3385:0.020240135 3391:0.037507736 3395:0.031913052 3400:0.011094921 3406:0.033679953 3418:0.01143349 3421:0.011354913 3425:0.0074776146 3437:0.02404107 3439:0.013615088 3449:0.018249207 3451:0.017510834 3464:0.04055648 3465:0.021206977 3467:0.020683283 3478:0.019924154 3490:0.056258698 3496:0.0075387635 3506:0.02100296 3514:0.016643852 3522:0.012023846 3523:0.020977823 3529:0.039443987 3533:0.014889989 3537:0.0073129321 3538:0.0095230978 3555:0.010851947 3560:0.013076712 3563:0.01126419 3564:0.016652348 3574:0.011890942 3578:0.012633697 3579:0.041326737 3583:0.025943236 3585:0.018979259 3595:0.005191633 3602:0.010962937 3610:0.017204906 3620:0.026117411 3627:0.019723849 3644:0.01547716 3661:0.046113112 3665:0.014015554 3672:0.058621175 3690:0.033341381 3697:0.013281495 3701:0.015076652 3705:0.0030694865 3708:0.011466493 3726:0.044177552 3733:0.012024647 3734:0.015756682 3740:0.0020062945 3742:0.013975516 3745:0.018638508 3747:0.0069988133 3784:0.010137776 3787:0.0065209378 3790:0.02039118 3795:0.032406653 3798:0.020042263 3799:0.014597496 3810:0.028253282 3823:0.01558459 3831:0.020663866 3834:0.024090674 3840:0.027390567 3845:0.0090632088 3855:0.0029398779 3858:0.0045852272 3862:0.02216338 3863:0.0075570947 3868:0.022911076 3885:0.0034607516 3889:0.021102302 3890:0.0038706107 3892:0.024616144 3900:0.0094613728 3902:0.013848079 3957:0.027487152 3961:0.022857806 3972:0.004909455 3976:0.0011341699 3980:0.016037346 3994:0.022407116 3999:0.017870436 4001:0.009460437 4015:0.034486511 4023:0.024372863 4024:0.0061900336 4025:0.0087921803 4026:0.010603406 4027:0.023176372 4031:0.017656229 4036:0.0091046359 4043:0.022611044 4049:0.019644905 4050:0.00046987621 4053:0.033789369 4054:0.01440168 4060:0.016766567 4072:0.005713578 4080:0.015022953 4083:0.004119855 4091:0.011882194 4109:0.022581434 4111:0.0053444244 4112:0.026443277 4113:0.016458537 4114:0.018239695 4115:0.016274899 4118:0.018143222 4129:0.046541546 4131:0.027941925 4136:0.017428341 4142:0.0013681311 4155:0.016249054 4161:0.021837038 4167:0.0073646862 4172:0.0066634824 4176:0.0093707819 4179:0.035262109 4181:0.011623223 4186:0.00061611083 4188:0.0019549362 4192:0.019899815 4193:0.044202264 4194:0.0064734373 4195:0.029597556 4199:0.038201634 4203:0.0024118936 4205:0.075706601 4209:0.023189312 4211:0.02111439 4221:0.0421687 4225:0.01467932 4226:0.003472575 4229:0.015781242 4232:0.020240691 4236:0.013088424 4242:0.051386391 4245:0.0032948962 4249:0.032954716 4251:0.038722548 4252:0.062678572 4254:0.0082859682 4257:0.026080527 4258:0.012161497 4261:0.018369857 4262:0.029385813 4266:0.0077469595 4267:0.0020420918 4268:0.015256374 4271:0.019307939 4274:0.006884425 4277:0.0092523058 4287:0.019256435 4289:0.0085538907 4292:0.0035988109 4293:0.039220016 4299:0.028798074 4303:0.0088319723 4306:0.022148991 4317:0.0074900295 4318:0.0068346139 4321:0.02205878 4327:0.049877075 4329:0.004580882 4330:0.052184921 4333:0.0038677856 4347:0.0035918521 4350:0.012895209 4351:0.0042409356 4354:0.03148225 4360:0.060754768 4364:0.043648414 4372:0.055619333 4376:0.025543501 4382:0.012478402 4385:0.0066616851 4386:0.026252087 4388:0.0061041088 4391:0.0060335391 4393:0.01576562 4395:0.022192744 4397:0.03932968 4401:0.0091672404 4408:0.021238702 4413:0.009057591 4418:0.018041304 4422:0.037322354 4435:0.024009077 4437:0.020891462 4439:0.00039897067 4440:0.0296709 4445:0.014461102 4447:0.013102902 4452:0.02080411 4456:0.0060374023 4459:0.011352815 4465:0.028420963 4479:0.031448762 4484:0.0047455879 4490:0.016206398 4492:0.015508206 4493:0.011659409 4496:0.042414476 4499:0.005097901 4504:0.023550777 4506:0.021806755 4508:0.014714402 4509:0.0097994793 4510:0.064036758 4511:0.030243963 4514:0.01366854 4520:0.019294008 4521:0.0033678512 4525:0.0035984078 4526:0.0079303516 4531:0.023059901 4534:0.027648477 4538:0.032875488 4539:0.0041341311 4540:0.014042082 4550:0.071389802 4554:0.025618841 4563:0.0098144544 4565:0.039054308 4567:0.010893609 4570:0.0059275449 4576:0.013306047 4580:0.0028156182 4582:0.016114627 4589:0.0020083343 4590:0.0054823426 4595:0.023369458 4600:0.0052986416 4602:0.019853932 4610:0.030161159 4614:0.01922617 4620:0.0086156186 4621:0.00038819263 4622:0.029632222 4623:0.013056429 4628:0.007180186 4630:0.014059212 4632:0.0017448186 4634:0.017569092 4639:0.0432396 4645:0.015993049 4647:0.00018069822 4654:0.029721278 4661:0.05716754 4667:0.01050508 4672:0.03413397 4674:0.0090217406 4692:0.019204406 4694:0.0069491586 4695:0.021167455 4697:0.073074254 4698:0.051491201 4700:0.014271555 4704:0.017558262 4708:0.042136727 4712:0.015515395 4713:0.041228389 4720:0.012373097 4729:0.0092424525 4731:0.0090852709 4736:0.025125324 4739:0.034688631 4742:0.017392578 4745:0.021436793 4750:0.0080114409 4754:0.015820304 4757:0.013489856 4759:0.034542769 4763:0.012993384 4768:0.018577655 4780:0.020283372 4781:0.0081472792 4784:0.009250533 4790:0.040746805 4797:0.015807681 4799:0.00073485519 4801:0.0098132417 4802:0.0042421518 4805:0.022404554 4806:0.0073674518 4808:0.046656194 4810:0.017375647 4818:0.0077550552 4822:0.0058256736 4823:0.012601543 4826:0.013746091 4827:0.0056052833 4831:0.042240168 4832:0.022344071 4833:0.030951032 4837:0.024509964 4838:0.0025653073 4840:0.027994238 4842:0.019186614 4844:0.016523286 4845:0.048104551 4849:0.021018955 4855:0.010688471 4858:0.054003055 4859:0.006855702 4863:0.0048598666 4878:0.0081971935 4879:0.0025533689 4882:0.0095566419 4884:0.0073051154 4886:0.00389792 4890:0.019532315 4898:0.022118627 4901:0.033511115 4906:0.015249142 4916:0.040451428 4918:0.025594738 4920:0.026641711 4923:0.0028571808 4931:0.06403685 4933:0.0022283034 4943:0.00082531493 4948:0.0067780264 4951:0.043059083 4955:0.0032109205 4957:0.041494363 4961:0.0050691275 4965:0.012253497 4970:0.02033727 4971:0.003464807 4972:0.0048421764 4973:0.0059791794 4975:0.020532944 4980:0.014882255 4994:0.02633917 4995:0.0058295751 5212:0.022860899 5236:0.016638426 5297:0.019078327 5338:0.021369654 5734:0.010246001 5831:0.014660108 5939:0.037232802 6261:0.0055098793 6262:0.020500096 6337:0.006518457 6630:0.012291262 6679:0.0035631312 7033:0.0084098169 7036:0.01596807 7087:0.0067500669 7097:0.031716755 7101:0.022254949 7136:0.017245476 7176:0.01448049 7198:0.030447098 7203:0.0060798449 7222:0.023955325 7224:0.0016856941 7226:0.014369142 7238:0.0072452959 7257:0.064171173 7271:0.012349833 7279:0.024402212 7296:0.015927052 7313:0.030018997 7333:0.00041826784 7349:0.0048709896 7368:0.038229051 7392:0.013751685 7405:0.0031025908 7421:0.0095326245 7440:0.014608095 7474:0.046238726 7501:0.010339834 7506:0.016294613 7525:0.024013342 7528:0.0045578679 7544:0.046645125 7548:0.01464728 7549:0.014608965 7555:0.023912621 7560:0.010785421 7564:0.021298937 7566:0.038931055 7573:0.058892135 7600:0.024628597 7609:0.028005909 7612:0.00012071004 7618:0.0036649766 7627:0.0058674068 7654:0.0010101072 7659:0.014456586 7667:0.019220981 7668:0.012013917 7690:0.023015118 7695:0.0057902139 7717:0.001410277 7722:0.020923781 7724:0.012698873 7729:0.0017908213 7731:0.046812584 7745:0.0017095161 7762:0.024994746 7801:0.017612973 7821:0.0032415527 7827:0.0044809234 7862:0.030591852 7879:0.011793642 7882:0.0074948037 7889:0.0026237125 7902:0.020344194 7905:0.042009339 7923:0.01490843 7928:0.00011320164 7944:0.0084203025 7961:0.011265589 7980:0.035691383 7981:0.016284908 7992:0.020857804 7994:0.029719683 8028:0.019538753 8033:0.0095699797 8036:0.026993912 8037:0.0024949641 8077:0.0024001452 8087:0.014020543 8112:0.0047118311 8125:0.030705706 8132:0.0033841849 8155:0.018286828 8180:0.027316902 8181:0.0040062493 8196:0.025513924 8213:0.0079172691 8221:0.048120285 8238:0.019426638 8250:0.011945128 8254:0.015796319 8266:0.02487013 8279:0.010497553 8287:0.0068031656 8319:0.016580441 8324:0.011214162 8325:0.01871579 8334:0.00026136562 8336:0.045809109 8339:0.011650716 8359:0.002519985 8367:0.023848603 8391:0.0018494666 8421:0.019519603 8431:0.036962577 8439:0.0035826116 8440:0.01083307 8447:0.0053237155 8472:0.0052386198 8488:0.015054276 8496:0.041264357 8501:0.0012083346 8549:0.014140289 8552:0.016997078 8560:0.019010308 8563:0.038686275 8566:0.0004821962 8567:0.0089890299 8568:0.0063625507 8573:0.00044847995 8576:0.0081189887 8578:0.011081699 8585:0.012398694 8603:0.031920296 8623:0.024484059 8627:0.038091341 8629:0.015590293 8633:0.0070541167 8638:0.011251537 8659:0.029988189 8665:0.0013928707 8676:0.015463844 8677:0.0053735703 8680:0.00075756486 8690:0.031787458 8724:0.063867868 8728:0.0094373569 8731:0.035387726 8733:0.0026954114 8738:0.037263561 8745:0.0069618843 8762:0.030848154 8770:0.0040082745 8772:0.0088947492 8773:0.046949278 8775:0.010578873 8780:0.031208743 8791:0.059445786 8828:0.013181325 8834:0.0091131727 8840:0.0096870701 8844:0.028399377 8863:0.018954998 8874:0.0044143031 8879:0.0072296186 8883:0.050481343 8885:0.0072029107 8890:0.015323631 8892:0.01172875 8900:0.016727456 8903:0.019042473 8906:0.04042926 8915:0.010952579 8951:0.000473425 8961:0.03589001 8970:0.02043109 8980:0.0080827626 8989:0.064289169 11001:0.0018286104 11010:0.011866153 11033:0.03381126 11087:0.010598497 11101:0.0080525652 11111:0.015897589 11136:0.019789876 11163:0.050575628 11171:0.015650999 11203:0.021600571 11217:0.0028689712 11218:0.016599386 11234:0.054784628 11250:0.039679011 11253:0.038404322 11265:0.010241233 11271:0.022336732 11283:0.010880347 11292:0.021790299 11310:0.0099337921 11346:0.029274799 11352:0.029274814 11358:0.017904272 11393:0.050012823 11402:0.0074026419 11413:0.012355144 11422:0.030853405 11437:0.015221729 11447:0.025659766 11459:0.012399147 11461:0.011972896 11496:0.071757556 11504:0.0021308925 11525:0.026564914 11538:0.0345248 11546:0.014206394 11555:0.036988927 11564:0.002668231 11567:0.0096474562 11572:0.042040283 11573:0.039556235 11585:0.0096501822 11591:0.02479844 11592:0.031596095 11606:0.013713515 11624:0.01292388 11668:0.046309977 11692:0.021361334 11700:0.010872815 11701:0.022147514 11768:0.021379726 11799:0.024732253 11801:0.037858471 11805:0.012360996 11810:0.011846215 11823:5.355637e-05 11838:0.00753298 11844:0.0091085514 11855:0.002635113 11862:0.020610522 11879:0.010835324 11902:0.0017134084 11906:0.018946397 11970:0.0223816 11972:0.00093346636 11973:0.024238373 11994:0.0043910092 12021:1.3496532e-05 12050:0.0031877078 12115:0.0050122826 12181:0.0097008123 12236:0.022708108 12295:0.010759891 12306:0.008851281 12314:0.029766038 12376:0.011336748 12391:0.044841972 12418:0.0080476079 12490:0.020644935 12506:0.02367181 12522:0.0081493772 12568:0.0073624289 12576:0.032068387 12592:0.034387803 12614:0.01243572 12755:0.010411145 12822:0.0088381834 12890:0.021134829 13001:0.013086415 13005:0.049274871 13010:0.0075006896 13024:0.0037543141 13025:0.014288047 13026:0.012733896 13033:0.016566843 13043:0.025750154 13060:0.010183531 13069:0.0032625294 13070:0.0040279534 13102:0.0013509601 13112:0.022946664 13115:0.00049388991 13118:0.0040968552 13129:0.0056023865 13131:0.0043605 13136:0.0081531969 13168:0.0088796494 13170:0.0033028408 13174:0.010659135 13192:0.018986114 13215:0.016253932 13223:0.02552037 13224:0.0034319525 13250:0.016483658 13253:0.032577008 13310:0.0076334386 13333:0.010956019 13353:0.038327012 13360:0.010885088 13368:0.010023245 13395:0.031547589 13406:0.033679953 13421:0.011354913 13425:0.0074776146 13439:0.013615088 13449:0.018249207 13451:0.017510834 13464:0.04055648 13465:0.021206977 13467:0.020683283 13478:0.019924154 13496:0.0075387635 13523:0.020977823 13529:0.039443987 13560:0.0095430669 13563:0.01126419 13564:0.016652348 13574:0.011890942 13578:0.012633697 13583:0.025943236 13602:0.010962937 13610:0.017204906 13644:0.01547716 13661:0.046113112 13665:0.014015554 13672:0.058621175 13690:0.0055315979 13705:0.0030694865 13708:0.011466493 13726:0.044177552 13733:0.012024647 13740:0.0020062945 13784:0.010137776 13795:0.032406653 13823:0.01558459 13834:0.024090674 13840:0.027390567 13845:0.0090632088 13855:0.0029398779 13858:0.0045852272 13862:0.02216338 13863:0.0075570947 13868:0.019876776 13890:0.0038706107 13900:0.0094613728 13902:0.013848079 13961:0.022857806 13972:0.004909455 13980:0.016037346 13994:0.0075401023 13999:0.017870436 14010:0.0096216112 14087:0.011363433 14105:0.035094595 14218:0.019513526 14256:0.029351974 14437:0.02404107 14467:0.0047607281 14585:0.018979259 14690:0.033341381 14787:0.0065209378 14810:0.028253282 14840:0.020074876 14868:0.022911076 14976:0.0011341699 15001:0.009460437 15026:0.010603406 15054:0.01440168 15091:0.011882194 15113:0.016458537 15115:0.016274899 15142:0.0013681311 15155:0.016249054 15167:0.0073646862 15181:0.011623223 15195:0.029597556 15211:0.02111439 15221:0.0421687 15225:0.01467932 15236:0.013088424 15249:0.032954716 15251:0.038722548 15254:0.0082859682 15287:0.019256435 15299:0.0073046108 15306:0.022148991 15321:0.01001466 15333:0.0038677856 15354:0.03148225 15382:0.012478402 15385:0.0066616851 15391:0.0060335391 15393:0.01576562 15395:0.022192744 15397:0.03932968 15418:0.018041304 15437:0.020891462 15439:0.00039897067 15447:0.013102902 15459:0.011352815 15479:0.010919575 15490:0.00099794283 15504:0.023550777 15506:0.021806755 15510:0.064036758 15514:0.01366854 15534:0.021595097 15539:0.0041341311 15540:0.014042082 15554:0.025618841 15563:0.0098144544 15565:0.039054308 15590:0.0054823426 15595:0.023369458 15602:0.019853932 15614:0.01922617 15620:0.0086156186 15628:0.007180186 15647:0.00018069822 15661:0.05716754 15692:0.019204406 15720:0.012373097 15763:0.012993384 15799:0.00073485519 15801:0.0098132417 15805:0.022404554 15806:0.0073674518 15810:0.0099343249 15831:0.042240168 15832:0.022344071 15838:0.0025653073 15840:0.027994238 15855:0.010688471 15858:0.054003055 15901:0.033511115 15906:0.015249142 15931:0.0036765473 15951:0.043059083 15957:0.041494363 15973:0.0059791794 15975:0.020532944 15980:0.0022525873 17026:0.0053147868 17214:0.027279296 17225:0.0019813763 17354:0.01927229 17391:0.037507736 17418:0.01143349 17439:0.0037789435 17514:0.016643852 17522:0.012023846 17538:0.0095230978 17555:0.010851947 17579:0.041326737 17595:0.005191633 17701:0.015076652 17742:0.013975516 17745:0.018638508 17798:0.0085649495 17831:0.020663866 17889:0.021102302 18042:0.033139077 18159:0.032230996 18225:0.014265972 18240:0.0058878222 18261:0.022394071 18324:0.012802623 18333:0.018427205 18353:0.0057884915 18385:0.020240135 18395:0.031913052 18400:0.011094921 18490:0.056258698 18506:0.02100296 18533:0.014889989 18537:0.0073129321 18560:0.013076712 18564:0.01183268 18620:0.026117411 18627:0.019723849 18665:0.0023951632 18697:0.013281495 18734:0.015756682 18747:0.0069988133 18790:0.02039118 18798:0.020042263 18799:0.014597496 18834:0.0043758568 18855:0.00031411369 18885:0.0034607516 18892:0.024616144 18957:0.027487152 18994:0.022407116 19001:0.00034718215 19023:0.024372863 19024:0.0061900336 19025:0.0087921803 19027:0.023176372 19031:0.017656229 19036:0.0091046359 19043:0.022611044 19049:0.019644905 19050:0.00046987621 19053:0.033789369 19060:0.016766567 19072:0.005713578 19080:0.015022953 19083:0.004119855 19091:0.0049890335 19109:0.022581434 19112:0.026443277 19114:0.018239695 19118:0.018143222 19129:0.046541546 19131:0.027941925 19136:0.017428341 19161:0.021837038 19167:0.0062428951 19172:0.0066634824 19176:0.0093707819 19179:0.035262109 19186:0.00061611083 19192:0.019899815 19193:0.044202264 19194:0.0064734373 19199:0.038201634 19203:0.0024118936 19205:0.075706601 19209:0.023189312 19226:0.003472575 19229:0.015781242 19232:0.020240691 19242:0.051386391 19245:0.0032948962 19249:0.017302565 19252:0.062678572 19257:0.026080527 19258:0.012161497 19266:0.0077469595 19267:0.0020420918 19268:0.015256374 19271:0.019307939 19274:0.006884425 19277:0.0092523058 19292:0.0035988109 19293:0.037514386 19299:0.028798074 19303:0.0088319723 19317:0.0074900295 19318:0.0068346139 19327:0.049877075 19329:0.004580882 19330:0.052184921 19347:0.0035918521 19350:0.012895209 19351:0.0042409356 19360:0.060754768 19364:0.043648414 19372:0.055619333 19376:0.025543501 19386:0.026252087 19388:0.0061041088 19393:0.0053474059 19401:0.0091672404 19408:0.021238702 19418:0.016361567 19422:0.037322354 19435:0.024009077 19440:0.0296709 19445:0.014461102 19452:0.02080411 19456:0.0060374023 19465:0.028420963 19479:0.031448762 19484:0.0047455879 19490:0.016206398 19492:0.015508206 19493:0.011659409 19496:0.042414476 19499:0.005097901 19506:0.017661359 19508:0.014714402 19509:0.0097994793 19511:0.030243963 19520:0.019294008 19521:0.0033678512 19525:0.0035984078 19526:0.0079303516 19531:0.023059901 19534:0.027648477 19550:0.071389802 19567:0.010893609 19576:0.013306047 19580:0.0028156182 19582:0.016114627 19589:0.0020083343 19610:0.030161159 19620:0.007545188 19622:0.029632222 19623:0.013056429 19630:0.014059212 19632:0.0017448186 19634:0.017569092 19639:0.0432396 19645:0.015993049 19654:0.029721278 19667:0.01050508 19672:0.03413397 19674:0.0090217406 19694:0.0069491586 19695:0.021167455 19697:0.073074254 19698:0.051491201 19700:0.014271555 19704:0.017558262 19708:0.042136727 19712:0.015515395 19729:0.0092424525 19731:0.0090852709 19736:0.025125324 19739:0.034688631 19742:0.017392578 19745:0.021436793 19750:0.0080114409 19754:0.015820304 19757:0.013489856 19759:0.034542769 19768:0.018577655 19780:0.0010228744 19781:0.0081472792 19784:0.009250533 19790:0.040746805 19797:0.015807681 19802:0.0042421518 19805:0.013536929 19808:0.046656194 19810:0.017375647 19818:0.0077550552 19822:0.0058256736 19823:0.012601543 19826:0.013746091 19827:0.0056052833 19833:0.030951032 19837:0.024509964 19842:0.019186614 19844:0.016523286 19845:0.048104551 19849:0.021018955 19858:0.020533832 19859:0.006855702 19863:0.0048598666 19878:0.0081971935 19882:0.0095566419 19884:0.0073051154 19886:0.00389792 19890:0.019532315 19898:0.022118627 19906:0.0059138478 19916:0.040451428 19918:0.025594738 19920:0.026641711 19923:0.0028571808 19931:0.06403685 19933:0.0022283034 19943:0.00082531493 19948:0.0067780264 19955:0.0032109205 19961:0.0050691275 19965:0.012253497 19970:0.02033727 19971:0.003464807 19972:0.0048421764 19980:0.014882255 19994:0.02633917 19995:0.0058295751 20015:0.034486511 20111:0.0053444244 20188:0.0019549362 20261:0.018369857 20262:0.029385813 20289:0.0085538907 20293:0.039220016 20321:0.02205878 20413:0.009057591 20538:0.032875488 20570:0.0059275449 20600:0.0052986416 20621:0.00038819263 20623:0.0023108979 20630:0.0038486077 20713:0.041228389 20780:0.020283372 20879:0.0025533689 
